<?xml version="1.0"?>
<MethodSetup Method="DNN::DNN_QCD">
  <GeneralInfo>
    <Info name="TMVA Release" value="4.2.1 [262657]"/>
    <Info name="ROOT Release" value="6.12/04 [396292]"/>
    <Info name="Creator" value="viniciusmikuni"/>
    <Info name="Date" value="Tue Feb 20 19:08:03 2018"/>
    <Info name="Host" value="Darwin Viniciuss-MacBook-Pro.local 17.2.0 Darwin Kernel Version 17.2.0: Fri Sep 29 18:27:05 PDT 2017; root:xnu-4570.20.62~3/RELEASE_X86_64 x86_64"/>
    <Info name="Dir" value="/Users/viniciusmikuni/cernbox/CMS/ttbbAnalysis/KinFitter/test/MVA/BDT"/>
    <Info name="Training events" value="723270"/>
    <Info name="TrainingTime" value="2.33680292e+02"/>
    <Info name="AnalysisType" value="Classification"/>
  </GeneralInfo>
  <Options>
    <Option name="V" modified="Yes">True</Option>
    <Option name="VerbosityLevel" modified="No">Verbose</Option>
    <Option name="VarTransform" modified="Yes">None</Option>
    <Option name="H" modified="Yes">False</Option>
    <Option name="CreateMVAPdfs" modified="No">False</Option>
    <Option name="IgnoreNegWeightsInTraining" modified="No">False</Option>
    <Option name="Layout" modified="Yes">RELU|64,RELU|64,RELU|64,SOFTSIGN</Option>
    <Option name="ValidationSize" modified="No">20%</Option>
    <Option name="ErrorStrategy" modified="Yes">CROSSENTROPY</Option>
    <Option name="WeightInitialization" modified="Yes">XAVIERUNIFORM</Option>
    <Option name="Architecture" modified="Yes">CPU</Option>
    <Option name="TrainingStrategy" modified="Yes">LearningRate=1e-3,Momentum=0.0,Repetitions=1,ConvergenceSteps=20,BatchSize=256,TestRepetitions=10,Regularization=L2,Multithreading=True,DropConfig=0.1,DropRepetitions=1</Option>
  </Options>
  <Variables NVar="4">
    <Variable VarIndex="0" Expression="BDT_Comb" Label="BDT_Comb" Title="BDT_Comb" Unit="" Internal="BDT_Comb" Type="F" Min="-9.98794496e-01" Max="9.88075018e-01"/>
    <Variable VarIndex="1" Expression="BDT_QCDCWoLa" Label="BDT_QCDCWoLa" Title="BDT_QCDCWoLa" Unit="" Internal="BDT_QCDCWoLa" Type="F" Min="-9.98823583e-01" Max="9.99334037e-01"/>
    <Variable VarIndex="2" Expression="prob_chi2" Label="prob_chi2" Title="prob_chi2" Unit="" Internal="prob_chi2" Type="F" Min="1.00005900e-06" Max="9.99998093e-01"/>
    <Variable VarIndex="3" Expression="BDT_QCD" Label="BDT_QCD" Title="BDT_QCD" Unit="" Internal="BDT_QCD" Type="F" Min="-7.83229768e-01" Max="7.78383315e-01"/>
  </Variables>
  <Spectators NSpec="0"/>
  <Classes NClass="2">
    <Class Name="Signal" Index="0"/>
    <Class Name="Background" Index="1"/>
  </Classes>
  <Transformations NTransformations="0"/>
  <MVAPdfs/>
  <Weights InputWidth="4" Depth="4" LossFunction="C" OutputFunction="S">
    <Layer ActivationFunction="1">
      <Weights rows="64" cols="4">
        -6.7585152387619019e-01 -5.0080910325050354e-02 -3.1403222680091858e-01 -1.6939866542816162e-01 -4.2521977424621582e-01 2.8367814421653748e-01 -5.4320070892572403e-02 -7.7403470873832703e-02 -1.7834086716175079e-01 4.4521221518516541e-01 3.1977126002311707e-01 1.3923923671245575e-01 -4.3778661638498306e-02 1.1638133972883224e-01 2.9179245233535767e-01 -7.2890996932983398e-01 -5.2277706563472748e-02 7.0349144935607910e-01 2.0926661789417267e-01 -5.3951311111450195e-01 -4.3595543503761292e-01 4.2155627161264420e-02 4.5572403073310852e-01 2.0127446949481964e-01 -5.8534994721412659e-02 -2.6222249493002892e-02 5.5944186449050903e-01 2.5312286615371704e-01 -2.9803702235221863e-01 -2.2378650307655334e-01 -3.7538492679595947e-01 6.3705289363861084e-01 4.5086953788995743e-02 6.7292839288711548e-02 -1.2638299167156219e-01 1.8577954173088074e-01 1.7930271103978157e-02 -2.8550127148628235e-01 -2.2344885766506195e-01 -4.0462890267372131e-01 7.8739672899246216e-02 -1.1138571053743362e-01 2.1185021102428436e-01 -1.8338853120803833e-01 -1.3112303614616394e-01 -1.3194494880735874e-02 3.5747554898262024e-01 6.4846658706665039e-01 -2.9434874653816223e-01 -1.6093520820140839e-01 3.5984474420547485e-01 -5.4872727394104004e-01 -6.3579583168029785e-01 -2.6707780361175537e-01 -7.8939408063888550e-02 6.6770476102828979e-01 3.6961889266967773e-01 -6.8787002563476562e-01 2.8809586167335510e-01 -3.8256132602691650e-01 -6.5243870019912720e-01 -1.7526143789291382e-01 6.6515970230102539e-01 4.5184653997421265e-01 -9.2996999621391296e-02 2.3743675649166107e-01 -2.8292012214660645e-01 1.6061198711395264e-01 4.0068167448043823e-01 4.9536100029945374e-01 -3.9483219385147095e-01 -1.7065611481666565e-01 -4.9581038951873779e-01 -3.1134538352489471e-02 -6.0649520158767700e-01 4.4212716817855835e-01 -5.1517313718795776e-01 -6.1316019296646118e-01 -3.0258718132972717e-01 -4.6587181091308594e-01 -5.0438857078552246e-01 4.4965779781341553e-01 6.5487116575241089e-01 -3.4151393175125122e-01 2.0619973540306091e-01 1.4860369265079498e-01 -3.9700463414192200e-01 4.6695953607559204e-01 3.1848010420799255e-01 5.2375906705856323e-01 7.3659741878509521e-01 7.0457053184509277e-01 6.1300867795944214e-01 1.7936111986637115e-01 -1.0419582016766071e-02 5.5283045768737793e-01 7.5980049371719360e-01 5.5748915672302246e-01 4.5436948537826538e-01 2.9973387718200684e-01 -1.3086909055709839e-01 7.0336878299713135e-01 -9.8655164241790771e-02 -5.5312663316726685e-01 -4.0841796994209290e-01 3.4422737360000610e-01 4.8325324058532715e-01 -3.9547848701477051e-01 4.9074098467826843e-01 4.1795632243156433e-01 2.3356752097606659e-01 -3.7527316808700562e-01 1.9854283332824707e-01 -3.0600127577781677e-01 5.6313049793243408e-01 -8.4664978086948395e-02 7.2546698153018951e-02 9.5507450401782990e-02 -6.1347460746765137e-01 3.3518007397651672e-01 -4.1094425320625305e-01 -4.4703686237335205e-01 6.3347774744033813e-01 -3.9266324043273926e-01 1.8953379988670349e-01 4.6665716171264648e-01 -5.5796611309051514e-01 -6.3036044593900442e-04 -4.9601113796234131e-01 -3.1245931982994080e-01 -2.5577247142791748e-01 -2.3567245900630951e-01 -4.4185894727706909e-01 -6.7868828773498535e-02 2.8858711011707783e-03 -2.3606383800506592e-01 4.2046451568603516e-01 8.8548772037029266e-03 4.6961564570665359e-02 -5.0521385669708252e-01 -6.7155677080154419e-01 -2.4929769337177277e-01 -3.6102497577667236e-01 -3.0039560794830322e-01 -1.3185793161392212e-01 -2.4479925632476807e-01 5.7769346237182617e-01 5.5685245990753174e-01 5.1057153940200806e-01 1.3609838671982288e-02 -4.9524739384651184e-01 -6.0192370414733887e-01 -2.6634865999221802e-01 -2.9911177232861519e-02 -5.3361345082521439e-02 3.8325172662734985e-01 2.1287444233894348e-01 -6.9448679685592651e-02 -6.2673620879650116e-02 6.1589080095291138e-01 -4.5238852500915527e-01 6.6725516319274902e-01 -5.0204968452453613e-01 1.0423962026834488e-01 -1.7362499609589577e-02 6.7919152975082397e-01 -3.2423835992813110e-01 6.4429640769958496e-01 3.5423779487609863e-01 2.6418921351432800e-01 -1.9416028261184692e-01 -1.4045396447181702e-01 5.0497609376907349e-01 -3.0850589275360107e-01 5.4462611675262451e-01 3.5206794738769531e-01 -6.4936524629592896e-01 -4.2356711626052856e-01 -5.9519249200820923e-01 -3.3081430196762085e-01 -4.9572134017944336e-01 2.9487368464469910e-01 5.3953951597213745e-01 -4.6479585766792297e-01 6.4382362365722656e-01 6.8209660053253174e-01 -4.4651433825492859e-01 2.3008312284946442e-01 2.6758620142936707e-01 -2.4401514232158661e-01 -2.0687697827816010e-01 -2.9057002067565918e-01 -5.6089079380035400e-01 -6.5518820285797119e-01 -4.3463224172592163e-01 2.7822420001029968e-01 -6.1201763153076172e-01 2.2192396223545074e-02 2.3107483983039856e-01 1.0359542071819305e-01 -6.2691056728363037e-01 4.0736922621726990e-01 -2.2176487743854523e-01 -2.8359583020210266e-01 4.0460041165351868e-01 7.6732195913791656e-02 -1.6181010007858276e-01 -2.5989988446235657e-01 -6.1180096864700317e-01 1.9856673479080200e-01 -3.9635127782821655e-01 7.3464676737785339e-02 -1.0974501818418503e-01 1.9239144027233124e-01 4.7591054439544678e-01 -6.6119951009750366e-01 -6.7744415998458862e-01 1.3466623611748219e-02 -9.0001992881298065e-02 -2.8515574336051941e-01 -6.1892914772033691e-01 -3.9701434969902039e-01 4.7014629840850830e-01 -5.7550914585590363e-02 6.3134890794754028e-01 6.9783544540405273e-01 -5.6215202808380127e-01 -3.6777937412261963e-01 -4.0354931354522705e-01 -6.9044762849807739e-01 6.5905284881591797e-01 3.9267140626907349e-01 2.4425193667411804e-01 5.3566235303878784e-01 -4.0567642450332642e-01 -9.0056560933589935e-02 5.3771209716796875e-01 5.8842086791992188e-01 6.8752682209014893e-01 -5.4567956924438477e-01 -6.0264950990676880e-01 7.2705340385437012e-01 4.8402237892150879e-01 -6.9148814678192139e-01 -4.6405404806137085e-01 4.1837111115455627e-01 5.2941429615020752e-01 2.5522574782371521e-01 -7.9626642167568207e-02 -1.4288468658924103e-01 -2.3509827256202698e-01 -3.3923193812370300e-02 -2.5811506435275078e-02 -4.9036499857902527e-01 -4.9011155962944031e-01 -2.8590509295463562e-01 
      </Weights>
      <Biases rows="64" cols="1">
        -2.0952446386218071e-02 -4.1852244175970554e-03 4.7918023483362049e-05 -1.6984067857265472e-02 5.9324066387489438e-04 3.3762857317924500e-02 1.3132418692111969e-01 2.3192241787910461e-03 2.9959237203001976e-02 -3.0568761285394430e-03 -8.8645573705434799e-03 5.7775773108005524e-02 -2.2572914138436317e-02 -3.7211198359727859e-02 -6.9827702827751637e-03 3.6897767335176468e-02 -2.2818723227828741e-03 -2.2369155194610357e-03 -1.4620116911828518e-02 -3.7289492785930634e-02 -1.2056872248649597e-02 2.1460071206092834e-02 5.0851609557867050e-02 4.8297557979822159e-02 8.5619583725929260e-02 -2.0668767392635345e-02 -5.8741420507431030e-03 2.3799993097782135e-02 3.2322369515895844e-02 3.0501544824801385e-04 1.0191624052822590e-02 -3.6974085960537195e-03 4.6719815582036972e-03 -4.5488663017749786e-02 1.5996480360627174e-02 -2.8809571638703346e-02 1.0447240620851517e-01 1.1844796128571033e-02 1.4433204196393490e-02 2.6568219065666199e-02 -6.9876471534371376e-03 3.3099234104156494e-02 3.4445956349372864e-02 5.9666462242603302e-02 -2.7176452800631523e-02 1.2240471318364143e-02 9.5973927527666092e-03 -1.3488005846738815e-02 1.4445962384343147e-02 -2.4711806327104568e-02 -6.4515136182308197e-03 2.4518666788935661e-02 -6.3716098666191101e-03 4.9613458104431629e-03 -4.9861378967761993e-02 -1.6621615737676620e-02 1.6525968909263611e-02 8.8047325611114502e-02 1.2397326529026031e-02 2.4224085733294487e-02 2.1976690739393234e-02 7.7953115105628967e-03 -1.7668398097157478e-02 -1.0539340786635876e-02 
      </Biases>
    </Layer>
    <Layer ActivationFunction="1">
      <Weights rows="64" cols="64">
        -1.7039652168750763e-01 -1.2613671831786633e-02 -7.8501075506210327e-02 -3.4245721995830536e-02 -9.1676250100135803e-02 7.5817793607711792e-02 -2.5323925539851189e-02 -2.1688848733901978e-02 -4.5262426137924194e-02 1.0995249450206757e-01 7.9442836344242096e-02 2.9423680156469345e-02 -1.1635560542345047e-02 2.0768575370311737e-02 6.2452070415019989e-02 -1.7732465267181396e-01 -1.4394056051969528e-02 1.8191444873809814e-01 4.8634000122547150e-02 -1.3895881175994873e-01 -1.1018422245979309e-01 5.2020531147718430e-03 8.7308511137962341e-02 2.5891635566949844e-02 -4.6904057264328003e-02 2.3422492668032646e-02 1.3245408236980438e-01 5.8618441224098206e-02 -8.2770124077796936e-02 -5.5641364306211472e-02 -9.4438083469867706e-02 1.6859738528728485e-01 7.1621853858232498e-03 1.9043110311031342e-02 -3.4656789153814316e-02 4.1485168039798737e-02 -1.2437647674232721e-03 -6.7815020680427551e-02 -5.6897267699241638e-02 -1.1755998432636261e-01 3.1244071200489998e-02 -3.2076984643936157e-02 5.4754909127950668e-02 -8.2040116190910339e-02 -4.1932918131351471e-02 -5.3597791120409966e-03 8.0118328332901001e-02 1.5534184873104095e-01 -7.4058137834072113e-02 -4.0638715028762817e-02 9.0216562151908875e-02 -1.3365487754344940e-01 -1.5790139138698578e-01 -6.3330553472042084e-02 -1.7900552600622177e-02 1.7043586075305939e-01 1.0701582580804825e-01 -1.7129801213741302e-01 8.1900887191295624e-02 -9.3742914497852325e-02 -1.5471149981021881e-01 -4.2668133974075317e-02 1.6749182343482971e-01 1.0813560336828232e-01 -3.7554387003183365e-02 4.6482842415571213e-02 -6.0340382158756256e-02 3.4743685275316238e-02 9.0540744364261627e-02 1.2598237395286560e-01 -7.6787054538726807e-02 -4.0554039180278778e-02 -1.1979053914546967e-01 -1.3640158809721470e-02 -1.4657682180404663e-01 1.3352851569652557e-01 -1.4573332667350769e-01 -1.5480023622512817e-01 -5.9816077351570129e-02 -1.0794766992330551e-01 -1.3241899013519287e-01 1.1490730941295624e-01 1.5694092214107513e-01 -1.0630748420953751e-01 4.2396657168865204e-02 4.5654296875000000e-02 -4.3679915368556976e-02 1.5533272922039032e-01 1.2720204889774323e-01 1.2427617609500885e-01 1.6881206631660461e-01 1.8359641730785370e-01 1.5173889696598053e-01 6.7665956914424896e-02 -1.7543893307447433e-02 1.2158460170030594e-01 1.4133673906326294e-01 1.5733501315116882e-01 1.0531116276979446e-01 4.2222425341606140e-02 -1.4348397031426430e-02 1.7393711209297180e-01 -2.8708122670650482e-02 -1.2188293784856796e-01 -1.1611045897006989e-01 9.3861304223537445e-02 1.2492442131042480e-01 -4.8803023993968964e-02 8.8818848133087158e-02 1.0178726911544800e-01 6.7527525126934052e-02 -1.0496060550212860e-01 3.8617242127656937e-02 -8.5138648748397827e-02 1.1886919289827347e-01 -2.1649207919836044e-02 1.4838147908449173e-03 2.5619164109230042e-02 -1.7225831747055054e-01 7.1300312876701355e-02 -9.6041560173034668e-02 -1.0074530541896820e-01 1.5399444103240967e-01 -6.1528414487838745e-02 2.0831927657127380e-02 1.2398380786180496e-01 -1.4596369862556458e-01 -1.2783814221620560e-02 -1.2477185577154160e-01 -7.6475113630294800e-02 -5.9854656457901001e-02 -4.5298326760530472e-02 -9.3639574944972992e-02 -2.3149646818637848e-02 -1.1570731876417994e-03 -5.5681049823760986e-02 9.0158477425575256e-02 1.1797014623880386e-02 5.2606505341827869e-03 -1.4212954044342041e-01 -1.6478219628334045e-01 -5.9213597327470779e-02 -8.1601537764072418e-02 -7.0012703537940979e-02 -2.9975034296512604e-02 -3.6411270499229431e-02 1.4291772246360779e-01 1.4314612746238708e-01 1.2700361013412476e-01 4.7424952499568462e-03 -1.2190921604633331e-01 -1.4835090935230255e-01 -5.4728459566831589e-02 1.3214059174060822e-02 -1.5755437314510345e-02 1.1284106224775314e-01 4.4993914663791656e-02 -9.4133736565709114e-03 -1.3312458060681820e-02 1.6685611009597778e-01 -1.1092341691255569e-01 1.6792793571949005e-01 -1.1262124776840210e-01 2.7340365573763847e-02 -9.3653723597526550e-03 1.8691520392894745e-01 -8.4311969578266144e-02 1.5162168443202972e-01 8.7800204753875732e-02 8.0663703382015228e-02 -4.4578690081834793e-02 -5.4678160697221756e-02 1.1918129026889801e-01 -6.7975699901580811e-02 1.4388141036033630e-01 6.7850366234779358e-02 -1.6480770707130432e-01 -1.0393996536731720e-01 -1.4994639158248901e-01 -6.7029453814029694e-02 -1.2610332667827606e-01 8.2154005765914917e-02 1.3206689059734344e-01 -1.2038801610469818e-01 1.8142013251781464e-01 1.7267848551273346e-01 -9.8999574780464172e-02 7.7087245881557465e-02 7.0434853434562683e-02 -6.3691690564155579e-02 -5.1567323505878448e-02 -7.1996487677097321e-02 -1.1913315206766129e-01 -1.6507619619369507e-01 -1.1033099889755249e-01 7.5363852083683014e-02 -1.4633233845233917e-01 5.0539011135697365e-03 5.1939375698566437e-02 2.6115762069821358e-02 -1.6000445187091827e-01 1.1584787815809250e-01 -5.4631136357784271e-02 -7.7657490968704224e-02 1.1278343200683594e-01 2.4154702201485634e-02 -3.5166718065738678e-02 -6.7400030791759491e-02 -1.5184502303600311e-01 4.8939816653728485e-02 -9.4489224255084991e-02 5.2878834307193756e-02 -2.2312879562377930e-02 4.4267088174819946e-02 1.1975350975990295e-01 -1.6214555501937866e-01 -1.6864682734012604e-01 6.7903432063758373e-03 -1.1911671608686447e-02 -6.7815005779266357e-02 -1.5699489414691925e-01 -9.5953769981861115e-02 1.3550677895545959e-01 -6.6762943752110004e-03 1.8357737362384796e-01 1.8664970993995667e-01 -1.3296447694301605e-01 -5.8398548513650894e-02 -1.1471562087535858e-01 -1.6474093496799469e-01 1.6130572557449341e-01 8.9814260601997375e-02 6.1438851058483124e-02 1.3390634953975677e-01 -1.0299526154994965e-01 -2.8884107246994972e-02 1.4593943953514099e-01 1.6962465643882751e-01 1.5922649204730988e-01 -1.4724148809909821e-01 -1.4240247011184692e-01 1.8391238152980804e-01 1.3203240931034088e-01 -1.7170803248882294e-01 -1.0774844139814377e-01 1.1774271726608276e-01 1.5185108780860901e-01 7.4298895895481110e-02 -1.6529656946659088e-02 -3.4224007278680801e-02 -5.7573720812797546e-02 -5.0569479353725910e-03 7.5415577739477158e-03 -1.2829200923442841e-01 -1.1826304346323013e-01 -5.8533243834972382e-02 8.6579427123069763e-02 -1.6596287488937378e-01 -7.5265400111675262e-02 -6.6908836364746094e-02 4.1750516742467880e-02 2.5659915059804916e-02 1.4546172693371773e-02 1.2092467397451401e-01 -2.2429812699556351e-02 5.6830439716577530e-02 -4.2427260428667068e-02 8.6167819797992706e-02 -1.0302433744072914e-02 -1.9734213128685951e-02 1.5371429920196533e-01 4.2532786726951599e-02 -1.0922115296125412e-02 -9.1869525611400604e-02 -1.2141976505517960e-01 -7.3785863816738129e-02 -5.6293919682502747e-02 1.2687781453132629e-01 -1.7660892009735107e-01 1.1398138850927353e-01 -1.4642307162284851e-01 6.5895788371562958e-02 4.6160925179719925e-02 -7.0363715291023254e-02 -1.2669889628887177e-01 -1.4859910309314728e-01 9.1574944555759430e-02 -6.3253246247768402e-02 -1.2510168366134167e-02 1.4701408147811890e-01 1.1200463771820068e-01 -1.3578176498413086e-01 -6.6590891219675541e-03 -3.8748212158679962e-02 -1.4094310998916626e-01 -1.6132985055446625e-01 -1.0162897408008575e-01 -3.5239096730947495e-02 -1.7565862834453583e-01 -8.8133588433265686e-03 5.0571080297231674e-02 -1.2373087555170059e-01 1.5265721082687378e-01 2.6525285094976425e-02 9.6803806722164154e-02 1.4779007434844971e-01 -1.2683252990245819e-01 -4.0973600000143051e-02 -3.8269672542810440e-02 8.1763016059994698e-03 -3.0471738427877426e-03 -1.3413299620151520e-01 9.5533080399036407e-02 1.4029891788959503e-01 1.2787072360515594e-01 -1.0638058930635452e-01 8.2474932074546814e-02 -1.2142121046781540e-01 -3.6308374255895615e-02 -1.5634091198444366e-01 -1.8576471507549286e-01 -1.8143585324287415e-01 6.4914803951978683e-03 -8.1740386784076691e-02 -3.1808115541934967e-02 7.4520103633403778e-02 4.2921382933855057e-02 -2.7570467442274094e-02 1.1222890764474869e-01 1.3714377582073212e-01 1.5485315024852753e-01 -2.9530152678489685e-02 5.0835341215133667e-02 -9.2093147337436676e-02 7.5592406094074249e-02 -7.3123008012771606e-02 -3.5252749919891357e-02 -1.1306805163621902e-01 -1.6142204403877258e-02 -2.0999185740947723e-02 -1.0614090412855148e-01 5.3062256425619125e-02 2.1202690899372101e-01 -7.6683320105075836e-02 4.6848668716847897e-03 -1.1449235677719116e-01 -1.0237685590982437e-01 1.8721370398998260e-01 -1.1219311505556107e-02 3.2431807368993759e-02 1.2102571874856949e-01 7.7560424804687500e-02 -6.2777392566204071e-02 -1.1641775816679001e-01 1.1297772079706192e-01 -1.8009161949157715e-01 1.4682966470718384e-01 8.9111030101776123e-02 1.0583278536796570e-01 1.5247161686420441e-01 1.4651286602020264e-01 1.4203615486621857e-01 1.0215044766664505e-01 -2.6051474735140800e-02 4.8287399113178253e-03 1.3725616037845612e-01 -3.4606348723173141e-02 1.1669613420963287e-01 7.9459130764007568e-02 1.1000928282737732e-01 -1.7422402277588844e-02 6.8050526082515717e-02 -1.4709392189979553e-01 -2.0210610330104828e-01 5.6286480277776718e-02 1.4463962614536285e-01 -4.7839771956205368e-02 3.3670619130134583e-02 4.9904447048902512e-02 1.2879911065101624e-01 4.1188035160303116e-02 8.6696766316890717e-02 -1.3891423121094704e-02 1.3348652981221676e-02 -2.0040525123476982e-02 -1.3237783312797546e-01 -1.1492795497179031e-01 2.2615812718868256e-02 1.2752264738082886e-01 -6.1890356242656708e-02 -5.7998914271593094e-02 1.8051683902740479e-01 1.6464481130242348e-02 -1.2982888519763947e-01 1.1978960782289505e-01 -5.2367165684700012e-02 6.2726348638534546e-02 4.2507052421569824e-02 -1.7628519237041473e-01 2.6329403743147850e-02 -8.3340913057327271e-02 -1.4368455111980438e-01 -3.5417787730693817e-02 2.7995463460683823e-02 -1.7257653176784515e-01 9.4430960714817047e-02 -1.3396045565605164e-01 1.5399779379367828e-01 1.3592265546321869e-01 -1.6375084221363068e-01 1.3992489874362946e-01 -1.5008467435836792e-01 8.6982846260070801e-02 1.3099429011344910e-01 -2.3516768589615822e-02 5.8725696057081223e-02 1.7301817238330841e-01 1.1327088624238968e-01 -4.4392757117748260e-02 2.1946549415588379e-02 1.5919865667819977e-01 5.0913229584693909e-02 3.8850430399179459e-02 2.2636208683252335e-02 -1.1850129067897797e-01 -1.7063029110431671e-02 -1.3142496347427368e-01 9.3027418479323387e-03 6.3495613634586334e-02 6.5989054739475250e-02 -1.0584842413663864e-01 -1.1886728554964066e-01 -1.1723698675632477e-01 1.6680924594402313e-01 1.5022280812263489e-01 7.7935889363288879e-02 -1.1853357404470444e-01 1.4303565025329590e-01 -1.5693788230419159e-01 1.7174187302589417e-01 -4.3739240616559982e-02 9.8860986530780792e-02 -8.7286517024040222e-02 6.5746828913688660e-02 -1.5522393584251404e-01 3.8135644048452377e-02 -5.6790027767419815e-02 4.8861626535654068e-02 1.3623638451099396e-01 -1.5860964357852936e-01 -1.1543858051300049e-01 -1.5369446575641632e-01 -3.4975886344909668e-02 -5.8232923038303852e-04 -5.2125755697488785e-02 1.3484516739845276e-01 1.0467259213328362e-02 -1.7497560381889343e-01 -4.4696282595396042e-02 4.7954224050045013e-02 1.4855289459228516e-01 8.7299458682537079e-02 1.6401655972003937e-02 -3.8152618799358606e-03 1.0533548146486282e-01 1.4909535646438599e-01 5.8940421789884567e-02 9.1768480837345123e-02 -6.3050001859664917e-02 7.0630095899105072e-02 1.3810934126377106e-01 1.4881445467472076e-01 4.0196124464273453e-03 -1.0991798341274261e-01 1.1746868491172791e-01 8.8541060686111450e-02 6.0586251318454742e-02 -1.3141972944140434e-02 1.6627289354801178e-01 -7.4151597917079926e-02 1.4590878784656525e-01 -1.2863677740097046e-01 -1.7854008078575134e-01 -1.2603125534951687e-02 -4.9803949892520905e-02 3.8508549332618713e-02 4.4909808784723282e-02 -8.4801599383354187e-02 -6.2920220196247101e-02 5.2248358726501465e-02 -1.5924833714962006e-01 -1.4161710441112518e-01 -1.2995684146881104e-01 -2.6231406256556511e-02 -1.8744891881942749e-01 -1.2086340785026550e-01 -1.4822903089225292e-02 -1.2165065854787827e-01 1.3937909901142120e-01 8.6239427328109741e-02 9.8656907677650452e-02 -3.4789573401212692e-02 -2.8557857498526573e-02 3.3823572099208832e-02 -1.2329228222370148e-01 4.1925692930817604e-03 -1.1333194561302662e-02 1.1933407932519913e-01 -1.4273858070373535e-01 -1.2334048002958298e-01 -5.2179437130689621e-02 -1.2876547873020172e-01 1.0693113505840302e-01 1.6673526167869568e-01 1.6380038857460022e-01 -2.5819197297096252e-02 -8.4769725799560547e-02 1.1050684005022049e-01 3.2959990203380585e-02 1.2559488415718079e-01 -1.1208205670118332e-01 1.3310138881206512e-01 -4.7222465276718140e-02 7.4712194502353668e-02 -7.2710118256509304e-03 -2.1984884515404701e-02 6.2015566974878311e-02 3.1154686585068703e-02 -4.5490499585866928e-02 -6.6669695079326630e-02 2.6084156706929207e-02 -1.6302715241909027e-01 -1.0345145314931870e-01 -3.5241570323705673e-02 -6.4234830439090729e-02 1.6472827410325408e-03 1.3102838397026062e-01 -2.5855870917439461e-02 7.7772557735443115e-02 1.4023044705390930e-01 -7.9555265605449677e-02 -4.2944434098899364e-03 4.6476304531097412e-02 -7.1991896256804466e-03 -6.1283916234970093e-02 -1.5128752589225769e-01 1.2110596895217896e-01 -1.2175780534744263e-01 -1.1715945601463318e-01 1.6092473268508911e-01 -2.6032396126538515e-03 2.9333021491765976e-02 4.1589125990867615e-02 8.7406069040298462e-02 -1.1107144504785538e-01 -5.7442963123321533e-02 9.4570018351078033e-02 2.5421516969799995e-02 1.4253337681293488e-01 -1.7072224617004395e-01 8.5504762828350067e-02 8.1678919494152069e-02 -3.8908023387193680e-02 3.6680307239294052e-02 9.9610984325408936e-02 -1.5838776528835297e-01 -8.5510782897472382e-02 6.4899466931819916e-02 1.1981718242168427e-01 -3.9585944265127182e-02 1.0808986425399780e-01 1.5606465935707092e-01 -3.3640603069216013e-03 -6.9686129689216614e-02 -3.1115598976612091e-02 3.5446759313344955e-02 -9.8071597516536713e-02 2.8507150709629059e-02 -7.2252348065376282e-02 -1.7453047633171082e-01 -1.0533907264471054e-01 -1.0777775943279266e-01 -1.3877102732658386e-01 -1.3966862857341766e-01 -5.2559774369001389e-02 9.1543786227703094e-02 -1.3217243552207947e-01 -1.2035380303859711e-01 -1.2492375820875168e-01 1.1346488445997238e-01 -1.2905611097812653e-01 6.2245290726423264e-02 1.1394312977790833e-01 -7.7724792063236237e-02 1.1902298778295517e-01 -8.8438957929611206e-02 -1.1005056649446487e-01 -1.2869794666767120e-01 1.6110421717166901e-01 1.0328009724617004e-01 -1.5057061612606049e-01 -1.2352927774190903e-01 9.2156060039997101e-02 9.5632784068584442e-03 1.2629516422748566e-01 6.1499788425862789e-03 -9.7104758024215698e-02 3.6977797746658325e-02 -1.5519073605537415e-01 -1.3122209906578064e-01 1.6633750870823860e-02 6.0840971767902374e-02 -8.5278926417231560e-03 1.3394235633313656e-02 -9.1486990451812744e-02 -8.8859662413597107e-02 9.9034808576107025e-02 -1.0385265946388245e-01 1.0989191010594368e-02 -8.9756183326244354e-02 -1.3147974014282227e-01 -1.2945742905139923e-01 -8.8158339262008667e-02 -7.0563359186053276e-03 6.1349883675575256e-02 -1.3266864232718945e-02 1.6988891363143921e-01 5.2418685518205166e-03 -1.1230098316445947e-03 -1.2436005473136902e-01 4.7577127814292908e-02 6.5974168479442596e-02 1.4355956017971039e-01 -7.2177499532699585e-02 -1.0016077756881714e-01 5.2146445959806442e-02 2.8005719184875488e-02 -8.8840611279010773e-02 1.6483637690544128e-01 -7.9492218792438507e-02 1.8948052078485489e-02 -1.6330742835998535e-01 3.6433689296245575e-02 -6.4122617244720459e-02 -7.5784109532833099e-02 -9.9004559218883514e-02 1.4890858530998230e-01 -2.5657586753368378e-02 -1.8792742863297462e-02 1.4623042941093445e-01 -1.4140465296804905e-02 7.4657102231867611e-05 1.4025799930095673e-01 4.8294797539710999e-02 -9.8937235772609711e-02 -8.3269506692886353e-02 -1.7646666616201401e-02 -4.9772035330533981e-02 7.4366800487041473e-02 -9.9385619163513184e-02 -6.4438179135322571e-02 1.3501387834548950e-01 1.6070650517940521e-01 -7.8289173543453217e-02 1.0791409015655518e-01 1.5778617560863495e-01 4.5111719518899918e-02 -8.4054041653871536e-03 6.7118904553353786e-03 4.6107590198516846e-02 1.0091437399387360e-01 -3.2434668391942978e-02 -9.5268681645393372e-02 -1.0911624133586884e-01 -1.0350461304187775e-01 -5.2497297525405884e-02 -3.7399020045995712e-02 1.6861645504832268e-02 -3.2484151888638735e-03 1.6643927991390228e-01 1.2068099528551102e-01 -1.0443945974111557e-01 5.7989928871393204e-02 -5.0935477018356323e-02 1.5982533991336823e-01 1.5559313818812370e-02 -1.1195647716522217e-01 7.2506345808506012e-02 -8.5256777703762054e-02 6.1878971755504608e-02 4.0724214166402817e-02 -7.0412382483482361e-02 6.7129358649253845e-02 -9.6655324101448059e-02 1.6306877136230469e-01 -2.4792386218905449e-02 -5.9367701411247253e-02 9.1955043375492096e-02 -1.4792320132255554e-01 3.7915099412202835e-02 1.8021281063556671e-01 1.3934116065502167e-01 1.3696935772895813e-01 3.7782579660415649e-02 5.8496732264757156e-02 -1.7403085529804230e-01 9.7691677510738373e-02 -5.3713377565145493e-03 -1.1037179082632065e-01 1.4348889887332916e-01 -3.2689370214939117e-02 -1.4732024073600769e-01 -4.9104351550340652e-02 -1.1974512040615082e-01 5.7929094880819321e-02 3.7979446351528168e-02 -7.9912625253200531e-02 -1.4796477556228638e-01 5.6689910590648651e-02 -7.2837255895137787e-02 -1.4668314158916473e-01 4.2214825749397278e-02 1.5263299643993378e-01 -4.0137406438589096e-02 -1.3340067863464355e-01 -1.6311508417129517e-01 2.3163503035902977e-02 3.3752411603927612e-02 1.2348431348800659e-01 -1.5916123986244202e-01 -7.8311674296855927e-03 1.6959996521472931e-01 8.1303656101226807e-02 -3.1607594341039658e-02 1.4030928909778595e-01 -9.9352024495601654e-02 -1.2089291587471962e-02 4.4493772089481354e-02 -2.2263146936893463e-02 -1.7356994748115540e-01 -4.0947180241346359e-02 8.7746664881706238e-02 -5.6595649570226669e-02 9.1201767325401306e-02 -2.0871711894869804e-02 -4.3634362518787384e-02 5.4202727973461151e-02 -8.5753597319126129e-02 -1.3888226822018623e-03 7.4170999228954315e-02 -8.6419358849525452e-02 -4.7112155705690384e-02 -1.6644245386123657e-01 -1.2866733968257904e-01 8.7217919528484344e-02 -9.1093495488166809e-02 4.3229389935731888e-02 -3.6327064037322998e-02 -1.3493780791759491e-01 -9.2022351920604706e-02 5.5058781057596207e-02 9.1332010924816132e-02 -5.2248917520046234e-02 1.1204890906810760e-01 1.6724844276905060e-01 3.4493748098611832e-02 2.3380002006888390e-02 4.0379840880632401e-02 -1.3588386774063110e-01 6.4222484827041626e-02 -1.3164307177066803e-01 -9.5030985772609711e-02 -1.4746081829071045e-01 8.9217960834503174e-02 -6.4826451241970062e-02 1.1318127810955048e-01 -9.7224740311503410e-03 1.5427923202514648e-01 2.3996789008378983e-02 8.7168328464031219e-02 -7.3996372520923615e-03 1.3539275527000427e-01 1.0800226777791977e-01 -1.0867886990308762e-01 -1.5824982523918152e-01 3.4351024776697159e-02 9.4520434737205505e-02 -1.9717803597450256e-01 5.0881430506706238e-02 -7.1731926873326302e-03 -6.1011809855699539e-02 1.0481914877891541e-01 -5.8152515441179276e-02 -9.2398986220359802e-02 -1.6970407962799072e-01 7.9605087637901306e-02 -8.8314926251769066e-03 1.5846377611160278e-01 1.1203366518020630e-01 1.2724421918392181e-01 -1.5265841782093048e-01 -2.0313078537583351e-02 -4.1829608380794525e-02 -1.1040886491537094e-01 -7.8452415764331818e-02 -2.2208772599697113e-02 -4.7682024538516998e-02 -1.5417639911174774e-01 8.1962667405605316e-02 9.8359823226928711e-02 -1.5821167826652527e-01 1.7507325112819672e-01 9.0713262557983398e-02 -1.2528842687606812e-01 -2.5495458394289017e-02 6.6225111484527588e-02 -1.2849049270153046e-01 -1.1409203708171844e-01 -2.1983571350574493e-02 -1.2936082482337952e-01 -1.2683501839637756e-01 -5.1358781754970551e-02 6.6273696720600128e-02 -1.4913031458854675e-01 1.3196599483489990e-01 1.0801606625318527e-01 -1.7057018354535103e-02 6.0876570641994476e-02 -8.7298482656478882e-02 -1.3677738606929779e-01 1.5103308856487274e-01 1.5750624239444733e-01 1.1421295255422592e-01 8.5828505456447601e-02 3.7248034030199051e-02 1.0631859302520752e-01 6.7901216447353363e-02 1.1354675143957138e-01 1.8915480375289917e-01 1.4238725602626801e-01 6.3100233674049377e-02 -1.1266935616731644e-01 8.9936271251644939e-05 1.1268091201782227e-01 -1.1278851330280304e-01 -8.8494442403316498e-02 -3.5935773048549891e-03 1.5470230579376221e-01 -1.0759823024272919e-01 -3.9831619709730148e-02 1.6186027228832245e-01 3.6467246245592833e-03 -1.3483531773090363e-02 3.7667572498321533e-02 8.5199996829032898e-03 -1.0084969922900200e-02 1.9213086366653442e-01 9.6918180584907532e-02 -1.8648523837327957e-02 1.6204209625720978e-01 -9.6959576010704041e-02 1.1343406885862350e-01 -8.0210700631141663e-02 6.3818529248237610e-02 9.2658787965774536e-02 -1.5787857770919800e-01 7.6022364199161530e-02 1.0303755849599838e-01 3.4290824551135302e-03 -8.8603468611836433e-03 6.3427157700061798e-02 1.3634249567985535e-01 -3.8958843797445297e-02 -1.3881070911884308e-01 1.5290507674217224e-01 1.9441577792167664e-01 -1.3477475941181183e-01 1.0728412121534348e-01 -7.7383860945701599e-02 -2.8121381998062134e-02 -1.0828649252653122e-01 3.9414536207914352e-02 -1.2288687378168106e-01 -7.9659916460514069e-02 4.2169890366494656e-03 -6.8715654313564301e-02 3.4760996699333191e-02 -5.2289590239524841e-02 1.8373806029558182e-02 1.5063396096229553e-01 -4.7119859606027603e-02 -1.0638490319252014e-01 -1.4528104662895203e-01 1.3335724174976349e-01 -3.7270583212375641e-02 8.9522302150726318e-02 -9.2065513134002686e-02 -4.3638315051794052e-02 4.2764092795550823e-03 1.1585152894258499e-01 -7.8792735934257507e-02 1.4551303349435329e-02 -8.4940031170845032e-02 -1.6879671812057495e-01 -5.4808780550956726e-02 -1.3427573442459106e-01 -1.0018323361873627e-01 -1.6500066220760345e-01 -3.8332343101501465e-02 1.0992029309272766e-01 7.9094521701335907e-02 1.1791434884071350e-01 1.2161616235971451e-01 1.4603468589484692e-02 8.0853849649429321e-02 1.5710152685642242e-01 4.0832500904798508e-02 -8.2917228341102600e-02 6.0090046375989914e-02 3.7375021725893021e-02 -1.4527513086795807e-01 8.3934972062706947e-03 -1.1902015656232834e-02 -3.9369743317365646e-02 1.2181355804204941e-01 -1.3181737065315247e-01 -9.3725427985191345e-02 1.0703341104090214e-02 5.3915273398160934e-02 -4.7927159816026688e-02 -5.9766634367406368e-03 -1.1873687058687210e-01 1.2709385156631470e-01 -1.6555763781070709e-01 1.1331716924905777e-01 4.0182225406169891e-02 3.8579009473323822e-02 -3.9968792349100113e-02 1.2376783788204193e-01 -4.2005740106105804e-02 -5.9062410145998001e-02 -1.1901183426380157e-01 9.0595841407775879e-02 4.6538490802049637e-02 -1.3642592728137970e-01 6.3973620533943176e-02 1.5886956453323364e-01 -3.1989000737667084e-02 2.1664779633283615e-02 1.4440000057220459e-01 -5.8980584144592285e-02 1.0498088598251343e-01 7.5741909444332123e-02 -4.7668300569057465e-02 1.4607083052396774e-02 1.2151886522769928e-01 -6.8205863237380981e-02 4.0448185056447983e-02 1.1894855648279190e-01 -2.4319613352417946e-02 -5.3989022970199585e-02 -8.8039577007293701e-02 9.7888797521591187e-02 -1.7172001302242279e-02 -4.4512201100587845e-02 -1.6965529322624207e-01 1.9506118260324001e-03 6.8001786712557077e-04 -3.7878409028053284e-02 9.0040937066078186e-02 -1.3853862881660461e-01 -3.1866081058979034e-02 1.0557300597429276e-01 1.3026192784309387e-01 6.2090177088975906e-02 -1.8619886040687561e-01 1.0973525792360306e-01 -1.3192932307720184e-01 1.2766553461551666e-01 1.6148017346858978e-01 4.9330934882164001e-02 1.5855117142200470e-01 -5.6369163095951080e-02 -1.1156964302062988e-01 3.3300135284662247e-02 2.5048028677701950e-02 -9.2728637158870697e-02 -6.0890775173902512e-02 -1.5929007530212402e-01 -1.8254345282912254e-02 1.6396289691329002e-02 6.6579580307006836e-02 1.6834089532494545e-02 1.2489870935678482e-01 -2.6315994560718536e-02 -6.4459040760993958e-02 -1.9767163693904877e-01 1.7321993410587311e-01 1.5166069567203522e-01 -1.4424019493162632e-02 1.5517061948776245e-01 -5.9015188366174698e-02 1.4361186325550079e-01 -1.7269550263881683e-01 1.3306331634521484e-01 -1.1772310733795166e-01 2.3535018786787987e-02 -1.1870221048593521e-01 4.9076452851295471e-02 -8.2505144178867340e-02 -7.6652370393276215e-02 1.5160156786441803e-01 2.4487594142556190e-02 -8.8255248963832855e-02 1.3376984000205994e-01 1.6135463118553162e-01 1.3666501641273499e-01 -3.3116377890110016e-02 1.3962528109550476e-01 6.5168403089046478e-02 1.8614314496517181e-01 8.2094557583332062e-02 6.6780559718608856e-02 -9.7958117723464966e-02 -3.1382893212139606e-03 4.8840167000889778e-03 8.0581009387969971e-02 -1.2741814553737640e-01 -1.6747930645942688e-01 9.9727883934974670e-02 5.1621213555335999e-02 -1.3260559737682343e-01 -1.1025249212980270e-01 -9.8926469683647156e-02 1.2947306036949158e-01 -7.4899785220623016e-02 -6.7891962826251984e-02 -1.2723921239376068e-01 -1.0741477459669113e-01 1.0756839811801910e-01 -3.7715163081884384e-02 1.3164878822863102e-02 3.3313736319541931e-02 -7.6223611831665039e-02 1.2950304895639420e-02 -7.0136650465428829e-03 -1.6077855229377747e-01 -1.3602098822593689e-01 5.3044798551127315e-04 4.9002273008227348e-03 -3.7081096321344376e-02 -7.8363753855228424e-02 4.0862333029508591e-02 1.1768778413534164e-01 -1.2967300415039062e-01 1.2750478088855743e-01 8.1145099829882383e-04 -5.6152496486902237e-02 -4.2149726301431656e-02 1.8320009112358093e-03 7.7251926064491272e-02 -7.0519566535949707e-02 3.8128174841403961e-02 1.3291268050670624e-01 -2.3676522076129913e-02 1.5527784824371338e-01 7.6523991301655769e-03 1.0938728600740433e-01 -3.3165667206048965e-02 -1.0404517501592636e-01 -9.3149775639176369e-03 1.7445190250873566e-01 9.5063887536525726e-02 3.9378296583890915e-02 -1.4572584629058838e-01 -3.4209821373224258e-02 -7.4136465787887573e-02 1.2107352912425995e-01 2.7122726663947105e-02 3.6779273301362991e-02 1.2234638631343842e-01 -9.5845190808176994e-03 8.0713026225566864e-02 1.5780788660049438e-01 1.3339360058307648e-01 -1.5920428931713104e-01 1.0946198552846909e-01 -1.8373748287558556e-02 7.2870478034019470e-02 1.3386875391006470e-01 -7.8600734472274780e-02 -7.2276435792446136e-02 -1.5660068392753601e-01 1.2197045981884003e-01 1.6191340982913971e-01 -1.4185987412929535e-01 4.7867134213447571e-02 3.1975820660591125e-02 1.4240099489688873e-01 2.4850368499755859e-03 8.4333635866641998e-02 1.0413587838411331e-01 -4.1116982698440552e-02 -9.0120591223239899e-02 -1.9877521321177483e-02 1.6571378707885742e-01 5.9574037790298462e-02 8.1317722797393799e-02 1.4967934787273407e-01 -6.7751660943031311e-02 -1.2746313214302063e-01 -1.2600438296794891e-01 1.0258331149816513e-01 9.0768285095691681e-02 -1.0404437780380249e-01 5.5776592344045639e-02 -1.2027354538440704e-01 1.3921152055263519e-01 1.2219212204217911e-01 -9.5004225149750710e-03 -6.0085549950599670e-02 -5.5090516805648804e-02 -9.3649186193943024e-02 9.0308703482151031e-02 5.5060316808521748e-03 -1.5926578640937805e-01 1.5125672519207001e-01 1.3369630277156830e-01 1.1282935738563538e-01 1.4777848124504089e-01 1.3351161777973175e-01 -1.0022635571658611e-02 -2.1488510072231293e-02 -5.6885238736867905e-02 -9.9657602608203888e-02 -1.7711384594440460e-01 -1.4385896921157837e-01 2.5358753278851509e-02 1.5331865847110748e-01 -6.6667146980762482e-02 -1.5763355791568756e-01 -1.6970571875572205e-01 1.3809150550514460e-03 -1.1063726991415024e-01 -6.2777139246463776e-02 8.3331651985645294e-03 -1.4030638337135315e-01 1.1743541806936264e-01 -9.3482919037342072e-02 1.4797708392143250e-01 5.0344772636890411e-02 -4.0558550506830215e-02 -1.9121984019875526e-02 8.8579971343278885e-03 9.6037186682224274e-02 1.1933192610740662e-02 7.4555844068527222e-02 5.9747699648141861e-02 -1.0815802961587906e-01 -1.2358295172452927e-01 -1.3844396173954010e-01 -1.1155994236469269e-01 -1.7783866822719574e-01 -7.4563272297382355e-02 -1.2655061483383179e-01 2.0258049480617046e-03 -3.0801318585872650e-02 5.4812651127576828e-02 -6.6638506948947906e-02 1.7311644554138184e-01 -6.2731608748435974e-02 -7.6135255396366119e-02 1.1143571883440018e-01 -7.8063726425170898e-02 -1.3838331401348114e-01 -8.9930385351181030e-02 1.8140671774744987e-02 -1.2542018294334412e-01 -6.0504671186208725e-02 -1.2483839690685272e-01 3.2122738659381866e-02 8.0437421798706055e-02 9.7632624208927155e-02 -3.7520457059144974e-02 -9.8760426044464111e-02 9.9078714847564697e-02 -1.5687963366508484e-01 -7.6762796379625797e-03 -1.1995817720890045e-01 -1.8445905297994614e-02 -1.5718273818492889e-02 1.2087575346231461e-01 -6.0819815844297409e-02 -5.3074505180120468e-02 1.1403599753975868e-02 1.4580562710762024e-01 1.1341632157564163e-01 1.7219553887844086e-01 9.1717563569545746e-02 -6.1884582042694092e-02 6.1137955635786057e-02 -3.8135230541229248e-02 1.1870890110731125e-01 -3.8346208631992340e-02 5.9329077601432800e-02 -3.8079138845205307e-02 -1.3288363814353943e-01 1.5700198709964752e-02 -5.1156993955373764e-02 1.7349648475646973e-01 -3.1150386203080416e-03 8.1747911870479584e-02 1.3271485269069672e-01 -1.3169561326503754e-01 -1.4741820096969604e-01 2.0391592755913734e-02 7.0369340479373932e-02 -1.3226820528507233e-01 -1.4463557302951813e-01 -1.8217538297176361e-01 9.2676738277077675e-03 -6.2255959957838058e-02 1.0557869821786880e-01 3.5140063613653183e-02 2.7785508427768946e-03 1.3867904245853424e-01 -6.7307064309716225e-03 4.4078864157199860e-02 -1.3230851292610168e-01 2.4673208594322205e-02 -1.1354643851518631e-01 -1.5420074760913849e-01 1.0279214382171631e-01 3.4836657345294952e-02 -5.4339557886123657e-02 8.6044855415821075e-03 8.4613695740699768e-02 1.1792581528425217e-01 -3.1076276674866676e-02 -8.7263129651546478e-02 8.4348909556865692e-02 9.1341927647590637e-02 1.5405821800231934e-01 1.7240129411220551e-01 -7.1849627420306206e-03 1.4109984040260315e-01 3.8459073752164841e-02 1.2667986750602722e-01 1.4263896644115448e-01 -1.4240963757038116e-01 -4.5979917049407959e-03 4.4686067849397659e-02 -1.0316479206085205e-01 -8.5339970886707306e-02 -6.2198743224143982e-02 1.5716309845447540e-01 -7.9898461699485779e-03 1.2939640879631042e-01 7.5941691175103188e-03 1.7899113893508911e-01 1.6030792891979218e-01 -1.3964208960533142e-01 5.6472774595022202e-02 7.0635817945003510e-02 -1.1860296875238419e-01 1.5445688366889954e-01 -7.6801359653472900e-02 1.6152562201023102e-01 -2.0722391083836555e-02 -1.5164729952812195e-01 -2.2617340087890625e-02 -1.4082223176956177e-01 -4.5111812651157379e-02 1.7009523510932922e-01 8.9270308613777161e-02 5.8704603463411331e-02 1.4996452629566193e-01 -1.6783514618873596e-01 1.7202908173203468e-02 -1.4914099872112274e-01 1.1840239912271500e-01 1.2314599007368088e-01 3.4998234361410141e-02 -6.2030926346778870e-02 8.2503318786621094e-02 -6.0857065021991730e-02 2.3511854931712151e-02 -1.1926691234111786e-01 -1.0133487731218338e-01 1.7307141423225403e-01 -1.3622015714645386e-01 1.0497798025608063e-01 9.5820829272270203e-02 4.6575441956520081e-02 7.4845626950263977e-02 1.4030309021472931e-01 -9.7994640469551086e-02 -4.8408344388008118e-02 1.5761259198188782e-01 -5.1616605371236801e-02 9.3077749013900757e-02 1.1723449081182480e-01 1.9806185737252235e-02 -1.4653423428535461e-01 -3.7539351731538773e-02 -3.2869696617126465e-02 8.0670438706874847e-02 1.1978688836097717e-01 5.7910125702619553e-02 -8.0976591561920941e-05 -2.4904573336243629e-02 7.8658036887645721e-02 -4.6234409091994166e-04 -1.1521887779235840e-01 2.0685175433754921e-02 2.8732428327202797e-03 3.7291897460818291e-03 6.8707451224327087e-02 -1.4059022068977356e-01 2.2949378937482834e-02 -1.6743019223213196e-02 1.8629796802997589e-02 -3.6191012710332870e-02 1.6290973871946335e-02 2.5133769959211349e-02 -1.1908322572708130e-01 1.3468280434608459e-01 -9.9982187151908875e-02 1.0705927386879921e-02 -1.1853599920868874e-02 -9.1043725609779358e-02 7.8445307910442352e-02 -1.3172037899494171e-01 8.1997871398925781e-02 1.1730519682168961e-01 6.8896114826202393e-02 -3.0748303979635239e-02 1.3304901123046875e-01 -5.1216538995504379e-02 -1.6758987307548523e-01 -1.1866741627454758e-01 -1.6861157491803169e-02 1.4653587341308594e-01 -4.0580015629529953e-02 1.3303062319755554e-01 -3.6155097186565399e-02 -1.1077222973108292e-01 1.0729566961526871e-01 -1.6035859286785126e-01 6.7771993577480316e-02 1.1575426906347275e-01 -1.4143052697181702e-01 -1.3609614968299866e-01 -1.1050215922296047e-02 -8.5941590368747711e-02 5.2316036075353622e-02 9.8520912230014801e-02 1.4527441561222076e-01 1.7142984271049500e-01 -1.5311545133590698e-01 -2.3667678236961365e-02 -5.1083415746688843e-02 1.3739593327045441e-01 1.1222069151699543e-03 -1.5238990075886250e-02 6.2309354543685913e-02 1.1786561459302902e-01 -2.5005916133522987e-02 -4.7386519610881805e-02 -4.5777570456266403e-02 1.4732448756694794e-01 1.7124956846237183e-01 7.2078339755535126e-02 -1.3835990428924561e-01 1.7568404972553253e-01 -6.7915849387645721e-02 1.0774705559015274e-01 -4.3631521984934807e-03 1.8028406798839569e-01 -1.2801833450794220e-01 -1.5764210373163223e-02 4.8480816185474396e-02 1.3609839975833893e-01 8.1791087985038757e-02 1.4701367914676666e-01 -1.6059026122093201e-01 -9.1915741562843323e-02 -9.9978625774383545e-02 -1.1609206348657608e-01 -1.2385123968124390e-01 -1.7803190648555756e-01 6.2925875186920166e-02 -2.3942643776535988e-02 1.0718213021755219e-01 -8.1885583698749542e-02 -1.6360893845558167e-01 -1.5460668504238129e-01 3.0497143045067787e-02 -5.3232759237289429e-02 8.6561329662799835e-02 -1.6935755312442780e-01 6.7917160689830780e-02 -8.9736752212047577e-02 1.2783014774322510e-01 1.3500273227691650e-01 8.9566558599472046e-02 4.1999258100986481e-02 7.1244977414608002e-02 -1.2956634163856506e-01 1.3920290768146515e-01 -9.6478052437305450e-02 1.2008329480886459e-01 5.0926378207805101e-06 1.5798167884349823e-01 8.3146654069423676e-03 -1.0933060944080353e-01 3.9111580699682236e-02 6.8709757179021835e-03 6.5395526587963104e-02 3.6377709358930588e-02 -1.6499091684818268e-01 -1.3286423683166504e-01 -1.0180410742759705e-01 -1.5370979905128479e-01 8.5722796618938446e-02 -1.4384113252162933e-01 -3.3491995185613632e-02 6.0517858713865280e-02 9.8392896354198456e-02 -7.3810286819934845e-02 -1.5457215905189514e-01 2.1217053756117821e-02 -1.6458852589130402e-01 -8.7595321238040924e-02 -1.4398409426212311e-01 -1.2835240364074707e-01 4.5661553740501404e-02 1.1167406290769577e-01 -7.9921826720237732e-02 -3.4610338509082794e-02 1.2340952455997467e-01 1.2666167318820953e-01 1.2758320569992065e-01 8.5669524967670441e-02 -1.3671994209289551e-01 -9.5143310725688934e-02 -7.8504405915737152e-02 -1.6838783025741577e-01 1.5417712926864624e-01 -1.0605813004076481e-02 3.5702113062143326e-02 -6.0124855488538742e-02 -4.7897361218929291e-02 -3.5035844892263412e-02 -1.5823051333427429e-01 -1.0799137502908707e-01 1.1902675777673721e-01 -1.0389376431703568e-01 -9.4758115708827972e-02 5.7741425931453705e-02 1.6237860918045044e-01 -1.5270671248435974e-01 -7.0635311305522919e-02 -1.6407150030136108e-01 -1.2252089381217957e-01 1.6689544916152954e-01 1.1410115659236908e-01 4.5910127460956573e-02 4.6767067164182663e-02 9.3424044549465179e-02 4.8248744569718838e-03 -3.2772347331047058e-02 7.0713348686695099e-02 -1.5535767376422882e-01 2.8134835883975029e-02 1.0896966606378555e-01 1.2899893522262573e-01 -1.3951922953128815e-01 1.4079843461513519e-01 5.7899080216884613e-02 2.8044087812304497e-02 -1.2330200523138046e-01 8.1309668719768524e-02 -2.0598029717803001e-02 -5.3618125617504120e-02 -8.8700465857982635e-03 -1.0860000550746918e-01 1.0551079362630844e-01 1.6838452219963074e-01 5.2234735339879990e-02 -8.6276814341545105e-02 7.2604961693286896e-02 -5.5210910737514496e-02 -1.5934762358665466e-01 -4.9182694405317307e-02 1.6739164292812347e-01 -1.6062523424625397e-01 -3.7075143307447433e-02 9.2674205079674721e-03 4.2246798984706402e-03 1.2752832472324371e-01 -1.0642274469137192e-01 -1.4423626661300659e-01 -5.5579971522092819e-02 -5.8734858612297103e-06 1.1443763226270676e-01 1.0361782461404800e-01 -2.8708066791296005e-02 9.3788906931877136e-02 -6.1957452446222305e-02 -5.1627650856971741e-02 -4.0865242481231689e-02 -1.0863462090492249e-01 -2.8401155024766922e-02 1.3621305115520954e-02 -7.7227540314197540e-02 8.7347164750099182e-02 -1.7900931835174561e-01 1.7587419599294662e-02 2.3042883258312941e-03 -2.6185305789113045e-02 8.2070752978324890e-03 8.6886979639530182e-02 1.3869465887546539e-01 -1.1047164350748062e-01 4.4182082638144493e-03 1.0889088362455368e-01 -1.5879885852336884e-01 -5.1190327852964401e-02 5.5833395570516586e-02 -1.6134774684906006e-01 -7.2397299110889435e-02 1.0432209819555283e-01 1.0452275723218918e-01 -1.5869854390621185e-01 7.9902939498424530e-02 -1.7330768704414368e-01 -1.4975689351558685e-01 4.6532701700925827e-02 -6.9163590669631958e-02 -8.2434162497520447e-02 7.6700501143932343e-02 1.2378671765327454e-01 -7.0682682096958160e-02 -2.9632639139890671e-02 6.8161748349666595e-02 -1.0646227747201920e-01 2.2884747013449669e-02 1.0076128691434860e-01 7.1898490190505981e-02 -9.9740877747535706e-02 9.1571591794490814e-02 -1.4262367039918900e-02 1.8801808357238770e-02 7.1949116885662079e-02 2.7779271826148033e-02 -1.0636379569768906e-01 1.2853455543518066e-01 6.7001199349761009e-03 1.3190796971321106e-01 7.8366801142692566e-02 -1.6636503860354424e-03 1.3908314704895020e-01 1.1594126373529434e-01 -2.9616473242640495e-02 -5.5483419448137283e-02 2.7836887165904045e-02 1.5158528089523315e-01 1.5176974236965179e-01 -7.1755670011043549e-02 1.4376351237297058e-01 1.8083008006215096e-02 -3.3130060881376266e-02 -1.2125356495380402e-01 7.9216532409191132e-02 -4.6605356037616730e-02 1.1078573763370514e-01 -1.6800822317600250e-01 3.7440851330757141e-02 -7.9348877072334290e-02 -1.3067942857742310e-01 -4.5209478586912155e-02 1.0511445812880993e-02 1.0472314059734344e-01 -8.0465652048587799e-02 -1.5075263381004333e-01 1.0395468771457672e-01 2.6847347617149353e-03 1.4221858233213425e-02 3.3158315345644951e-03 -6.4110077917575836e-02 6.1059229075908661e-02 3.8205988705158234e-02 -7.3297262191772461e-02 -6.2447290867567062e-02 -6.0993120074272156e-02 -1.4978361129760742e-01 7.5392894446849823e-02 -1.3238884508609772e-01 -1.0906060785055161e-01 1.2413368374109268e-01 2.0917419344186783e-02 -8.4670662879943848e-02 -4.7955457121133804e-02 -5.9036467224359512e-02 9.6946954727172852e-02 9.9381946027278900e-02 -5.3782187402248383e-02 1.8155328929424286e-01 -2.1315309405326843e-01 -3.9454843848943710e-02 1.2247075140476227e-01 1.0196812450885773e-01 1.6315579414367676e-01 -1.6542840003967285e-01 1.2523142993450165e-01 -1.7234003543853760e-01 1.3537953794002533e-01 -1.8946534022688866e-02 1.9293015822768211e-02 1.1213442683219910e-01 -1.2637281417846680e-01 1.1432139575481415e-01 1.6811822354793549e-01 1.5512736141681671e-01 8.0857127904891968e-02 -7.0145636796951294e-02 -4.8571188002824783e-02 1.1111617833375931e-01 1.1753220856189728e-01 -9.5671840012073517e-02 -8.4040518850088120e-03 6.3960008323192596e-02 3.1017091125249863e-02 1.0969663411378860e-01 -2.2565802931785583e-01 1.0196113958954811e-02 -1.0862542316317558e-02 -1.0147740133106709e-02 1.7828007042407990e-01 -4.1924804449081421e-02 1.4383241534233093e-01 1.3767153024673462e-01 1.8699528276920319e-01 5.2629511803388596e-02 -4.1837152093648911e-02 2.4460410699248314e-02 7.8863367438316345e-02 1.1445748060941696e-01 2.4327175691723824e-02 8.7668597698211670e-02 1.0803899168968201e-01 -1.0234031826257706e-01 -1.4253209531307220e-01 4.3953202664852142e-02 -1.2096554040908813e-01 -1.3476820662617683e-02 1.2252845615148544e-01 3.6671452224254608e-02 9.7954787313938141e-02 2.5622563436627388e-02 1.2170241773128510e-01 -1.4161181449890137e-01 8.3630256354808807e-02 -1.4037972688674927e-01 1.1412760615348816e-01 9.0255491435527802e-02 -1.2749399244785309e-01 -7.3707144474610686e-04 9.4311580061912537e-02 -1.2203335762023926e-01 1.0716312099248171e-03 7.8664034605026245e-02 -1.8223481019958854e-03 -1.2350475788116455e-01 -5.1578324288129807e-02 1.6329288482666016e-01 1.7824947834014893e-01 1.6102680563926697e-01 -1.5286865644156933e-02 -1.7713186144828796e-01 -1.0177455842494965e-01 1.0969258844852448e-01 -1.1091090738773346e-02 -4.1275065392255783e-02 5.8097355067729950e-02 -4.2899809777736664e-02 1.2571553885936737e-01 -5.3137883543968201e-02 -1.1262701451778412e-01 4.5922640711069107e-02 7.2853326797485352e-02 1.1166471242904663e-01 9.0998724102973938e-02 4.7252506017684937e-02 1.4519493281841278e-01 -3.7942174822092056e-02 1.5474486351013184e-01 8.4715627133846283e-02 -7.9735010862350464e-02 3.7441737949848175e-02 8.4858357906341553e-02 -1.2414429336786270e-01 -9.8116183653473854e-04 -8.4764897823333740e-02 -1.4516076445579529e-01 1.4761617779731750e-01 1.4771962165832520e-01 1.0358357429504395e-01 9.6980147063732147e-02 -6.0362666845321655e-03 3.5443793982267380e-02 -1.4094020240008831e-02 -1.0762031190097332e-02 1.5569970011711121e-01 2.3463167250156403e-02 -9.1113872826099396e-02 -6.0743097215890884e-02 5.6377954781055450e-02 5.6723870337009430e-02 1.6464124619960785e-01 7.0913270115852356e-02 -3.6299869418144226e-02 1.3862943649291992e-01 -2.6066232472658157e-02 1.4714659750461578e-01 1.7653141915798187e-01 -5.6629266589879990e-02 -9.7440242767333984e-02 -3.0493399128317833e-02 -1.2674731016159058e-01 -1.4636085927486420e-01 -1.6033236682415009e-01 1.1598268151283264e-01 1.4099384844303131e-01 -1.2928052246570587e-01 -2.2506292443722486e-03 1.1984130740165710e-01 8.1199191510677338e-02 -3.5890486091375351e-02 -8.5868500173091888e-02 -1.5873889625072479e-01 6.9107592105865479e-02 7.2667144238948822e-02 -1.1031991988420486e-01 9.0324282646179199e-03 -4.6015065163373947e-03 1.1164523661136627e-01 -5.9223767369985580e-02 1.8461735546588898e-01 -3.1825546175241470e-02 1.8742255866527557e-01 5.8466024696826935e-02 3.5300977528095245e-02 1.2887382507324219e-01 -8.7603636085987091e-02 -9.6126407384872437e-02 6.6768728196620941e-02 1.3567924499511719e-01 -4.6878617256879807e-02 -9.9248059093952179e-02 -3.3616889268159866e-02 -1.3621981441974640e-01 -1.4694765210151672e-01 8.6408302187919617e-02 -3.9054326713085175e-02 1.5174169838428497e-01 -4.9898989498615265e-02 1.0112030804157257e-01 -5.2563063800334930e-02 9.6825972199440002e-02 6.2977820634841919e-02 -1.3388593494892120e-01 -1.1038979142904282e-01 -1.3291093707084656e-01 1.5232653915882111e-01 -3.7696324288845062e-02 -1.5388875268399715e-02 1.0353564284741879e-03 -1.5108810365200043e-01 5.8347590267658234e-02 9.8041057586669922e-02 1.2259302288293839e-01 -8.5463374853134155e-02 7.3552918620407581e-03 1.9454522430896759e-01 -6.1060790903866291e-04 1.5838071703910828e-01 -3.7815842777490616e-02 -9.5335384830832481e-03 -1.5334132313728333e-01 3.5441010259091854e-03 1.4583419263362885e-01 1.8666557967662811e-02 6.5592303872108459e-02 -1.9179128110408783e-02 -9.1551849618554115e-03 -5.8857057243585587e-02 -4.0875509381294250e-02 1.4077951014041901e-01 6.0141202062368393e-02 7.3083579540252686e-02 1.7779487371444702e-01 1.6300253570079803e-01 -8.8579289615154266e-02 8.1663683056831360e-02 4.4152684509754181e-02 1.0458993166685104e-01 1.6309787333011627e-01 -3.0908063054084778e-03 7.8514754772186279e-02 -4.6366658061742783e-02 7.6343595981597900e-02 1.6259220242500305e-01 1.2314608693122864e-01 1.4584977924823761e-01 -2.1742554381489754e-02 -1.3762213289737701e-01 9.5738716423511505e-02 5.4532669484615326e-02 1.0037732869386673e-01 8.2413442432880402e-02 4.2430902831256390e-03 1.2305030971765518e-01 7.3223985731601715e-02 -1.3673591613769531e-01 -7.5442902743816376e-02 -1.5692882239818573e-01 -6.9411374628543854e-02 -1.6095760464668274e-01 -6.0147948563098907e-02 6.0965571552515030e-02 -6.1489436775445938e-02 7.4143573641777039e-02 -1.6381901502609253e-01 -1.7623921856284142e-02 1.7901624739170074e-01 -9.6739903092384338e-02 -6.1624079942703247e-02 -1.4219951629638672e-01 1.4786213636398315e-01 1.1331336945295334e-01 3.4799922257661819e-02 -1.2586285173892975e-01 -4.0171429514884949e-02 1.6519820317625999e-02 1.5313854813575745e-01 1.6666084527969360e-01 -6.2576144933700562e-02 -1.1780752986669540e-01 1.8730193842202425e-03 -8.0128602683544159e-02 -1.3835733756422997e-02 -1.1560390889644623e-01 -6.1749268323183060e-02 -8.8184475898742676e-02 -1.6455714404582977e-01 1.4150744676589966e-01 -8.0889098346233368e-02 -1.6519020497798920e-01 -9.6223831176757812e-02 -4.2737148702144623e-02 -1.1844833940267563e-01 -1.4329777657985687e-01 -1.2295990437269211e-01 8.1108048558235168e-02 -9.4487592577934265e-02 -1.6101685166358948e-01 -7.3004469275474548e-02 -6.6977970302104950e-02 -1.8998088315129280e-02 1.0961173474788666e-01 -1.3857425749301910e-01 -1.6676117479801178e-01 -8.0175906419754028e-02 -7.6066017150878906e-02 -1.5341427922248840e-01 1.4906722307205200e-01 -1.1122083663940430e-01 -2.5753971189260483e-02 5.3700741380453110e-02 7.9935349524021149e-02 -2.8594338800758123e-03 -1.4949974417686462e-01 -1.4970241487026215e-01 -1.6900328919291496e-02 1.6895225644111633e-01 1.3613707385957241e-02 -3.8219489157199860e-02 -3.0469719320535660e-02 7.0211164653301239e-02 1.5951202809810638e-01 1.6606380045413971e-01 -9.6832744777202606e-02 -8.7383994832634926e-03 4.5779582113027573e-02 -3.8137212395668030e-02 9.3919947743415833e-02 7.3211379349231720e-02 -6.8937033414840698e-02 2.1094253286719322e-02 1.0103376209735870e-01 3.4082323312759399e-02 5.9416551142930984e-02 1.1380662908777595e-03 -3.8192737847566605e-02 5.9213522821664810e-02 -1.7349117994308472e-01 5.9127394109964371e-02 2.3311905097216368e-03 1.0129816085100174e-01 -1.3388054072856903e-01 6.4550109207630157e-02 -1.2016988545656204e-01 -1.0186851024627686e-01 9.7495749592781067e-02 8.4770865738391876e-02 -3.4686647355556488e-02 -1.3529805839061737e-01 -3.7827979773283005e-02 -1.3589820265769958e-01 6.3088469207286835e-02 -7.0438809692859650e-02 4.8867288976907730e-02 2.7918327599763870e-02 4.0667629800736904e-03 -1.5271985530853271e-01 -5.1776370964944363e-03 -5.8164939284324646e-02 -5.6322537362575531e-02 -9.1160885989665985e-02 -1.7644578218460083e-01 3.7570331245660782e-02 6.0590831562876701e-03 -1.8615802749991417e-02 -1.0157756507396698e-01 1.6401433944702148e-01 9.1791249811649323e-02 -3.1503625214099884e-02 8.7152987718582153e-02 -2.6154746137763141e-06 1.1364678293466568e-01 -1.1132662743330002e-01 7.7065631747245789e-02 4.8268295824527740e-02 -7.7792055904865265e-02 9.9931970238685608e-02 -6.3430115580558777e-02 -1.5291562676429749e-01 1.5462233126163483e-01 8.9339809492230415e-03 -6.9858282804489136e-02 2.1497076377272606e-02 -7.3213919997215271e-02 1.3213971629738808e-02 -7.8515090048313141e-02 4.8066861927509308e-02 -7.5388953089714050e-02 1.6383972764015198e-01 8.3802320063114166e-02 -1.1565552651882172e-01 6.2243010848760605e-02 -3.8602463901042938e-02 -7.6674424111843109e-02 9.0289913117885590e-02 -3.2624237239360809e-02 -1.5737205743789673e-01 1.2814643979072571e-01 -7.5129680335521698e-02 7.3976791463792324e-03 1.0015308856964111e-01 -1.8987210933119059e-03 -5.1146931946277618e-02 -2.8743259608745575e-02 1.6012170910835266e-01 5.6555997580289841e-02 7.7003598213195801e-02 6.4625917002558708e-03 -1.3668417930603027e-01 -1.6470859944820404e-01 -1.5135048329830170e-01 -1.6680258512496948e-01 -4.6858336776494980e-02 2.4255575612187386e-02 -1.2776190042495728e-01 1.4823810197412968e-02 4.2276870459318161e-02 1.8516823649406433e-02 -1.0342898219823837e-01 7.2880648076534271e-02 -4.3620735406875610e-02 -7.4339963495731354e-02 -1.4153720438480377e-01 1.2434821575880051e-02 -3.7630409002304077e-02 4.6840067952871323e-02 1.4950130879878998e-01 5.8817574754357338e-03 2.4371592327952385e-02 1.3463474810123444e-01 -5.3484234958887100e-02 8.5236467421054840e-02 1.2479225546121597e-01 -9.7104231826961040e-05 1.1949057690799236e-02 -1.6377156972885132e-01 -1.7111326754093170e-01 -5.3194083273410797e-02 -1.3820339739322662e-01 1.8328787386417389e-01 1.1354572325944901e-01 4.0479235351085663e-02 -7.6103746891021729e-02 9.4877600669860840e-02 1.5862078964710236e-01 -1.3053275644779205e-02 1.7810390889644623e-01 -9.9562622606754303e-02 2.6377039030194283e-03 1.8652251362800598e-01 4.9685433506965637e-02 -1.4840899407863617e-01 1.2599223852157593e-01 1.6390177607536316e-01 -7.6463542878627777e-02 -1.6739553213119507e-01 -1.2540559470653534e-01 1.5241014957427979e-01 2.0549924671649933e-01 -1.5583513677120209e-01 -1.0377961397171021e-01 -1.4721423387527466e-02 1.4722526073455811e-01 1.7088787257671356e-01 -2.4015445262193680e-02 1.4471495151519775e-01 7.9960107803344727e-02 1.0280988179147243e-02 -2.1587865427136421e-02 1.8192675709724426e-01 1.5904587507247925e-01 -9.0391293168067932e-02 -1.2402639538049698e-01 1.8900108337402344e-01 6.2033366411924362e-02 -6.2280431389808655e-02 5.6288931518793106e-03 1.7544177174568176e-01 -4.6077787876129150e-02 5.1204040646553040e-02 4.7219734638929367e-02 -1.5672479569911957e-01 -1.1465919017791748e-01 1.1490271426737309e-02 -1.6354577243328094e-01 -5.8740913867950439e-02 1.2241447716951370e-01 -4.5530885457992554e-02 -3.9315421134233475e-02 -4.7795642167329788e-02 1.6534189879894257e-01 -1.5029451251029968e-01 9.9881902337074280e-02 -5.5805388838052750e-02 3.8264762610197067e-02 -5.8490601368248463e-03 1.3389925658702850e-01 -1.7550101876258850e-01 -1.2147120386362076e-01 -7.3263375088572502e-03 -4.4394280761480331e-02 8.8651580736041069e-03 -6.5783560276031494e-02 3.1425815075635910e-02 -1.0659535229206085e-01 3.7015151232481003e-02 4.4833444058895111e-02 -1.6168227791786194e-01 -1.7073801159858704e-01 1.1299055069684982e-01 4.8310369253158569e-02 1.5924452245235443e-01 1.2359432876110077e-02 -6.3785433769226074e-02 -1.5458737313747406e-01 6.5181456506252289e-02 1.0697966814041138e-01 1.2338131666183472e-01 1.3441203534603119e-01 1.6748265922069550e-01 3.7286048755049706e-03 -2.6281069964170456e-02 1.7200434207916260e-01 -1.5914119780063629e-01 -1.5855124592781067e-01 -4.6280617825686932e-03 -8.2907445728778839e-02 -1.5866462886333466e-01 3.1278848182410002e-03 1.6528852283954620e-01 1.0277230292558670e-02 -1.2113060802221298e-01 5.1046907901763916e-04 1.3456645607948303e-01 -6.2059160321950912e-02 1.0755174607038498e-01 7.9713456332683563e-02 -1.3358643651008606e-01 -1.2305697798728943e-01 -1.0086143016815186e-01 -4.4570431113243103e-02 1.4210443198680878e-01 1.4995011687278748e-01 6.7133724689483643e-02 -1.1162798106670380e-01 5.4219760000705719e-02 -8.3360336720943451e-02 1.6260315477848053e-01 -7.5602695345878601e-02 1.0934775322675705e-01 -1.7010310664772987e-02 1.6715875267982483e-01 4.2163677513599396e-02 1.6634517908096313e-01 6.4376629889011383e-02 -5.4787591099739075e-02 -1.4742368459701538e-01 -1.7402622848749161e-02 1.7972251400351524e-02 -1.4832231402397156e-01 -1.0382937639951706e-01 -6.8452276289463043e-02 1.6314387321472168e-01 1.0457656346261501e-02 -2.1789255551993847e-03 1.0283134132623672e-01 -1.7026360332965851e-01 -6.0360088944435120e-02 -1.1124248057603836e-01 2.8401261195540428e-02 4.0054891258478165e-02 -5.9569351375102997e-02 7.2306349873542786e-02 7.4785567820072174e-02 -3.1768176704645157e-02 -1.5550224483013153e-01 -3.6329384893178940e-02 -6.3867494463920593e-02 -1.1695125699043274e-01 -1.6881465911865234e-01 1.2018360197544098e-01 -4.8490911722183228e-02 3.2233998179435730e-02 -1.4289624989032745e-01 2.1910445764660835e-02 -8.7154738605022430e-02 -1.1001989245414734e-01 -1.0408223606646061e-02 -1.2528565526008606e-01 9.2111758887767792e-02 -1.4757370948791504e-01 1.7718141898512840e-02 3.9351098239421844e-02 -1.7362023890018463e-01 -1.4044223725795746e-01 8.6680732667446136e-02 -7.3195233941078186e-02 1.0132195800542831e-01 -2.8408175334334373e-02 -1.1491246521472931e-01 1.0917031764984131e-01 -4.1359849274158478e-02 1.2620905041694641e-01 1.5686447918415070e-01 -2.5077035650610924e-02 5.0439190119504929e-02 -9.7124740481376648e-02 1.2576732039451599e-01 5.5227130651473999e-02 1.4826244115829468e-01 4.0535964071750641e-02 1.7079155892133713e-02 -1.7204219102859497e-01 -3.8993936032056808e-03 -6.8207837641239166e-02 4.5532755553722382e-02 1.3526114821434021e-01 1.1562382429838181e-01 -1.4188191294670105e-01 -1.5605461597442627e-01 7.3668502271175385e-02 7.3097139596939087e-02 1.3424729695543647e-03 -1.5249024331569672e-01 -1.4244896173477173e-01 -7.2014153003692627e-02 -1.7189279198646545e-01 -1.4538894593715668e-01 -1.4514610171318054e-01 -6.3957810401916504e-02 5.9446162777021527e-04 1.6049395501613617e-01 -1.0307960212230682e-02 -8.5354402661323547e-02 -8.9818611741065979e-02 7.8076139092445374e-02 -1.3904225826263428e-01 1.5687426924705505e-01 -1.2678506784141064e-02 -1.6458543017506599e-02 -1.1236618459224701e-01 -3.9772909134626389e-02 1.5551362931728363e-01 -6.1020132154226303e-02 2.6888912543654442e-02 -1.6850773990154266e-01 1.9674876704812050e-02 1.8073540413752198e-03 1.2706129252910614e-01 3.1705446541309357e-02 -1.6969311982393265e-02 9.7994171082973480e-02 2.6134501677006483e-03 -2.0548501983284950e-02 -3.8066446781158447e-02 1.0532739013433456e-01 7.8914999961853027e-02 1.1048828810453415e-01 -9.1854751110076904e-02 1.3172870874404907e-01 -8.8575005531311035e-02 3.6531385034322739e-02 -9.6524812281131744e-02 1.3434532284736633e-01 1.1242919415235519e-01 -7.8804984688758850e-02 8.0177625641226768e-03 -3.9474327117204666e-02 2.0591331645846367e-02 6.9355987012386322e-02 -1.0526240617036819e-01 1.1062432825565338e-01 1.5160425007343292e-01 -1.7677907645702362e-01 1.3468055427074432e-01 -7.1394987404346466e-02 2.0957024767994881e-02 4.9615163356065750e-02 -6.8783283233642578e-02 -9.6930794417858124e-02 -2.8651938773691654e-03 1.0573197156190872e-01 1.0634270310401917e-01 -2.4499129503965378e-02 -6.9394032470881939e-03 -1.6761755943298340e-01 -7.0892341434955597e-02 8.0549792619422078e-04 -7.0038691163063049e-02 7.2425128892064095e-03 1.1211688816547394e-01 2.1722180768847466e-02 -3.1130557879805565e-02 9.0040005743503571e-02 1.6382573172450066e-02 6.6061645746231079e-02 -1.0491076856851578e-01 1.2902100384235382e-01 1.8084557354450226e-01 1.0548716783523560e-01 1.2389985471963882e-01 1.1932168900966644e-01 -3.8264666218310595e-03 1.1504859663546085e-02 1.1096031405031681e-02 -3.1175993382930756e-02 1.0522079467773438e-01 -3.9076942950487137e-02 -1.3736033439636230e-01 1.2618146836757660e-01 -2.9583178460597992e-02 1.2243606895208359e-01 -1.3618390075862408e-02 -1.6011622548103333e-01 -1.3266037404537201e-01 1.3492596149444580e-01 6.3441842794418335e-02 -8.8300541043281555e-02 9.9157616496086121e-02 2.7091294527053833e-02 -6.1760857701301575e-02 6.2316168099641800e-02 -9.6146851778030396e-02 5.5971510708332062e-02 -6.7095167934894562e-02 6.1577301472425461e-02 -8.5617281496524811e-02 1.4088465273380280e-01 6.8045869469642639e-02 9.7376741468906403e-02 -5.9414386749267578e-02 1.3326939940452576e-01 -1.1597616970539093e-01 -1.1961200088262558e-01 -7.0213355123996735e-02 8.7924286723136902e-02 -4.6885896474123001e-02 2.1289676427841187e-02 -7.8770063817501068e-02 8.0066978931427002e-02 7.8666068613529205e-02 -1.7715169489383698e-01 1.1657090485095978e-01 -1.4813676476478577e-01 -9.4916515052318573e-02 -1.1040564626455307e-01 1.3334457576274872e-01 -1.2673395872116089e-01 1.7928820103406906e-02 1.1808043718338013e-01 -8.1545956432819366e-02 1.5894299745559692e-01 -1.5503035485744476e-01 1.5831480920314789e-01 -2.0740343257784843e-02 1.1551042646169662e-01 -1.4821283519268036e-01 -1.1929266899824142e-01 -5.7337440550327301e-02 -6.2947325408458710e-02 -1.4354389905929565e-01 -1.3734912872314453e-01 1.1323392391204834e-01 5.2094690501689911e-02 -1.6286183893680573e-01 -9.4244889914989471e-02 5.5254049599170685e-02 -9.7362019121646881e-02 1.1906214989721775e-02 1.0017254948616028e-01 3.7845127284526825e-02 -1.3807403855025768e-02 -1.6788099706172943e-01 -6.5079689025878906e-02 -5.7347737252712250e-02 -9.9775128066539764e-02 1.5398426353931427e-01 3.9197742938995361e-02 -1.6907837986946106e-01 -8.0929078161716461e-02 6.1502151191234589e-02 -6.0457382351160049e-02 -8.2646779716014862e-02 -1.1116702109575272e-01 -2.3308934643864632e-02 -4.6655625104904175e-02 1.2948673963546753e-01 9.3092702329158783e-02 1.5649613738059998e-01 1.2651018798351288e-01 1.8955601379275322e-02 5.1990639418363571e-02 1.3723240792751312e-01 -5.8702446520328522e-02 -1.5259394049644470e-01 -9.3642279505729675e-02 -1.2046197801828384e-01 1.5071742236614227e-02 1.6756718978285789e-02 -5.5374573916196823e-02 1.1751487106084824e-01 1.1093711853027344e-01 -2.1774120628833771e-02 1.2931823730468750e-01 1.2578570842742920e-01 1.1570174247026443e-01 9.4651736319065094e-02 -1.2724980711936951e-01 -2.1764729171991348e-02 1.2854586541652679e-01 1.8730270862579346e-01 -2.4013012647628784e-02 1.0772377252578735e-01 -1.4140141010284424e-01 -9.7206674516201019e-02 -2.4669583886861801e-02 -1.2879143655300140e-01 -7.1707814931869507e-02 -2.2609097883105278e-02 -7.5826831161975861e-02 -5.1870912313461304e-02 -1.0970621556043625e-01 5.3859423846006393e-02 -1.5657374262809753e-01 -5.7504784315824509e-02 -1.0620143264532089e-01 -1.0554336756467819e-01 1.2300017476081848e-01 -1.5839107334613800e-02 -2.9633717611432076e-02 9.5774292945861816e-02 1.8263952434062958e-01 1.1639188975095749e-01 9.2759355902671814e-03 1.0660519450902939e-01 -6.4088970422744751e-02 -3.1540300697088242e-02 -2.3226879537105560e-02 1.5029984712600708e-01 -1.0107246041297913e-01 -6.4003959298133850e-02 1.5145792067050934e-01 5.1681980490684509e-02 1.5212516486644745e-01 -1.7748095095157623e-01 -3.0235968530178070e-02 1.2262185104191303e-02 -1.4498827978968620e-02 2.5057384744286537e-02 -1.1555734276771545e-01 -8.6564328521490097e-03 -4.5130915939807892e-02 -1.0978124290704727e-01 4.2990878224372864e-02 2.6696791872382164e-02 -1.0821475088596344e-01 -6.9139592349529266e-02 1.4034239947795868e-01 1.6376483440399170e-01 1.0133940726518631e-01 1.6130314767360687e-01 1.8135379254817963e-01 -1.0472594201564789e-01 7.7798508107662201e-02 8.2272946834564209e-02 -8.8763341307640076e-02 -4.8005408607423306e-03 -9.3426674604415894e-02 1.4199562370777130e-01 1.4316140115261078e-01 7.3061781004071236e-03 4.7944750636816025e-02 1.4582164585590363e-01 -9.2066407203674316e-02 -1.1963116377592087e-01 -1.7973969876766205e-01 6.7031793296337128e-03 -7.7114269137382507e-02 1.2220139615237713e-03 1.1549902148544788e-02 8.5059605538845062e-02 -8.2640483975410461e-02 9.6153512597084045e-02 1.2755008041858673e-01 -1.5268619358539581e-01 -1.4101795852184296e-01 1.4657911658287048e-01 2.6282237842679024e-02 1.0886129923164845e-02 1.5301559865474701e-01 -1.0544511675834656e-01 -3.5879283677786589e-03 -1.5320885181427002e-01 -9.8643258213996887e-02 1.1920910328626633e-01 6.8484842777252197e-02 1.0018807835876942e-02 1.1255370825529099e-01 -2.3633575066924095e-02 -1.0258380323648453e-01 1.3230778276920319e-01 9.5207378268241882e-02 -7.2551064193248749e-02 -1.7469835281372070e-01 -1.0186535865068436e-01 -8.0125510692596436e-02 2.5201635435223579e-02 -1.1108423024415970e-01 9.4993606209754944e-02 6.0718368738889694e-02 9.2879999428987503e-03 4.5589335262775421e-02 3.2307926565408707e-02 1.4272952079772949e-01 8.5126392543315887e-02 1.6822229325771332e-01 -6.7024849355220795e-02 7.7800363302230835e-02 -3.8313739001750946e-02 -1.5380547940731049e-01 -3.4094471484422684e-02 -1.5854220092296600e-01 3.6356508731842041e-02 -3.5166531801223755e-02 -3.0373038724064827e-02 1.7101898789405823e-01 -3.1232696026563644e-02 4.8921123147010803e-02 1.4679004251956940e-01 -1.1106231063604355e-01 -1.1297331005334854e-01 1.2930825352668762e-01 -1.4541669189929962e-01 -1.4348843134939671e-02 1.6403879225254059e-01 2.2410305682569742e-03 1.5769597887992859e-01 -1.4626479148864746e-01 -1.5972280502319336e-01 -1.6213424503803253e-01 -5.1036082208156586e-02 -6.9408208131790161e-02 1.5131959319114685e-01 -7.6424181461334229e-02 5.7817198336124420e-02 5.1632087677717209e-02 -1.3905391097068787e-01 1.4805544912815094e-01 -7.3402330279350281e-02 -4.6317480504512787e-02 7.1542479097843170e-02 -9.8541378974914551e-02 1.6974529623985291e-01 -1.6401816159486771e-02 -1.1228926479816437e-01 -1.2269053608179092e-01 5.1507517695426941e-02 1.6348706185817719e-01 7.6783597469329834e-02 1.1294969171285629e-01 -9.5532692968845367e-02 9.9484384059906006e-02 9.6565425395965576e-02 1.3930617272853851e-01 -1.9598430953919888e-03 -8.5393667221069336e-02 -1.2410821765661240e-01 -1.1999148875474930e-01 4.8660084605216980e-02 -1.6999299824237823e-01 -3.8879908621311188e-02 -1.2093854695558548e-01 -2.6074588298797607e-02 9.5633119344711304e-02 1.4016640186309814e-01 2.7309542521834373e-02 -1.1483326554298401e-01 1.0746886581182480e-01 -1.4468224346637726e-01 1.3382139801979065e-01 -5.6190174072980881e-03 4.5364111661911011e-02 -8.2770250737667084e-03 -1.2396434694528580e-01 -1.3870801031589508e-01 5.6716479361057281e-02 -2.5072868913412094e-02 -3.6604043096303940e-02 1.6719277203083038e-01 3.5791836678981781e-02 3.6036077886819839e-02 -9.3763895332813263e-02 9.1009713709354401e-02 -5.2829723805189133e-02 5.6848168373107910e-02 -7.9077437520027161e-02 -7.5253061950206757e-02 -8.4493435919284821e-02 -2.8597330674529076e-03 -8.7242156267166138e-02 -2.5991922244429588e-02 9.9729299545288086e-02 1.3217376172542572e-01 -6.8784348666667938e-02 1.3707666099071503e-01 4.5014087110757828e-02 1.1515823006629944e-01 -8.2624956965446472e-02 -1.2541405856609344e-01 4.2353931814432144e-02 -2.4276839569211006e-02 -4.6734526753425598e-02 1.0517550259828568e-01 -1.1245689541101456e-01 -4.8207525163888931e-02 6.9735199213027954e-02 -6.2613770365715027e-02 1.9810110330581665e-02 -8.2373946905136108e-02 1.5010777115821838e-01 -5.7744849473237991e-03 -9.4260703772306442e-03 5.7517662644386292e-02 -6.1637483537197113e-02 -1.0710051655769348e-01 1.2401452660560608e-01 9.7175672650337219e-02 1.0419924557209015e-01 1.3007251918315887e-01 -2.5766165927052498e-02 3.1454026699066162e-02 1.1116656661033630e-01 -1.0873444378376007e-01 -4.2736366391181946e-02 1.8474242091178894e-01 -8.5053876042366028e-02 -1.5820594131946564e-01 -1.6170537471771240e-01 1.0913009196519852e-01 3.3808209002017975e-02 -8.8355273008346558e-02 8.6090110242366791e-02 -7.9159140586853027e-02 8.7604299187660217e-02 -1.2262423336505890e-01 -7.6315008103847504e-02 1.3824351131916046e-01 -1.5084613859653473e-01 1.3207238912582397e-01 -7.8210793435573578e-02 -1.4664706587791443e-01 3.4021154046058655e-02 2.2978952154517174e-02 3.4359097480773926e-02 4.4813480228185654e-02 -1.0883934795856476e-01 -1.2004970759153366e-01 6.6692121326923370e-02 2.0822023972868919e-02 -2.5318646803498268e-03 1.4270591735839844e-01 2.5240357965230942e-02 1.7762239277362823e-01 -1.5710312873125076e-03 2.3797936737537384e-02 -9.8754242062568665e-02 -1.7036190629005432e-01 1.6676786541938782e-01 2.2037653252482414e-02 -1.0869635641574860e-01 -1.6815510392189026e-01 1.1428992729634047e-03 1.5059626102447510e-01 -5.4621726274490356e-02 -7.2825990617275238e-02 4.6338688582181931e-02 1.4555923640727997e-01 -8.5393570363521576e-02 8.4195114672183990e-02 -1.0605035722255707e-01 8.1628449261188507e-02 -2.5730531662702560e-02 1.1798729747533798e-01 -3.8180552423000336e-02 1.6222856938838959e-01 -1.5981647372245789e-01 -1.0810052603483200e-01 1.4580153860151768e-02 1.2820295989513397e-01 9.3282327055931091e-02 1.5294741094112396e-01 -1.5806857496500015e-02 -1.4311710000038147e-01 -5.6423064321279526e-02 -8.7079480290412903e-02 4.1775118559598923e-02 1.4487640559673309e-01 1.7823801934719086e-01 2.7671167626976967e-02 -3.3711209893226624e-02 -1.0816707462072372e-01 -1.7781348526477814e-01 5.7920429855585098e-02 -1.6233939677476883e-02 -7.3531448841094971e-02 1.4863033592700958e-01 2.4217076599597931e-02 2.7776433154940605e-02 -1.1501887440681458e-01 1.4946384727954865e-01 -1.4295767247676849e-01 7.3074810206890106e-02 3.9086107164621353e-02 1.2473989278078079e-01 9.6571438014507294e-02 -4.4228639453649521e-02 1.1056438088417053e-02 9.0966813266277313e-02 -1.7297862470149994e-01 6.0577191412448883e-02 -2.9818946495652199e-02 -1.9194822013378143e-01 -1.8093255162239075e-01 1.8985974788665771e-01 8.2042410969734192e-02 -1.2736988067626953e-01 1.2785920500755310e-01 7.6253548264503479e-02 -1.0051189363002777e-01 7.5499676167964935e-02 7.6658234000205994e-02 9.1202370822429657e-02 1.0476241260766983e-01 -1.4288315549492836e-02 1.0893466323614120e-01 -5.1476070657372475e-03 -8.9990206062793732e-02 -1.4903575181961060e-01 7.7641077339649200e-02 2.0303625613451004e-02 2.4623622000217438e-01 5.1467970013618469e-02 1.5467286109924316e-01 -2.5199325755238533e-02 1.3906607031822205e-01 8.1205964088439941e-02 1.4244478940963745e-01 3.7388883531093597e-02 -4.2201139032840729e-02 -2.1423431113362312e-02 4.7948379069566727e-02 -9.8669510334730148e-03 -3.6094900220632553e-02 -1.5459752082824707e-01 -1.2728796899318695e-01 -9.9993243813514709e-02 8.9150860905647278e-02 -9.5137199386954308e-03 -1.0856416076421738e-01 1.6219014301896095e-02 -6.4480535686016083e-02 1.6697658598423004e-01 -1.4884699881076813e-01 -1.4501720666885376e-01 9.0775154531002045e-02 1.4069844782352448e-01 5.5947083979845047e-02 -5.8948108926415443e-03 -6.8452544510364532e-02 -1.3134373724460602e-01 9.4259142875671387e-02 -1.4805838465690613e-01 -1.4261096715927124e-01 1.4132061041891575e-02 -1.6750240325927734e-01 4.6579334884881973e-02 6.4453557133674622e-02 9.2463955283164978e-02 -9.8966255784034729e-02 -4.4667012989521027e-03 1.0952873528003693e-01 1.0190948843955994e-01 5.4925188422203064e-02 -4.8085317015647888e-02 -1.1901130899786949e-02 -2.5180494412779808e-03 1.3632281124591827e-01 1.2103120237588882e-01 1.6033951938152313e-01 -1.1753217130899429e-01 1.6280683875083923e-01 1.2575395405292511e-01 7.2973772883415222e-02 1.6531500220298767e-01 3.9651550352573395e-02 1.0543579608201981e-01 -4.6233233064413071e-02 -1.0473090410232544e-01 -1.4317159354686737e-01 -1.9532361999154091e-02 1.1802297085523605e-01 -3.8557223975658417e-02 -8.5762314498424530e-02 4.3528964743018150e-03 6.1793528497219086e-02 7.2757862508296967e-02 3.5306077450513840e-02 1.3536384701728821e-01 -1.7873808741569519e-01 1.0545110702514648e-01 1.2786768376827240e-01 -1.0394888371229172e-01 -4.0915001183748245e-02 -1.1492610722780228e-01 4.9662917852401733e-02 -5.0519132055342197e-03 2.5174511596560478e-02 2.7139216661453247e-02 2.9968248680233955e-02 -1.6032178699970245e-01 1.4490704238414764e-01 4.2676370590925217e-02 -7.6075159013271332e-02 -5.1042210310697556e-02 2.0686076954007149e-02 -1.0244783014059067e-02 1.2092408537864685e-01 -9.3223035335540771e-02 -4.9643326550722122e-02 3.5624296870082617e-03 -7.8927494585514069e-02 -3.5430222749710083e-02 1.0668908059597015e-01 7.9081624746322632e-02 -1.1603955179452896e-01 1.5683451667428017e-02 1.2124597281217575e-01 -4.3489862233400345e-02 -1.5877481549978256e-02 4.2787883430719376e-02 -9.2445716261863708e-02 -1.3484907150268555e-01 8.8878199458122253e-02 -7.2738401591777802e-02 1.1236880719661713e-01 1.1378404498100281e-01 -1.5140579640865326e-01 -1.1091566644608974e-02 5.9461012482643127e-02 8.5969626903533936e-02 -1.1455617100000381e-01 1.6204936429858208e-02 4.0938057005405426e-02 -5.8020986616611481e-03 7.1906238794326782e-02 -1.1418312788009644e-01 1.1211796849966049e-01 7.5427838601171970e-03 8.7355688214302063e-02 1.4237862825393677e-01 1.5884788706898689e-02 -1.5234854817390442e-01 -1.2596593797206879e-01 9.8696492612361908e-02 1.7214487493038177e-01 -9.3266524374485016e-02 1.7313501238822937e-01 -1.2098985724151134e-02 -4.3300800025463104e-02 1.5248887240886688e-01 -9.7999930381774902e-02 -1.5417192876338959e-01 8.6757577955722809e-02 -7.9298324882984161e-02 1.0523235797882080e-01 -9.1486781835556030e-02 -1.3770204782485962e-01 1.3792446255683899e-01 -2.1791698411107063e-02 2.3864123970270157e-02 -5.3874410688877106e-02 1.0288284718990326e-01 -1.6346571967005730e-02 1.7608760297298431e-01 -1.0532324016094208e-01 1.8477629870176315e-02 -4.2672045528888702e-03 -1.3706041872501373e-01 -1.3072548806667328e-01 -1.4588171243667603e-01 8.3437696099281311e-02 -4.9517560750246048e-02 -1.6944949328899384e-01 1.5661722421646118e-01 5.9713136404752731e-02 4.1847530752420425e-02 1.0735504329204559e-01 -2.4168560281395912e-02 3.7286903709173203e-02 -1.9658556208014488e-02 1.5241038799285889e-01 -1.8294461071491241e-02 -1.1806597560644150e-01 -4.1212685406208038e-02 1.0362451896071434e-02 -7.2492033243179321e-02 -1.6066306829452515e-01 5.9911888092756271e-02 -2.1839015185832977e-02 -5.8514762669801712e-02 -1.1353261023759842e-01 4.8615641891956329e-02 1.4100472629070282e-01 1.4512784779071808e-01 2.7685580775141716e-02 -1.2645299732685089e-01 -1.6543193161487579e-01 -5.7626422494649887e-02 1.6882674396038055e-01 1.8283998593688011e-02 1.3090014457702637e-01 -1.0757431387901306e-01 8.1424474716186523e-02 -8.2054816186428070e-02 -1.3887764513492584e-01 1.6411668062210083e-01 1.0413933545351028e-01 3.3408746123313904e-02 -2.2303311154246330e-02 -1.2523248791694641e-01 -2.4323701858520508e-02 1.0687544196844101e-01 -5.3161205723881721e-03 1.3923309743404388e-01 2.4200152605772018e-02 -8.7774284183979034e-02 -6.8725116550922394e-02 -2.1718870848417282e-02 -1.1138145625591278e-01 -6.8308427929878235e-02 -9.9963761866092682e-02 1.5992712974548340e-01 7.5152523815631866e-02 -1.3446885347366333e-01 -3.9039898663759232e-02 2.9773939400911331e-02 -1.2870374321937561e-01 1.3694949448108673e-01 7.5349427759647369e-02 -9.9800594151020050e-02 -1.2077935039997101e-02 -1.8786732107400894e-02 -1.3409321010112762e-01 -6.0593057423830032e-02 -1.4153227210044861e-01 -4.2318124324083328e-02 -7.1139015257358551e-02 1.4178888499736786e-01 -3.5828117281198502e-02 1.4475274085998535e-01 9.5106244087219238e-02 2.1817393600940704e-02 -5.7993203401565552e-02 1.6247710585594177e-01 -7.2533451020717621e-02 -1.3949820399284363e-01 8.8947661221027374e-02 1.3688062131404877e-01 1.5453414060175419e-02 -5.6582543998956680e-02 -6.6670358180999756e-02 1.5299539268016815e-01 -1.4952546358108521e-01 -3.7603404372930527e-02 -2.4762520566582680e-02 -1.5890462696552277e-01 8.7387440726161003e-03 7.5223013758659363e-02 -7.9745426774024963e-02 -1.2570475041866302e-01 -1.7028377950191498e-01 -1.3710818253457546e-02 -1.1939688026905060e-01 -4.2604003101587296e-02 6.2870770692825317e-02 -6.5384306013584137e-02 7.2957336902618408e-02 2.4734426289796829e-02 -6.0705039650201797e-02 -7.2293087840080261e-02 -4.8213832080364227e-02 -2.8965936973690987e-02 -2.8768466785550117e-02 -1.0239292681217194e-01 5.1542788743972778e-02 -3.7172004580497742e-02 5.9201430529356003e-02 5.3414952009916306e-02 1.1439450830221176e-01 -1.1064810305833817e-01 -4.1630186140537262e-02 1.6991791129112244e-01 1.6895276308059692e-01 -9.9247340112924576e-03 1.3274884223937988e-01 -1.1996277421712875e-01 6.3112080097198486e-02 -1.5121489763259888e-01 1.1644504219293594e-01 -4.4110350310802460e-02 2.1017478138674051e-04 1.7727254331111908e-01 -1.6903638839721680e-01 -1.4285512268543243e-01 -5.8323528617620468e-02 -1.9579609856009483e-02 -1.5362878143787384e-01 -9.7400717437267303e-02 1.1114259064197540e-01 1.0022927075624466e-01 -1.1699246615171432e-01 3.1577400863170624e-02 1.2832289561629295e-02 2.0819514989852905e-02 7.3428206145763397e-02 1.3612852990627289e-01 -1.2082467228174210e-01 1.0211836546659470e-01 -3.3003952354192734e-02 -1.0193024575710297e-01 -1.1029893904924393e-01 2.4035748094320297e-02 7.0230975747108459e-02 7.0262849330902100e-02 -6.9839246571063995e-02 1.4344951510429382e-01 5.2393376827239990e-02 3.7745527923107147e-02 9.4141453504562378e-02 -3.7465177476406097e-02 -2.1259929984807968e-02 -1.0489396005868912e-01 1.5050084888935089e-01 2.3103525862097740e-02 1.5304599702358246e-01 -1.3514433801174164e-01 -1.2033305317163467e-01 -3.3597655128687620e-03 1.7632104456424713e-02 8.3611853420734406e-02 -9.9216155707836151e-02 -1.6569019854068756e-01 -1.6220524907112122e-01 -1.6871370375156403e-01 6.9154575467109680e-02 -5.5475074797868729e-02 6.5733395516872406e-02 1.3728660345077515e-01 -1.2318300455808640e-01 6.3557341694831848e-02 -1.0038987547159195e-01 1.6473871469497681e-01 1.3290891051292419e-01 -1.3135848939418793e-01 -1.3137303292751312e-01 -1.1793575435876846e-01 7.5430266559123993e-02 -5.7034753262996674e-02 7.1296729147434235e-02 1.3138575851917267e-01 -1.7385764420032501e-01 1.2237483263015747e-01 -7.5705036520957947e-02 -1.5602123737335205e-01 -1.7536649107933044e-01 -1.4059697091579437e-01 -9.7228929400444031e-02 -9.4584308564662933e-02 1.0064443200826645e-01 1.0055290907621384e-01 -1.5378648042678833e-01 4.5488374307751656e-03 -1.0849915444850922e-01 -5.4743275977671146e-03 -8.4949925541877747e-02 7.2300069034099579e-02 4.9755640327930450e-02 -4.1610412299633026e-02 -1.3485819101333618e-01 7.8839883208274841e-02 -4.7027833759784698e-02 1.6645419597625732e-01 -9.8844766616821289e-02 -1.2345709651708603e-01 -1.6081114113330841e-01 -1.2659893371164799e-02 1.6474059224128723e-01 -4.5715995132923126e-02 -9.4212956726551056e-02 1.5466773509979248e-01 1.4618542976677418e-02 -1.7326168715953827e-01 4.5984715223312378e-02 1.1071079224348068e-01 1.7890395224094391e-01 -1.4041629433631897e-01 4.6405330300331116e-02 1.6614861786365509e-01 6.8217188119888306e-02 -1.4333139359951019e-01 -5.1075745373964310e-02 -7.7899143099784851e-02 -6.2776125967502594e-02 1.3725619018077850e-01 -3.0082426965236664e-02 -3.7704054266214371e-02 2.8030110523104668e-02 5.1201894879341125e-02 -1.4472915232181549e-01 1.3035336136817932e-01 -2.5303266011178493e-03 -8.2742191851139069e-02 -1.7801859974861145e-01 1.5688460320234299e-02 1.4686973392963409e-01 1.6859443485736847e-01 1.7998470366001129e-01 7.2969593107700348e-02 -9.4783753156661987e-02 7.5209729373455048e-02 -2.7548732236027718e-02 1.6896532475948334e-01 1.4411288499832153e-01 1.1798425018787384e-01 1.5016816556453705e-01 -4.7069832682609558e-02 1.4330296218395233e-01 -1.5826205909252167e-01 5.2118409425020218e-02 -9.6585247665643692e-03 1.5289700031280518e-01 -1.1432291567325592e-01 1.2586173415184021e-01 1.1358541436493397e-02 5.2060384303331375e-02 -5.2338492125272751e-02 -1.3485947251319885e-01 1.6072086989879608e-01 1.5140935778617859e-02 -1.3251313008368015e-02 1.1797333508729935e-01 6.6640153527259827e-02 1.5861406922340393e-01 1.2601986527442932e-01 8.3411514759063721e-02 -1.0146128386259079e-01 -1.0899306088685989e-01 1.1817053705453873e-01 -8.3977907896041870e-02 -1.2947052717208862e-01 7.6477892696857452e-02 1.2433967739343643e-01 9.7218722105026245e-02 1.3185684382915497e-01 6.0844726860523224e-02 -1.0537206381559372e-01 -1.6728514432907104e-01 -1.5577220916748047e-01 -1.5639391541481018e-01 5.4444707930088043e-02 -7.5866505503654480e-02 -8.1210561096668243e-02 -4.8123463988304138e-02 2.1997030824422836e-02 4.1537724435329437e-02 3.0925471335649490e-02 -9.6098579466342926e-02 -4.4383592903614044e-02 1.4667238295078278e-01 9.3218773603439331e-02 -3.1103780493140221e-02 1.4658299088478088e-01 -2.8082808479666710e-02 -1.3694494962692261e-01 2.5732915848493576e-02 1.3587951660156250e-01 9.0422824025154114e-02 -6.5406009554862976e-02 1.0705503635108471e-02 1.5816453099250793e-01 2.7593657374382019e-02 -1.6076365485787392e-02 1.5187308192253113e-01 9.1582261025905609e-02 -7.0281282067298889e-02 1.7206342518329620e-01 -1.6212803125381470e-01 -2.2230816539376974e-03 -1.3386000692844391e-01 -1.4769445359706879e-01 -8.8498733937740326e-02 -7.5399234890937805e-02 1.1323178187012672e-02 1.3470868766307831e-01 -1.1151928454637527e-01 7.1068964898586273e-02 -3.8292326033115387e-02 -7.4946954846382141e-02 1.3395117223262787e-01 1.0549545288085938e-01 1.6359013319015503e-01 -1.0525092482566833e-01 -1.4781812205910683e-02 -8.1897703930735588e-03 3.3285871148109436e-02 -9.2799611389636993e-02 1.1941157281398773e-01 4.2030103504657745e-03 4.6243134886026382e-02 8.2216918468475342e-02 -5.1462732255458832e-02 1.4944974333047867e-02 -1.8323274329304695e-02 -8.4852889180183411e-02 -1.7880792915821075e-01 1.6321700811386108e-01 -4.4918488711118698e-02 1.6686314344406128e-01 -2.1109225228428841e-02 -1.0294876247644424e-01 -5.2564393728971481e-02 -9.0946793556213379e-02 -1.7429615557193756e-01 -8.2879178225994110e-03 1.4040099084377289e-01 -1.4750470221042633e-01 -1.7094300687313080e-01 -5.4683227092027664e-02 -5.3191110491752625e-02 1.1363657563924789e-01 -1.2224719673395157e-01 8.4604144096374512e-02 1.1968320608139038e-01 1.5484696626663208e-01 -1.3973087072372437e-01 -1.8279561772942543e-02 1.6909740865230560e-01 3.4862883388996124e-02 -1.1267586797475815e-01 1.0942228138446808e-01 -1.7185050994157791e-02 1.5467275679111481e-01 -1.2959386408329010e-01 -7.7496640384197235e-02 -1.1473014950752258e-01 1.3851602375507355e-01 1.2842941284179688e-01 -1.3418596982955933e-01 2.9152587056159973e-02 -2.1242748945951462e-02 -4.1803561151027679e-02 2.8932187706232071e-02 1.1211895197629929e-01 1.4186914265155792e-01 6.4660916104912758e-03 -1.2075088918209076e-01 1.2261142581701279e-01 4.7713611274957657e-02 4.0765378624200821e-02 -9.4103878363966942e-03 -4.4463012367486954e-02 -1.1304108053445816e-01 -6.0282174497842789e-02 -4.7204766422510147e-02 2.8224641457200050e-02 5.0044022500514984e-02 -1.3302275538444519e-01 -1.6838893294334412e-01 -1.4218306541442871e-01 -4.7177620232105255e-02 5.3883709013462067e-02 1.3990096747875214e-02 9.8581410944461823e-02 -1.2985093891620636e-01 -1.3831004500389099e-01 -8.3844251930713654e-02 2.7100974693894386e-02 4.1995517909526825e-02 -1.1783296614885330e-01 -5.9904813766479492e-02 3.0677065253257751e-02 -1.2737014889717102e-01 9.1418713331222534e-02 5.4519888013601303e-02 3.0324330553412437e-02 -1.5172992646694183e-01 8.1380397081375122e-02 4.8046577721834183e-02 -1.3732641935348511e-01 -2.3030752316117287e-02 1.7842397093772888e-01 7.6145291328430176e-02 -1.6902331262826920e-02 9.7723506391048431e-02 -4.5223902910947800e-02 1.2535583972930908e-01 7.8347980976104736e-02 -1.2455850839614868e-01 -5.3833886981010437e-02 -1.0744715481996536e-01 3.2151646912097931e-02 -4.3446082621812820e-02 -1.4462532103061676e-01 -3.9809169247746468e-03 4.6124998480081558e-02 1.2230536341667175e-01 1.7963589727878571e-01 8.0115146934986115e-02 5.2710715681314468e-02 -8.8383629918098450e-02 -9.9058814346790314e-02 -1.7081958055496216e-01 7.5442887842655182e-02 1.4992052316665649e-01 -1.3711827341467142e-03 -3.0362660065293312e-02 6.7620821297168732e-02 -8.4123410284519196e-02 -7.9807400703430176e-02 3.0999824404716492e-02 1.8667140603065491e-01 -2.2869314998388290e-02 -6.0864072293043137e-02 2.5291904807090759e-02 -1.7605304718017578e-02 1.2767821550369263e-01 -1.5297450125217438e-01 8.7605357170104980e-02 -6.9571726024150848e-02 -9.4327680766582489e-02 -1.3619978725910187e-01 8.6719438433647156e-02 1.4177949726581573e-01 1.4286237955093384e-01 1.5452618896961212e-01 -1.0029407590627670e-01 3.1414898112416267e-03 -6.8832603283226490e-03 -1.8064036965370178e-02 -5.1048140972852707e-02 -1.2282548844814301e-01 -1.1444497853517532e-01 -1.1793196946382523e-01 1.4425767958164215e-01 5.6652765721082687e-02 7.5007103383541107e-02 -1.7123746871948242e-01 1.3253197073936462e-02 -1.0685107111930847e-01 7.4978508055210114e-02 3.0146161094307899e-02 1.6591869294643402e-01 -1.1739657819271088e-01 1.0359263420104980e-01 -1.5507145226001740e-01 -4.9234319478273392e-02 -7.4567601084709167e-02 1.5934284031391144e-01 8.7054230272769928e-02 1.6192346811294556e-01 1.1142013221979141e-01 -1.7075861990451813e-01 1.6125528141856194e-02 -5.2934017730876803e-04 3.1526338309049606e-02 1.6590729355812073e-01 1.9856020808219910e-03 -1.2451400607824326e-01 -4.9447171390056610e-02 1.2954522669315338e-01 6.6911578178405762e-02 -1.1511135846376419e-01 -1.6411936283111572e-01 -5.7339597493410110e-02 7.7523216605186462e-02 -1.3253647089004517e-01 6.7228995263576508e-02 6.4593879505991936e-03 6.0936208814382553e-02 1.1173338443040848e-01 1.7814162373542786e-01 -1.3591772317886353e-01 7.3357395827770233e-02 -1.6666306555271149e-01 1.2196569889783859e-01 4.6651121228933334e-02 1.3006506860256195e-01 -4.9099572002887726e-02 1.0275573283433914e-01 -3.9869129657745361e-02 3.8471814244985580e-02 1.2058868259191513e-01 -1.4776000380516052e-01 -6.8259821273386478e-03 -5.9777561575174332e-02 1.4588250219821930e-01 -1.4940437674522400e-01 -1.3767223060131073e-01 7.0443093776702881e-02 -6.4163386821746826e-02 3.6974787712097168e-02 2.6308218017220497e-02 1.3170266151428223e-01 7.2543442249298096e-02 -1.2548287212848663e-01 -5.4712027311325073e-02 -2.7450859546661377e-02 -1.3014593720436096e-01 -3.8881305605173111e-02 -5.2426974289119244e-03 -1.2479022890329361e-01 2.4219235405325890e-02 -1.4796590805053711e-01 1.1882235109806061e-01 -2.1646486595273018e-02 -1.0512428358197212e-02 6.5565742552280426e-02 -1.0378343611955643e-01 3.4301638603210449e-02 3.1024748459458351e-02 9.4140112400054932e-02 -1.5724875032901764e-01 7.3552513495087624e-03 1.6597843170166016e-01 2.0889921113848686e-02 1.0908263921737671e-01 -7.5063884258270264e-02 -4.9152377992868423e-02 1.0478801280260086e-01 -1.1777886189520359e-02 -1.0668938606977463e-01 -1.4513288438320160e-01 -1.2804117798805237e-01 -2.0663656294345856e-02 -9.4339847564697266e-03 -3.3544983714818954e-02 -9.3528740108013153e-02 -5.3715433925390244e-02 -2.2619746159762144e-03 7.1581549942493439e-02 1.5368428826332092e-01 1.0998266190290451e-01 -3.9984587579965591e-02 -1.3723912835121155e-01 -4.8668798059225082e-02 1.1865309625864029e-01 -4.6949040144681931e-02 -6.9781593978404999e-02 1.1532797664403915e-01 1.4930433034896851e-01 -4.9219287931919098e-02 1.5256394445896149e-01 -1.7423988878726959e-01 -3.4480970352888107e-02 -1.5635225176811218e-01 -5.7465713471174240e-02 -1.2901066243648529e-01 -8.0257736146450043e-02 -3.6683592945337296e-02 -1.3331736624240875e-01 -1.1830957233905792e-01 1.0390280932188034e-01 -3.4878995269536972e-02 -1.2985824048519135e-01 -5.2966561168432236e-02 -3.0725304037332535e-02 -7.9543799161911011e-02 5.0383172929286957e-02 -1.3181279599666595e-01 -1.2889385223388672e-01 1.3659323751926422e-01 1.7293636500835419e-01 1.5144796669483185e-01 1.0680726170539856e-01 6.5119713544845581e-03 5.0178620964288712e-02 7.9221330583095551e-02 4.9482285976409912e-02 6.9591104984283447e-02 1.3394649326801300e-01 1.3121376931667328e-01 -1.0366374254226685e-01 -1.6404513269662857e-02 -1.2542138993740082e-01 -8.0379873514175415e-02 1.3160735368728638e-02 1.4028364792466164e-02 -9.0401284396648407e-02 -1.2365523725748062e-01 -9.6320219337940216e-02 1.6385932266712189e-01 -9.3945555388927460e-02 1.6393521800637245e-02 -2.6980346068739891e-02 -2.8861504048109055e-02 -7.3483055457472801e-03 -1.5832367539405823e-01 -1.1148373596370220e-02 -1.3388961553573608e-01 1.3475871644914150e-02 6.1297197826206684e-03 -1.5682712197303772e-01 -8.2333810627460480e-02 -6.6481539979577065e-03 -9.5140766352415085e-03 1.3737331330776215e-01 1.4003212749958038e-01 -1.3164728879928589e-01 -1.6867646574974060e-01 -4.1502360254526138e-02 -2.8722414746880531e-02 1.3296601176261902e-01 1.3403610885143280e-01 4.3277662247419357e-02 -3.6672957241535187e-02 1.0138023644685745e-01 -8.1715717911720276e-02 -1.5878495573997498e-01 1.6539573669433594e-01 -5.7808492332696915e-02 -3.6767698824405670e-02 -1.3662645220756531e-01 -5.3269509226083755e-02 4.3634623289108276e-02 -7.8098654747009277e-02 -7.8810110688209534e-02 -1.5178012847900391e-01 -1.5218948014080524e-02 1.8958721309900284e-02 7.4736654758453369e-02 -1.1857959628105164e-01 -1.4209410548210144e-01 -1.3807037472724915e-01 -1.5328192710876465e-01 -1.7537462711334229e-01 1.7024146020412445e-01 -1.5351997315883636e-01 1.1170130223035812e-02 -1.5727570652961731e-01 -2.7657544240355492e-02 -1.5192592144012451e-01 1.0157539695501328e-01 -1.0780338943004608e-01 -5.7087935507297516e-02 -4.5126780867576599e-02 1.0531319677829742e-01 1.5702794492244720e-01 -7.7410072088241577e-02 6.7134000360965729e-02 -9.5559589564800262e-02 -1.4133942127227783e-01 3.5290528088808060e-02 -1.1960648000240326e-01 -8.9968508109450340e-03 -7.3200024664402008e-02 -1.6476438939571381e-01 5.5266316980123520e-02 1.3141338527202606e-01 1.4434112608432770e-01 1.0749054700136185e-01 4.3187420815229416e-02 -6.2587462365627289e-02 9.2159621417522430e-02 -1.2215544283390045e-01 2.8074845671653748e-02 6.3728898763656616e-02 -1.0373132675886154e-01 5.7360585778951645e-02 9.0204611420631409e-02 -6.0306139290332794e-02 1.0897541046142578e-01 -1.1764838546514511e-01 5.9424959123134613e-02 -1.1428036540746689e-01 -1.2247486039996147e-02 5.2424866706132889e-02 -3.7558045238256454e-02 -6.2188613228499889e-03 -1.5605388581752777e-01 1.4164564013481140e-01 -1.1002824455499649e-01 1.4132322371006012e-01 -3.9470557123422623e-02 -3.6817081272602081e-02 -1.0572889447212219e-01 1.5706720948219299e-01 5.7419557124376297e-02 -1.4763347804546356e-01 1.6736879944801331e-01 -5.4335430264472961e-02 -1.0801748931407928e-01 2.3082315921783447e-02 2.4344187695533037e-03 3.4912876784801483e-02 5.6854076683521271e-04 -2.8310613706707954e-02 2.8370896354317665e-02 -1.4599731564521790e-01 6.6845290362834930e-02 -1.6114310920238495e-01 -1.7436048388481140e-01 1.6467562317848206e-01 -1.2251756340265274e-01 1.5411554276943207e-01 2.3634120821952820e-02 -1.5654541552066803e-02 -5.9811554849147797e-02 2.2078624460846186e-03 -4.4870559126138687e-02 2.4252533912658691e-03 1.5254150331020355e-01 8.9017927646636963e-02 -3.1628321856260300e-02 2.9705173801630735e-04 -1.7067357897758484e-01 -3.4516680985689163e-02 7.3915824294090271e-02 -8.5761517286300659e-02 2.7291009202599525e-02 -1.0006877779960632e-01 -1.4566523954272270e-02 -4.1759673506021500e-02 1.4635784924030304e-01 -1.3715299963951111e-01 1.4214494824409485e-01 1.4698109030723572e-01 -1.1467458307743073e-01 -2.6417193934321404e-02 8.5303865373134613e-02 1.6659173369407654e-01 -1.7566178739070892e-01 1.7287814617156982e-01 1.0080236196517944e-01 -9.7621306777000427e-02 -7.2397001087665558e-02 -1.5517209470272064e-01 1.6672261699568480e-04 -1.2599305808544159e-01 4.5406449586153030e-02 -1.6702134907245636e-01 -6.6064633429050446e-02 9.4363220036029816e-02 1.5551342070102692e-01 1.0570178925991058e-01 1.4848767220973969e-01 -1.4270164072513580e-01 1.3772982358932495e-01 5.2482601255178452e-02 -3.3208183944225311e-02 -9.6258446574211121e-02 -3.1635839492082596e-02 6.9234274327754974e-02 -6.0020897537469864e-02 -6.8727485835552216e-02 9.3808718025684357e-02 -8.9297339320182800e-02 -1.7691916227340698e-01 7.8767910599708557e-02 8.7564475834369659e-02 1.8080135341733694e-03 2.7241297066211700e-02 7.5265467166900635e-02 -3.7430893629789352e-02 6.5038017928600311e-02 -3.4917104057967663e-03 1.6277320683002472e-01 7.7494785189628601e-02 9.1838493943214417e-02 -1.1676616221666336e-01 -5.7453647255897522e-02 1.6808246076107025e-01 2.6162227615714073e-02 1.5416217967867851e-02 -5.2550576627254486e-02 8.5685610771179199e-02 1.1198524385690689e-01 -6.0035910457372665e-02 -8.2977384328842163e-02 3.9951764047145844e-02 -1.4165837783366442e-03 -2.6362033560872078e-02 1.0111975669860840e-01 5.6718073785305023e-02 7.3899172246456146e-02 1.0102814435958862e-01 -1.6917850077152252e-01 -1.1002869158983231e-01 -1.8102559447288513e-01 -2.3510502651333809e-02 5.5606819689273834e-02 2.3386409506201744e-02 1.7470042407512665e-01 9.4545178115367889e-02 -1.1255103349685669e-01 1.2054631114006042e-01 6.9794833660125732e-02 -1.5931481122970581e-01 -1.2139059603214264e-01 -1.6550378501415253e-01 -1.2619887292385101e-01 -9.2103488743305206e-02 7.6333425939083099e-02 2.9190169647336006e-02 1.5534803271293640e-01 -1.6605935990810394e-01 -6.4864970743656158e-02 -1.2839557230472565e-01 -7.9913291847333312e-04 -1.3656537234783173e-01 -7.8619226813316345e-02 1.6691254451870918e-02 6.8792961537837982e-02 -3.7471547722816467e-02 1.4888116717338562e-01 -1.2524062395095825e-01 -1.0488428175449371e-01 1.5469916164875031e-01 1.6256730258464813e-01 -7.0204272866249084e-02 1.1408727616071701e-01 -5.7778410613536835e-02 -9.3187659978866577e-02 1.3236610591411591e-01 8.1379577517509460e-02 4.7118145972490311e-02 1.5074416995048523e-01 -1.5191487967967987e-01 1.3159237802028656e-01 9.0888887643814087e-02 1.2260482460260391e-01 -1.1853501945734024e-01 -1.7154540121555328e-01 -5.4150369018316269e-02 3.4265302121639252e-02 -9.1547826305031776e-03 -1.0270678997039795e-01 -1.5494729578495026e-01 1.2579265236854553e-01 -1.0758144408464432e-01 -1.0165888071060181e-01 1.0866039246320724e-01 1.1789885163307190e-01 6.5070897340774536e-02 -1.0952938348054886e-01 -3.0304506421089172e-02 9.2905007302761078e-02 7.2061136364936829e-02 1.6638864576816559e-01 1.5652728080749512e-01 -8.0788441002368927e-02 1.6719679534435272e-01 -2.1927323192358017e-02 -7.6538756489753723e-02 -4.7685544937849045e-02 6.3402378000319004e-03 1.1334832012653351e-01 8.7733842432498932e-02 -1.6071298718452454e-01 -2.5538586080074310e-02 -2.1989993751049042e-02 -1.5243042726069689e-03 -1.0917550325393677e-01 -1.1689345538616180e-01 -1.1324809491634369e-01 -1.4833027124404907e-01 1.1770078539848328e-01 -4.5705433934926987e-02 1.0780821740627289e-01 -1.5529736876487732e-02 -6.9946467876434326e-02 -9.7097903490066528e-02 -3.3190477639436722e-02 1.3564787805080414e-01 -1.9467195495963097e-02 1.2638895213603973e-01 6.1772828921675682e-03 -1.7044647037982941e-01 4.5491550117731094e-03 8.2455061376094818e-02 8.0692663788795471e-02 1.2685750424861908e-01 4.1163563728332520e-02 1.0378710180521011e-01 -1.7572647333145142e-01 -6.6308394074440002e-02 1.1405774950981140e-01 -4.5842684805393219e-02 1.7358842492103577e-01 5.7766173034906387e-02 -1.0433476418256760e-01 -1.4412792026996613e-01 -1.6896575689315796e-01 2.1954275667667389e-02 -2.0013360306620598e-02 -3.9530765265226364e-02 -1.0382655262947083e-01 -1.8589103221893311e-01 1.3710348308086395e-01 8.2747541368007660e-02 -3.3653602004051208e-02 -1.3846924528479576e-02 -1.4986091852188110e-01 1.0873103886842728e-01 -8.9840337634086609e-02 9.8113425076007843e-02 -1.7025166749954224e-01 1.4958367682993412e-02 -6.2372314278036356e-04 -1.1444124579429626e-01 -2.4702992290258408e-02 4.0143433958292007e-02 1.8015654385089874e-01 8.6670100688934326e-02 -9.6524469554424286e-02 -1.7283935844898224e-01 1.2560690939426422e-01 1.5686242282390594e-01 2.8650993481278419e-02 5.5972371250391006e-02 1.7246274650096893e-01 1.4010608196258545e-01 5.6321669369935989e-02 1.3747330009937286e-01 1.8387850373983383e-02 8.6087167263031006e-02 1.5139694511890411e-01 -7.2884060442447662e-02 -9.5540508627891541e-03 