<?xml version="1.0"?>
<MethodSetup Method="DNN::DNN_QCD_CWoLa">
  <GeneralInfo>
    <Info name="TMVA Release" value="4.2.1 [262657]"/>
    <Info name="ROOT Release" value="6.12/04 [396292]"/>
    <Info name="Creator" value="viniciusmikuni"/>
    <Info name="Date" value="Sat Feb 17 11:12:15 2018"/>
    <Info name="Host" value="Darwin Viniciuss-MacBook-Pro.local 17.2.0 Darwin Kernel Version 17.2.0: Fri Sep 29 18:27:05 PDT 2017; root:xnu-4570.20.62~3/RELEASE_X86_64 x86_64"/>
    <Info name="Dir" value="/Users/viniciusmikuni/cernbox/CMS/ttbbAnalysis/KinFitter/test/MVA/BDT"/>
    <Info name="Training events" value="361961"/>
    <Info name="TrainingTime" value="9.99204910e+01"/>
    <Info name="AnalysisType" value="Classification"/>
  </GeneralInfo>
  <Options>
    <Option name="V" modified="Yes">True</Option>
    <Option name="VerbosityLevel" modified="No">Verbose</Option>
    <Option name="VarTransform" modified="Yes">None</Option>
    <Option name="H" modified="Yes">False</Option>
    <Option name="CreateMVAPdfs" modified="No">False</Option>
    <Option name="IgnoreNegWeightsInTraining" modified="No">False</Option>
    <Option name="Layout" modified="Yes">RELU|64,RELU|64,RELU|64,SIGMOID</Option>
    <Option name="ValidationSize" modified="No">20%</Option>
    <Option name="ErrorStrategy" modified="Yes">CROSSENTROPY</Option>
    <Option name="WeightInitialization" modified="Yes">XAVIERUNIFORM</Option>
    <Option name="Architecture" modified="Yes">CPU</Option>
    <Option name="TrainingStrategy" modified="Yes">LearningRate=1e-3,Momentum=0.5,Repetitions=1,ConvergenceSteps=10,BatchSize=256,TestRepetitions=10,Regularization=L2,Multithreading=True,WeightDecay=0.001,DropConfig=0.1,DropRepetitions=1</Option>
  </Options>
  <Variables NVar="32">
    <Variable VarIndex="0" Expression="jet_QGL[0]" Label="jet_QGL[0]" Title="jet_QGL[0]" Unit="" Internal="jet_QGL_0_" Type="F" Min="0.00000000e+00" Max="1.00000000e+00"/>
    <Variable VarIndex="1" Expression="jet_QGL[1]" Label="jet_QGL[1]" Title="jet_QGL[1]" Unit="" Internal="jet_QGL_1_" Type="F" Min="0.00000000e+00" Max="1.00000000e+00"/>
    <Variable VarIndex="2" Expression="jet_QGL[2]" Label="jet_QGL[2]" Title="jet_QGL[2]" Unit="" Internal="jet_QGL_2_" Type="F" Min="0.00000000e+00" Max="1.00000000e+00"/>
    <Variable VarIndex="3" Expression="jet_QGL[3]" Label="jet_QGL[3]" Title="jet_QGL[3]" Unit="" Internal="jet_QGL_3_" Type="F" Min="0.00000000e+00" Max="1.00000000e+00"/>
    <Variable VarIndex="4" Expression="jet_QGL[4]" Label="jet_QGL[4]" Title="jet_QGL[4]" Unit="" Internal="jet_QGL_4_" Type="F" Min="0.00000000e+00" Max="1.00000000e+00"/>
    <Variable VarIndex="5" Expression="jet_QGL[5]" Label="jet_QGL[5]" Title="jet_QGL[5]" Unit="" Internal="jet_QGL_5_" Type="F" Min="0.00000000e+00" Max="1.00000000e+00"/>
    <Variable VarIndex="6" Expression="top1_m" Label="top1_m" Title="top1_m" Unit="" Internal="top1_m" Type="F" Min="7.51070786e+01" Max="2.79780457e+02"/>
    <Variable VarIndex="7" Expression="top2_m" Label="top2_m" Title="top2_m" Unit="" Internal="top2_m" Type="F" Min="7.19211426e+01" Max="2.79798737e+02"/>
    <Variable VarIndex="8" Expression="w1_m" Label="w1_m" Title="w1_m" Unit="" Internal="w1_m" Type="F" Min="1.69953861e+01" Max="1.67070221e+02"/>
    <Variable VarIndex="9" Expression="w2_m" Label="w2_m" Title="w2_m" Unit="" Internal="w2_m" Type="F" Min="1.57843485e+01" Max="1.68827057e+02"/>
    <Variable VarIndex="10" Expression="deltaRb1b2" Label="deltaRb1b2" Title="deltaRb1b2" Unit="" Internal="deltaRb1b2" Type="F" Min="0.00000000e+00" Max="5.60265398e+00"/>
    <Variable VarIndex="11" Expression="deltaRb1w1" Label="deltaRb1w1" Title="deltaRb1w1" Unit="" Internal="deltaRb1w1" Type="F" Min="0.00000000e+00" Max="7.88607883e+00"/>
    <Variable VarIndex="12" Expression="deltaRb2w2" Label="deltaRb2w2" Title="deltaRb2w2" Unit="" Internal="deltaRb2w2" Type="F" Min="0.00000000e+00" Max="6.63901615e+00"/>
    <Variable VarIndex="13" Expression="jet_CSV[0]" Label="jet_CSV[0]" Title="jet_CSV[0]" Unit="" Internal="jet_CSV_0_" Type="F" Min="0.00000000e+00" Max="1.00000000e+00"/>
    <Variable VarIndex="14" Expression="jet_CSV[1]" Label="jet_CSV[1]" Title="jet_CSV[1]" Unit="" Internal="jet_CSV_1_" Type="F" Min="0.00000000e+00" Max="1.00000000e+00"/>
    <Variable VarIndex="15" Expression="BDT_Comb" Label="BDT_Comb" Title="BDT_Comb" Unit="" Internal="BDT_Comb" Type="F" Min="-9.98138309e-01" Max="9.83611584e-01"/>
    <Variable VarIndex="16" Expression="jet_MOverPt[0]" Label="jet_MOverPt[0]" Title="jet_MOverPt[0]" Unit="" Internal="jet_MOverPt_0_" Type="F" Min="0.00000000e+00" Max="3.17890525e-01"/>
    <Variable VarIndex="17" Expression="jet_MOverPt[1]" Label="jet_MOverPt[1]" Title="jet_MOverPt[1]" Unit="" Internal="jet_MOverPt_1_" Type="F" Min="0.00000000e+00" Max="3.54456365e-01"/>
    <Variable VarIndex="18" Expression="jet_MOverPt[2]" Label="jet_MOverPt[2]" Title="jet_MOverPt[2]" Unit="" Internal="jet_MOverPt_2_" Type="F" Min="0.00000000e+00" Max="3.19298983e-01"/>
    <Variable VarIndex="19" Expression="jet_MOverPt[3]" Label="jet_MOverPt[3]" Title="jet_MOverPt[3]" Unit="" Internal="jet_MOverPt_3_" Type="F" Min="0.00000000e+00" Max="3.49254757e-01"/>
    <Variable VarIndex="20" Expression="jet_MOverPt[4]" Label="jet_MOverPt[4]" Title="jet_MOverPt[4]" Unit="" Internal="jet_MOverPt_4_" Type="F" Min="0.00000000e+00" Max="3.18262845e-01"/>
    <Variable VarIndex="21" Expression="jet_MOverPt[5]" Label="jet_MOverPt[5]" Title="jet_MOverPt[5]" Unit="" Internal="jet_MOverPt_5_" Type="F" Min="0.00000000e+00" Max="3.31616908e-01"/>
    <Variable VarIndex="22" Expression="ht" Label="ht" Title="ht" Unit="" Internal="ht" Type="F" Min="5.00000854e+02" Max="4.24567383e+03"/>
    <Variable VarIndex="23" Expression="simple_chi2" Label="simple_chi2" Title="simple_chi2" Unit="" Internal="simple_chi2" Type="F" Min="4.12876112e-03" Max="2.84732208e+01"/>
    <Variable VarIndex="24" Expression="meanDeltaRbtag" Label="meanDeltaRbtag" Title="meanDeltaRbtag" Unit="" Internal="meanDeltaRbtag" Type="F" Min="3.83564323e-01" Max="5.63277388e+00"/>
    <Variable VarIndex="25" Expression="mindeltaRb1q" Label="mindeltaRb1q" Title="mindeltaRb1q" Unit="" Internal="mindeltaRb1q" Type="F" Min="0.00000000e+00" Max="3.71813416e+00"/>
    <Variable VarIndex="26" Expression="mindeltaRb2p" Label="mindeltaRb2p" Title="mindeltaRb2p" Unit="" Internal="mindeltaRb2p" Type="F" Min="0.00000000e+00" Max="4.02570629e+00"/>
    <Variable VarIndex="27" Expression="n_jets" Label="n_jets" Title="n_jets" Unit="" Internal="n_jets" Type="I" Min="7.00000000e+00" Max="1.60000000e+01"/>
    <Variable VarIndex="28" Expression="jet_CSV[2]" Label="jet_CSV[2]" Title="jet_CSV[2]" Unit="" Internal="jet_CSV_2_" Type="F" Min="0.00000000e+00" Max="9.99558628e-01"/>
    <Variable VarIndex="29" Expression="jet_CSV[3]" Label="jet_CSV[3]" Title="jet_CSV[3]" Unit="" Internal="jet_CSV_3_" Type="F" Min="0.00000000e+00" Max="9.99536693e-01"/>
    <Variable VarIndex="30" Expression="jet_CSV[4]" Label="jet_CSV[4]" Title="jet_CSV[4]" Unit="" Internal="jet_CSV_4_" Type="F" Min="0.00000000e+00" Max="9.99573112e-01"/>
    <Variable VarIndex="31" Expression="jet_CSV[5]" Label="jet_CSV[5]" Title="jet_CSV[5]" Unit="" Internal="jet_CSV_5_" Type="F" Min="0.00000000e+00" Max="9.99539375e-01"/>
  </Variables>
  <Spectators NSpec="0"/>
  <Classes NClass="2">
    <Class Name="Signal" Index="0"/>
    <Class Name="Background" Index="1"/>
  </Classes>
  <Transformations NTransformations="0"/>
  <MVAPdfs/>
  <Weights InputWidth="32" Depth="4" LossFunction="C" OutputFunction="S">
    <Layer ActivationFunction="1">
      <Weights rows="64" cols="32">
        -5.3930468857288361e-03 -6.0881178826093674e-02 6.9022342562675476e-02 -2.9341205954551697e-03 3.3192992210388184e-02 3.5987328737974167e-02 5.3604763001203537e-02 8.7384015321731567e-02 -1.3951601088047028e-01 -2.9390928149223328e-01 -1.5639573335647583e-01 8.1871107220649719e-02 2.2520793601870537e-02 -3.9581708610057831e-02 -1.3300965726375580e-01 1.3783684372901917e-01 -1.7516072094440460e-01 -1.9218145310878754e-01 1.3799497485160828e-01 2.9733732342720032e-02 -1.3769686222076416e-01 -1.5961496159434319e-02 4.3084703385829926e-02 1.3490874320268631e-02 -1.1197765916585922e-01 -9.2918634414672852e-02 1.1709102243185043e-01 -1.8629208207130432e-01 4.6732913702726364e-02 2.3701835423707962e-02 1.9421947002410889e-01 -2.0390088856220245e-01 1.4078116975724697e-02 -1.0135957598686218e-01 -3.5973104834556580e-01 -3.3924159407615662e-01 -3.4640160202980042e-01 -1.0240917094051838e-02 1.1663290858268738e-01 -9.2413800302892923e-04 9.5664910972118378e-02 -9.5591209828853607e-02 2.9689589515328407e-02 1.5550981462001801e-01 -4.3156627565622330e-02 1.6534079611301422e-01 7.4726998805999756e-02 -9.6042878925800323e-02 1.1690814048051834e-01 7.8835507156327367e-04 -1.1643223464488983e-01 -3.7028525024652481e-02 -2.3375371471047401e-02 -7.1544110774993896e-02 7.7966330572962761e-03 3.4761451184749603e-02 -3.2464180141687393e-02 1.8860849738121033e-01 -1.5014563687145710e-02 1.5912412106990814e-01 4.2651079595088959e-02 3.9334610104560852e-02 -1.2025608681142330e-02 1.0537452250719070e-01 -2.0472374558448792e-01 2.0732328295707703e-01 -7.0448286831378937e-02 7.9519063234329224e-02 -1.6920427978038788e-01 -1.7397132515907288e-01 -2.2460244596004486e-01 1.5044921636581421e-01 3.2886259257793427e-02 -9.6830148249864578e-03 1.9362698495388031e-01 6.9117024540901184e-02 1.5563032031059265e-01 -1.9280983507633209e-01 1.4327406883239746e-01 -1.0505548864603043e-01 -1.1704113334417343e-01 -1.5703631937503815e-01 2.0738573372364044e-01 1.3195879757404327e-01 1.2337981164455414e-01 -6.8023346364498138e-02 -1.9489666819572449e-01 1.6963674128055573e-01 1.0906782001256943e-01 -1.0098068416118622e-01 9.6958592534065247e-02 -1.6445264220237732e-01 1.5060995519161224e-01 -4.1180406697094440e-03 -5.7719070464372635e-02 -3.1830489635467529e-02 -1.3596160709857941e-01 -1.2548416852951050e-01 1.2407653033733368e-01 -6.9231122732162476e-02 -9.6517011523246765e-02 -1.9646266102790833e-01 -2.0464893896132708e-03 -1.0324696451425552e-01 -2.0641986280679703e-02 9.0650923550128937e-02 8.9387893676757812e-02 -4.0259983390569687e-02 -6.5712638199329376e-02 -9.7481369972229004e-02 2.0856064558029175e-01 1.0161288827657700e-01 3.5657554399222136e-03 -2.0351552963256836e-01 -5.0142373889684677e-02 -2.0343075692653656e-01 -6.6237904131412506e-02 -2.8472740203142166e-02 -1.0536582767963409e-01 3.7409551441669464e-03 1.8018230795860291e-01 -1.9408074021339417e-01 -4.2361434549093246e-02 7.7191621065139771e-02 -1.4959311485290527e-01 -1.3176426291465759e-01 -1.2885315716266632e-01 -1.4529940485954285e-01 3.8425553590059280e-02 -1.3085265457630157e-01 -8.4222704172134399e-02 -1.2856644392013550e-01 1.2366257607936859e-01 -6.7917193518951535e-04 -2.0084008574485779e-01 -5.3836934268474579e-02 -1.4814159274101257e-01 -4.4702731072902679e-02 5.0224665552377701e-02 -6.5512441098690033e-02 1.9588671624660492e-01 1.7794075608253479e-01 7.4709646403789520e-02 -2.4154776707291603e-02 -4.1185989975929260e-02 2.2666191682219505e-02 1.6067488491535187e-01 -1.4357958734035492e-01 -1.0722147673368454e-01 -1.1059423536062241e-01 -8.9496418833732605e-02 -1.7826323211193085e-01 3.0535347759723663e-02 -5.4645095020532608e-02 -2.9022689908742905e-02 -4.2440779507160187e-02 -8.2754239439964294e-02 -3.4993413835763931e-02 -4.4885773211717606e-02 5.5473044514656067e-02 -4.3774474412202835e-02 1.3616252690553665e-02 -1.5534342825412750e-01 2.6610041968524456e-03 2.0491208136081696e-01 -1.7726972699165344e-01 -1.4758846163749695e-01 1.0741379112005234e-01 -1.5886697173118591e-01 -7.8537903726100922e-02 1.9649067521095276e-01 1.5754511952400208e-01 -1.0361859202384949e-01 -1.2878677248954773e-01 -7.4796237051486969e-02 -6.5779775381088257e-02 -4.5951146632432938e-02 -1.2868532212451100e-03 1.7629576846957207e-02 1.6123959794640541e-02 1.7811092734336853e-01 -1.0208042711019516e-01 -1.2370584905147552e-01 1.5348298847675323e-01 2.0157888531684875e-01 9.1414853930473328e-02 -6.2143966555595398e-02 -1.3001614809036255e-01 -2.2117959335446358e-02 1.1703830957412720e-01 -4.6297136694192886e-02 -1.4066697657108307e-01 -4.4220559298992157e-02 -1.5397745370864868e-01 -1.9570437073707581e-01 -3.7403514143079519e-03 -1.1134827882051468e-01 -1.8433257937431335e-01 -5.6122969835996628e-03 1.7453823238611221e-03 -1.6509568085893989e-03 5.4374020546674728e-02 2.2238900884985924e-02 -8.0250008031725883e-03 1.8649542331695557e-01 -1.6872245073318481e-01 -7.5049579143524170e-02 -2.1798861026763916e-01 7.9873196780681610e-02 1.8193240463733673e-01 1.5163345634937286e-01 2.4630332365632057e-02 -1.8753124773502350e-01 1.4961372315883636e-01 -1.9755630195140839e-01 7.5049199163913727e-02 -1.3296471536159515e-01 1.6952316462993622e-01 -1.3540424406528473e-01 -1.7418083548545837e-01 1.6951717436313629e-01 8.9718803763389587e-02 3.3028468489646912e-02 5.3086508065462112e-02 -6.2460590153932571e-02 -5.7374004274606705e-02 7.7486364170908928e-03 2.6306244730949402e-01 1.9103930890560150e-01 -8.1720151007175446e-02 -9.3080848455429077e-02 -1.5896736085414886e-01 -5.2686598151922226e-02 1.7354810237884521e-01 4.1361101903021336e-03 1.0156927257776260e-01 1.2680028378963470e-01 -1.4372211880981922e-02 -1.5509647130966187e-01 1.4825987815856934e-01 -1.2118557095527649e-01 -9.0322218835353851e-02 1.0690255463123322e-01 5.9657804667949677e-02 -3.4215729683637619e-02 -1.3219164311885834e-01 8.1520296633243561e-02 -1.9989655911922455e-01 1.8166877329349518e-01 -2.0500846207141876e-01 -1.0674972087144852e-01 -1.1434818804264069e-01 -1.2609486281871796e-01 -1.2762622209265828e-03 -8.4227442741394043e-02 6.6120922565460205e-03 -1.1635196208953857e-01 5.5017087608575821e-02 2.7986118569970131e-02 -1.8962171673774719e-01 -2.0028513669967651e-01 1.9749668240547180e-01 -4.0718019008636475e-02 -1.2231661379337311e-01 1.5370918810367584e-01 1.8127467483282089e-02 3.7178847938776016e-02 -4.5265659689903259e-02 -9.6342504024505615e-02 2.0726124942302704e-01 1.8526512384414673e-01 -1.4722977578639984e-01 5.4783653467893600e-02 -6.1660941690206528e-02 1.0306264460086823e-01 -2.2181497886776924e-02 -1.2199426442384720e-01 -5.7680275291204453e-02 -7.0045784115791321e-02 -9.5778122544288635e-02 3.0095160007476807e-02 4.1178941726684570e-02 7.8688956797122955e-02 1.3690970838069916e-01 -1.5547622740268707e-01 -9.6148841083049774e-02 1.7450302839279175e-01 1.7007531225681305e-01 -1.0074433684349060e-01 -1.9406209886074066e-01 -2.0183806121349335e-01 -1.2213325826451182e-03 -4.0454775094985962e-02 8.6751282215118408e-02 -1.8015155196189880e-01 -4.9054522067308426e-02 9.5405854284763336e-02 -1.3772101700305939e-01 1.9222582876682281e-01 -1.5998554229736328e-01 5.2125998772680759e-03 -9.1782167553901672e-02 -1.2564630806446075e-01 8.4165357053279877e-02 -8.4110610187053680e-02 -1.0807937383651733e-01 7.4483148753643036e-02 3.3795319497585297e-02 6.3233874738216400e-02 -1.1974380165338516e-01 4.9899999052286148e-02 5.5650074034929276e-02 -4.3797656893730164e-02 -1.4246469363570213e-02 1.0770980268716812e-01 -1.2240470200777054e-01 5.9272266924381256e-02 2.0201955735683441e-01 8.6483523249626160e-02 -1.4905507676303387e-02 -2.4839492142200470e-01 8.1441752612590790e-02 -3.3969300985336304e-01 -4.5296987891197205e-01 -3.8852518796920776e-01 -4.2223462462425232e-01 5.8435738086700439e-02 1.3014113903045654e-01 5.5664960294961929e-02 -2.3415088653564453e-01 -9.0107969939708710e-02 1.5230754017829895e-01 -6.9918140769004822e-02 7.3519609868526459e-02 -1.8557175993919373e-01 -2.1954233944416046e-01 -7.0413127541542053e-02 -2.3722907528281212e-02 2.1120993793010712e-01 1.5798598527908325e-01 -6.1556845903396606e-02 1.8266707658767700e-02 5.5306754074990749e-03 -1.9176695495843887e-02 -1.3772360980510712e-01 1.4036603271961212e-01 -1.5106153674423695e-02 1.5894421935081482e-01 2.0373509824275970e-01 -1.0807833634316921e-02 1.9720511138439178e-01 -1.6748979687690735e-02 -2.9828907921910286e-02 1.0354255884885788e-01 1.8707904219627380e-01 1.7193438112735748e-01 1.7287614941596985e-01 3.6599683761596680e-01 6.8392492830753326e-02 -3.3289290964603424e-02 2.0482468605041504e-01 -1.1507529020309448e-01 -5.5320543469861150e-04 -4.3209016323089600e-02 -2.3177674412727356e-01 -1.6090035438537598e-02 -1.6743549704551697e-01 2.0486539602279663e-01 -3.0606865882873535e-02 7.5511217117309570e-02 -7.4530996382236481e-02 -2.2027979791164398e-01 1.2691710889339447e-01 7.9458430409431458e-02 1.5464081428945065e-02 6.3593849539756775e-02 1.2376193702220917e-01 -1.7825050652027130e-01 9.2308826744556427e-02 -2.2395372390747070e-01 -2.6109581813216209e-02 -6.4736694097518921e-02 1.3824298977851868e-01 9.6191264688968658e-02 1.9678759574890137e-01 2.3989306762814522e-02 4.5896012336015701e-02 2.2431266307830811e-01 1.5053972601890564e-01 1.6017359495162964e-01 -3.5494986921548843e-02 7.6426103711128235e-02 1.4352074824273586e-02 6.2220461666584015e-02 -5.1528006792068481e-02 -2.1581792831420898e-01 -1.7119766771793365e-01 7.1035690605640411e-02 -1.5314668416976929e-01 2.3086872696876526e-01 -1.0822991281747818e-01 -1.1739779263734818e-01 -1.0706645250320435e-01 -1.7293865978717804e-01 -9.8002612590789795e-02 -5.9503715485334396e-02 7.8746015205979347e-03 -6.2612234614789486e-03 -1.0063097625970840e-01 -1.1183637380599976e-01 1.4718532562255859e-01 -8.3134640008211136e-03 1.2773983180522919e-01 -1.4276157319545746e-01 5.7569954544305801e-02 1.0655993968248367e-01 1.2261453270912170e-01 7.2981268167495728e-02 8.7090373039245605e-02 1.4113003015518188e-01 1.0279386490583420e-01 -2.1082790568470955e-02 -9.9327035248279572e-02 6.0910090804100037e-02 1.0947772115468979e-01 -1.3272660970687866e-01 1.6030433773994446e-01 8.4065094590187073e-02 1.1204078793525696e-01 -1.0960886627435684e-01 2.2757628466933966e-03 5.0392687320709229e-02 1.9479227066040039e-01 4.6554305590689182e-03 -2.6126481592655182e-02 -1.4190933108329773e-01 1.2514099478721619e-01 8.2236416637897491e-02 6.7454222589731216e-03 -1.6799135506153107e-01 9.5275148749351501e-02 -1.8289374187588692e-02 1.8346993625164032e-01 -2.0214311778545380e-01 1.6103148460388184e-01 -1.0913897305727005e-01 4.4479514472186565e-03 2.9235556721687317e-02 7.9230859875679016e-02 1.6140818595886230e-01 -1.0066880285739899e-01 1.8820153176784515e-01 1.4989541377872229e-03 1.3346289098262787e-01 1.4166494831442833e-02 7.3933117091655731e-02 -4.0315970778465271e-02 -6.4348861575126648e-02 -1.2343057431280613e-02 1.0004048794507980e-01 -8.4848530590534210e-02 1.8131798505783081e-01 -2.1183984354138374e-02 -4.2424306273460388e-02 1.6398191452026367e-02 -5.1717225462198257e-02 -1.7061679065227509e-01 -9.3261480331420898e-02 1.0192507505416870e-01 1.0681205987930298e-01 7.0988945662975311e-02 -1.6076283156871796e-01 2.1961921453475952e-01 -1.0452292114496231e-01 4.9954339861869812e-02 -1.1304523050785065e-01 8.7800875306129456e-02 1.0866093635559082e-01 2.5135545060038567e-02 1.2891449034214020e-01 4.6158839017152786e-02 -2.1798180043697357e-01 -7.1875035762786865e-02 -3.7574579473584890e-03 -5.7403683662414551e-02 -2.4532249569892883e-01 -1.0873194038867950e-01 8.3074316382408142e-02 8.5047166794538498e-04 1.0344062745571136e-01 -1.2189383059740067e-01 1.5137795358896255e-02 6.9016307592391968e-02 -6.1998803168535233e-02 1.7947287857532501e-01 3.3258628100156784e-02 7.9306840896606445e-02 -1.9152720272541046e-01 -1.9379566609859467e-01 1.1090050637722015e-01 1.3470727205276489e-01 3.6922924220561981e-02 3.8564302027225494e-02 2.5156790018081665e-01 -2.5640386156737804e-03 4.2048949748277664e-02 -8.1448078155517578e-02 -1.0986305773258209e-01 6.4704403281211853e-02 1.1799535155296326e-01 1.8994048237800598e-01 9.1276898980140686e-02 -2.0680773258209229e-01 2.5753855705261230e-02 -2.4618001654744148e-02 1.8026867508888245e-01 -1.0981623083353043e-02 1.3998523354530334e-01 1.3909168541431427e-01 -1.2555430829524994e-01 1.5902790427207947e-01 -3.5861879587173462e-02 -2.5356989353895187e-02 -5.7742055505514145e-02 -4.1986018419265747e-02 2.0278361439704895e-01 -1.1268687993288040e-01 8.0854296684265137e-03 1.0732328146696091e-01 2.0326997339725494e-01 -7.0138610899448395e-02 1.4031325280666351e-01 1.0248951613903046e-01 1.5096542239189148e-01 -1.1532910168170929e-01 -1.7510825395584106e-01 1.1894633993506432e-02 5.9312958270311356e-02 -2.7595546096563339e-02 8.1281274557113647e-02 -1.5364976227283478e-01 -1.4710965752601624e-01 8.9069120585918427e-02 -1.6425228118896484e-01 -2.7356579899787903e-02 -1.1903493851423264e-01 1.7238755524158478e-01 -1.8354119360446930e-01 -1.7267617583274841e-01 8.2709938287734985e-02 1.3141691684722900e-02 -1.6806250810623169e-01 1.9564454257488251e-01 1.1436486989259720e-01 -1.5481795370578766e-01 1.4217977225780487e-01 1.2623806297779083e-01 -1.6853521764278412e-01 -7.2721943259239197e-02 1.8700051307678223e-01 1.6156058013439178e-01 -1.6353958845138550e-01 8.0157414078712463e-02 1.9233791530132294e-01 5.0334837287664413e-02 -9.6011936664581299e-02 3.5560317337512970e-02 -2.2290998697280884e-01 1.8375483155250549e-01 -2.0528215169906616e-01 -1.0247853398323059e-01 1.5491645038127899e-01 1.7675532400608063e-01 3.9361953735351562e-02 1.7414262890815735e-01 -3.8448393344879150e-02 -1.3112612068653107e-01 1.5162324905395508e-01 -3.7513998150825500e-01 -2.6559430360794067e-01 -2.9287391901016235e-01 2.6156004518270493e-02 -6.1154738068580627e-02 -2.8917472809553146e-02 -4.5521065592765808e-02 6.2010657042264938e-02 4.9615636467933655e-02 5.3912207484245300e-02 -5.1984023302793503e-02 1.2292134761810303e-01 -1.4372052252292633e-01 -1.1818704754114151e-01 1.8288595974445343e-01 5.8496765792369843e-02 -8.7699420750141144e-02 8.3448611199855804e-02 1.1128763854503632e-01 -6.7900232970714569e-02 2.8467748314142227e-02 2.0189885795116425e-01 -9.0891525149345398e-02 6.0683384537696838e-02 2.0993564277887344e-02 2.0259225368499756e-01 2.1585080027580261e-01 8.3153605461120605e-02 4.0198564529418945e-02 5.9008724987506866e-02 1.7709180712699890e-01 -1.3230498135089874e-01 1.6525080800056458e-01 -1.6160719096660614e-01 -3.6412250250577927e-02 -1.7251159250736237e-01 -1.4022029936313629e-02 -2.0192745327949524e-01 9.8463356494903564e-02 -1.7861425876617432e-01 1.3415205478668213e-01 -1.1140948534011841e-01 -8.2981891930103302e-02 -1.3143041729927063e-01 1.8650887906551361e-01 2.3127591237425804e-02 -3.8801353424787521e-02 -1.6922937333583832e-01 3.7270825356245041e-02 1.4643777161836624e-02 1.9616050645709038e-02 -9.8725602030754089e-02 3.8275182247161865e-02 1.6481484472751617e-01 -1.3841456174850464e-01 1.1097927391529083e-01 -1.7889456450939178e-01 1.9293108582496643e-01 -1.0595559142529964e-02 1.3624954223632812e-01 7.8979223966598511e-02 -4.6681527048349380e-02 -1.4006350934505463e-01 6.7928649485111237e-02 1.1761512607336044e-01 -3.1523503363132477e-02 -7.7640317380428314e-02 -2.6170985773205757e-02 -1.6295945644378662e-01 -9.5613069832324982e-02 -1.6327729821205139e-01 7.3133818805217743e-02 -2.0525576174259186e-01 5.7724040001630783e-02 6.7028053104877472e-02 2.0163284242153168e-01 -7.4100652709603310e-03 -1.7078807950019836e-01 4.8268415033817291e-02 -3.6301530897617340e-02 1.0865318030118942e-01 -9.7348108887672424e-02 1.1495026201009750e-01 -7.6532654464244843e-02 -8.8799074292182922e-02 3.2611124217510223e-02 -1.9999746233224869e-02 -1.9395707547664642e-01 4.9808572977781296e-02 -1.0147197172045708e-02 1.1387713253498077e-01 -9.7814649343490601e-02 -1.2691283226013184e-01 1.5721425414085388e-01 6.5488986670970917e-02 -2.1542763337492943e-02 -2.1562751382589340e-02 1.4599382877349854e-01 7.4379168450832367e-02 -1.9977864623069763e-01 -1.1542346328496933e-01 -1.4687573909759521e-01 1.5847895294427872e-02 1.5890173614025116e-01 2.0179186761379242e-01 7.7294401824474335e-02 -5.7782210409641266e-02 1.6641680896282196e-01 1.0690037906169891e-01 2.1504491567611694e-02 1.7514890059828758e-02 1.3853062689304352e-01 -8.3693504333496094e-02 6.5459802746772766e-02 -6.4321666955947876e-02 -1.0420391336083412e-02 -1.9388956949114799e-02 4.2222134768962860e-02 -2.0782639086246490e-01 -4.3465271592140198e-02 -1.4710907638072968e-01 1.5110573172569275e-01 -3.6534245591610670e-03 -1.6729815304279327e-01 -1.9780634343624115e-01 1.6483326256275177e-01 8.7948173284530640e-02 1.8085832893848419e-01 -2.0871028304100037e-01 -1.5897898375988007e-01 -3.5568866878747940e-02 6.5549902617931366e-02 1.1820188909769058e-01 -1.2279598414897919e-01 7.8185848891735077e-02 -3.2306093722581863e-02 2.0565448701381683e-01 -4.9694620072841644e-02 5.6203644722700119e-02 -2.8924064710736275e-02 6.5204307436943054e-02 -2.3746223747730255e-01 1.6728514432907104e-01 1.8620350956916809e-01 -1.1889372020959854e-01 4.2359191924333572e-02 -3.6214292049407959e-02 4.2151123285293579e-02 6.6833985038101673e-03 -4.1438139975070953e-02 -8.0589979887008667e-02 -1.4588330686092377e-01 -1.4169815182685852e-01 7.2960056364536285e-02 -1.6388144344091415e-02 -9.6258901059627533e-02 -1.7541222274303436e-01 1.4058797061443329e-01 1.8354231491684914e-02 1.9561120867729187e-01 8.5732601583003998e-02 2.1882763132452965e-02 -1.1373241990804672e-01 7.4454187415540218e-03 -1.9338788092136383e-01 3.5493224859237671e-02 1.4830218255519867e-01 1.5552265942096710e-01 1.1640659719705582e-01 9.5658153295516968e-02 1.4321953058242798e-01 2.0462162792682648e-01 -1.5512588620185852e-01 -1.0583160817623138e-01 -1.6462019085884094e-01 7.2849847376346588e-02 1.8129096925258636e-01 -1.9104555249214172e-01 -8.2870781421661377e-02 -6.1037518084049225e-02 7.4791093356907368e-04 8.8168494403362274e-02 7.6540008187294006e-02 1.8069824576377869e-01 2.6173841208219528e-02 -1.5223247930407524e-02 8.2136012613773346e-02 1.8460929393768311e-02 -1.2880578637123108e-01 7.0983186364173889e-02 1.2959682941436768e-01 3.3944193273782730e-02 -1.2416966259479523e-01 1.3667060434818268e-01 -1.2979644536972046e-01 1.5196935832500458e-01 1.4451029896736145e-01 -8.6013980209827423e-02 -1.1867461353540421e-01 1.8181197345256805e-01 -1.0293825762346387e-03 2.0897580683231354e-01 8.4086216986179352e-02 8.9726150035858154e-02 1.8848104774951935e-01 -1.2406534515321255e-02 -7.5835086405277252e-02 -8.0208048224449158e-02 -3.0147055163979530e-02 -1.7297825217247009e-01 5.3030796349048615e-02 -8.1079639494419098e-02 -1.0771197825670242e-01 -5.3382303565740585e-02 2.0387481153011322e-01 9.8499409854412079e-02 1.3571710884571075e-01 -1.8355901539325714e-01 -4.7486387193202972e-03 2.7596874162554741e-02 -1.1875941604375839e-01 2.0455223321914673e-01 2.0711295306682587e-01 -1.2338732182979584e-01 -6.2502197921276093e-02 1.9933748245239258e-01 1.5472733974456787e-01 -1.8203780055046082e-01 -1.6447316110134125e-01 -1.2003282457590103e-01 -3.2647252082824707e-02 -1.5210700035095215e-01 1.5540264546871185e-01 -4.1170485317707062e-02 -1.5602289140224457e-01 8.7360613048076630e-02 1.8397407233715057e-01 -1.1177477426826954e-02 -3.6885708570480347e-02 -1.1261628940701485e-02 -1.6263523697853088e-01 1.6986979544162750e-01 -1.2480405718088150e-01 1.4628539979457855e-01 -9.8775280639529228e-03 -8.7590597569942474e-02 1.8245688080787659e-01 1.7792721092700958e-01 1.5676866471767426e-01 -1.2841987609863281e-01 -7.8169614076614380e-02 1.2337845563888550e-01 1.8834877014160156e-01 1.8955877423286438e-01 4.5337513089179993e-02 1.2692357599735260e-01 1.4570392668247223e-01 2.2203435003757477e-01 2.7913978695869446e-01 3.2208320498466492e-01 6.5432779490947723e-02 6.8239316344261169e-02 -1.2128873914480209e-01 -2.5061404332518578e-02 1.8098443746566772e-01 -9.7167901694774628e-02 -2.1706007421016693e-01 1.4275790750980377e-01 2.0413775742053986e-01 3.0699381232261658e-01 1.8046493828296661e-01 -1.6582816839218140e-01 1.1133577674627304e-01 7.9155944287776947e-02 -2.2681289911270142e-01 -1.5322488546371460e-01 9.3634463846683502e-03 -8.7613865733146667e-02 2.0324797928333282e-01 -1.6849772632122040e-01 -2.3847824335098267e-01 9.2280283570289612e-02 1.3516364991664886e-01 1.4714866876602173e-02 -1.5711194276809692e-01 -7.2235532104969025e-02 2.0287582278251648e-01 -1.4545194804668427e-01 8.3015762269496918e-02 2.5762869045138359e-02 -1.5048210322856903e-01 1.4009864628314972e-01 1.9587444141507149e-02 -2.1785530447959900e-01 1.3324408233165741e-01 -5.2678510546684265e-03 -1.9591391086578369e-02 -1.2301538884639740e-01 -2.0872181653976440e-01 1.3628454506397247e-01 4.2645450681447983e-02 6.4390450716018677e-02 -9.7177691757678986e-02 3.1264338642358780e-02 1.7715768516063690e-01 1.8794214725494385e-01 -7.7776737511157990e-02 -4.2075231671333313e-02 6.0617979615926743e-02 1.2092110514640808e-01 -1.8801838159561157e-01 -4.0783669799566269e-02 -1.6520145535469055e-01 1.8539245426654816e-01 -1.8818168342113495e-01 2.0033125579357147e-01 2.8240110725164413e-02 -5.1660034805536270e-03 -1.5255834162235260e-01 -2.3724471032619476e-01 -2.4186140298843384e-01 -2.2016623616218567e-01 -4.9472272396087646e-01 -2.9903355240821838e-01 7.5517438352108002e-02 -3.3300995826721191e-02 1.2695410847663879e-01 -3.8224488496780396e-02 -6.9628261029720306e-02 7.0769466459751129e-02 4.1158562526106834e-03 -1.1145774275064468e-01 5.2585370838642120e-02 -1.8752573430538177e-01 -4.6526845544576645e-02 4.4050739961676300e-04 -9.0984091162681580e-02 2.2734674811363220e-01 5.1047038286924362e-02 -1.6051325947046280e-02 1.4886016957461834e-02 1.8067766726016998e-01 -1.9964385032653809e-01 -1.5623433887958527e-01 3.4621942788362503e-02 7.5098320841789246e-02 -1.8340508639812469e-01 -1.6270810365676880e-01 1.7584794759750366e-01 -5.4097037762403488e-02 1.6717094182968140e-01 -1.0180774331092834e-01 -6.2730222940444946e-02 -1.9817650318145752e-01 1.2140449136495590e-01 -9.1866433620452881e-02 8.0586090683937073e-02 1.0108374059200287e-01 3.3938584383577108e-03 6.0755055397748947e-02 -1.5767756104469299e-01 -1.3783442974090576e-01 1.5221337974071503e-01 2.6472786441445351e-02 1.9488468766212463e-01 2.3106096312403679e-02 2.0193961262702942e-01 1.3850715756416321e-01 2.0548389852046967e-01 -4.4448204338550568e-02 -2.9742317274212837e-02 1.8853761255741119e-01 -5.2311643958091736e-02 1.2716342695057392e-02 8.3459101617336273e-02 1.6485741734504700e-01 1.4552596211433411e-01 -1.9615420699119568e-01 -1.5454205870628357e-01 9.7600325942039490e-02 1.2654814124107361e-01 3.3457230310887098e-03 1.1315719783306122e-01 1.7392656207084656e-01 -7.8067876398563385e-02 4.2662817984819412e-02 -8.0930195748806000e-02 -1.1547330021858215e-01 9.4654243439435959e-03 -1.7330309748649597e-01 -1.9833534955978394e-01 5.5347770452499390e-02 1.7577195167541504e-01 5.1865082234144211e-02 4.6546175144612789e-03 -2.0149499177932739e-01 -2.0218619704246521e-01 1.4614968001842499e-01 3.8587063550949097e-02 1.9739682972431183e-01 1.9997349381446838e-01 1.2221562862396240e-01 1.2688997387886047e-01 6.0745947062969208e-02 -1.0840214043855667e-01 -8.3275981247425079e-02 -1.7182655632495880e-01 1.6081561148166656e-01 -1.3072343543171883e-02 9.7609534859657288e-03 1.8476180732250214e-01 3.5291392356157303e-02 1.8432898819446564e-01 -1.8279360234737396e-01 1.4401629567146301e-01 3.9322085678577423e-02 2.1713277697563171e-01 2.7904877066612244e-01 1.2577572464942932e-01 1.8963000178337097e-01 7.2055160999298096e-02 -1.4979965053498745e-02 -2.1288160234689713e-02 1.7921622097492218e-01 -1.5949361026287079e-01 1.2290490418672562e-01 -3.3024478703737259e-02 8.9862197637557983e-02 4.6842014417052269e-03 1.6223976016044617e-01 -5.9697892516851425e-02 3.2486140727996826e-02 -5.1478795707225800e-02 1.6654118895530701e-01 1.1609306186437607e-01 1.7038920521736145e-01 -3.6557182669639587e-02 1.2944552302360535e-01 -1.0014018416404724e-01 -2.7887063100934029e-02 -2.0232608914375305e-01 -2.8408445417881012e-02 -1.0805055499076843e-01 -1.3594074547290802e-01 1.6881059110164642e-01 1.0688233375549316e-01 -5.7048272341489792e-02 1.9597274065017700e-01 6.4941816031932831e-02 5.8271128684282303e-02 -1.4690995216369629e-02 1.8537676334381104e-01 -7.5088709592819214e-02 -1.8767420202493668e-02 1.5172631479799747e-02 3.3598039299249649e-03 1.0051033645868301e-01 6.1015203595161438e-02 -1.1985275149345398e-01 4.8922378569841385e-02 1.8012508749961853e-01 -1.5160357952117920e-01 -1.1962321400642395e-01 8.7085925042629242e-02 1.9277895987033844e-01 4.8461541533470154e-02 1.1536485701799393e-01 -1.5973357856273651e-01 -9.9312625825405121e-02 -8.2848533987998962e-02 1.3636875152587891e-01 -7.2351157665252686e-02 1.3814762234687805e-01 -9.8290354013442993e-02 -1.6991627216339111e-01 1.6661386191844940e-01 -7.4982672929763794e-02 1.7645473778247833e-01 1.9090899825096130e-01 -1.4765379019081593e-02 8.3136916160583496e-02 1.9162769615650177e-01 2.1908611059188843e-01 1.0318148881196976e-02 1.2291519343852997e-01 -1.8395349383354187e-01 -1.7859894037246704e-01 2.3902332782745361e-01 -1.4431703090667725e-01 -1.5672680735588074e-01 -1.1390873789787292e-01 1.7310658469796181e-02 2.0866952836513519e-01 1.8678912520408630e-01 9.6765555441379547e-02 8.1759825348854065e-02 1.1512449383735657e-01 1.0813984274864197e-01 -1.1074849963188171e-01 -8.4264360368251801e-02 6.4501106739044189e-02 6.3966542482376099e-02 -5.6459028273820877e-02 4.2343910783529282e-02 -7.1379691362380981e-02 5.5452482774853706e-03 6.3013389706611633e-02 1.8759997189044952e-01 7.6307155191898346e-02 -1.1038227006793022e-02 -1.3146060705184937e-01 -5.3864046931266785e-02 -3.4700959920883179e-01 -2.4323920905590057e-01 -3.1719166040420532e-01 9.8104393109679222e-03 1.2165435403585434e-01 1.1282018572092056e-01 -1.8797972798347473e-01 1.8221881985664368e-01 -1.2705975770950317e-01 -9.4287497922778130e-03 4.8616513609886169e-02 -1.9026079773902893e-01 -1.8572331964969635e-01 7.8208804130554199e-02 -8.3826266229152679e-02 -8.4463253617286682e-02 2.6008356362581253e-02 -2.1218523383140564e-02 -1.9093491137027740e-01 1.8156649544835091e-02 -2.8612101450562477e-02 2.7959479019045830e-02 1.1406484246253967e-01 9.1466501355171204e-02 1.6592924296855927e-01 2.0355646312236786e-01 -1.9140901044011116e-02 -3.0507205054163933e-02 2.5743653997778893e-02 1.8386925756931305e-01 -8.8751144707202911e-02 1.6898579895496368e-01 7.5756587088108063e-02 -1.6859704256057739e-01 -7.6491236686706543e-02 -2.6890160515904427e-02 -1.4856356382369995e-01 3.8506105542182922e-02 1.2522447109222412e-01 4.3876323848962784e-02 -1.0066148638725281e-01 9.7046181559562683e-02 -1.7925374209880829e-01 9.3740910291671753e-02 1.4358946681022644e-01 -9.5671251416206360e-02 1.6850906610488892e-01 7.7127483673393726e-03 -1.0248634219169617e-01 6.1448514461517334e-02 -1.9470298290252686e-01 1.0753634385764599e-02 3.2004557549953461e-02 2.0463927090167999e-01 -1.1880479753017426e-01 -4.8154763877391815e-02 1.3392548263072968e-01 -1.0385744273662567e-01 -1.7884191870689392e-01 -1.2723574042320251e-01 -5.5544443428516388e-02 -3.8573455065488815e-02 1.1667850427329540e-02 -1.2070351839065552e-01 2.4232259392738342e-01 2.9140639305114746e-01 3.3647403120994568e-01 4.2983525991439819e-01 -1.2852455675601959e-01 1.0972165316343307e-01 2.0876458287239075e-01 -6.1808098107576370e-03 -1.3855051994323730e-01 -1.2023808807134628e-01 -2.4039784073829651e-01 1.6635365784168243e-01 1.1879602819681168e-01 1.2836058437824249e-01 -6.7762583494186401e-02 1.1586117744445801e-01 -1.5721512958407402e-02 3.9109952747821808e-02 -1.6692932695150375e-02 -2.2837537527084351e-01 2.6587620377540588e-02 -1.5099859237670898e-01 -1.2055767327547073e-01 9.7291544079780579e-02 -1.2644544243812561e-01 -1.3823132216930389e-01 -3.9434932172298431e-02 -2.0411753654479980e-01 3.4098982810974121e-02 3.3668451011180878e-02 -7.8623376786708832e-02 -3.4956354647874832e-02 -1.7884750664234161e-01 -6.8231811746954918e-03 -3.5368716716766357e-01 -6.9594807922840118e-02 8.1193365156650543e-02 1.1704549193382263e-01 3.3956579864025116e-02 -1.6724184155464172e-01 -1.1288946121931076e-01 1.8234733492136002e-02 -1.1915735155344009e-01 4.5884288847446442e-02 -2.1805325150489807e-01 -2.6946997642517090e-01 -1.3301295042037964e-01 1.6531109809875488e-01 -3.3725734800100327e-02 1.1203685402870178e-01 1.8754445016384125e-01 1.2297677807509899e-02 -2.7670754119753838e-02 -1.1826899647712708e-01 7.7448315918445587e-02 -6.2360614538192749e-02 1.8733677268028259e-01 1.9101022183895111e-01 7.9585656523704529e-02 9.0805245563387871e-03 9.6989646553993225e-02 1.1916750669479370e-01 -1.7698578536510468e-02 -1.9272986054420471e-01 -1.2516508996486664e-01 -2.1443444490432739e-01 -1.5681473910808563e-01 -1.7666372656822205e-01 -8.8796652853488922e-02 9.1492690145969391e-02 5.7928245514631271e-03 1.4811199903488159e-01 -1.4015004038810730e-01 1.8971416354179382e-01 2.0044863224029541e-01 -2.0213295519351959e-01 -9.3467704951763153e-02 -2.3136813938617706e-01 1.0873165912926197e-02 1.5127122402191162e-01 -6.5443761646747589e-02 -8.2560122013092041e-02 1.5608407557010651e-01 -6.5594501793384552e-02 -5.6761750020086765e-03 8.1190019845962524e-03 -1.5864907205104828e-01 1.5707962214946747e-01 1.4243524521589279e-02 -6.7077204585075378e-02 -1.7084258794784546e-01 -1.6483105719089508e-01 -1.7920008301734924e-01 1.5765079855918884e-01 -1.2145277112722397e-01 -1.5544308722019196e-01 8.6379520595073700e-02 -1.2473630905151367e-01 -6.6419608891010284e-02 2.3401837050914764e-01 -1.2491882592439651e-01 4.5290224254131317e-02 2.5400590896606445e-01 -1.9077947735786438e-01 -1.4324238896369934e-01 -1.7074029147624969e-01 -5.2784729748964310e-02 1.7661842703819275e-01 1.6036394238471985e-01 1.1664222925901413e-02 -6.6741712391376495e-02 -1.4704802632331848e-01 -8.5968971252441406e-02 1.0720087587833405e-01 -1.3071261346340179e-01 7.4389830231666565e-02 5.7063419371843338e-02 3.0514534562826157e-02 -1.8025121092796326e-01 -5.0001782365143299e-03 5.7718731462955475e-02 -1.8514372408390045e-02 -1.2804476916790009e-01 -1.8465803563594818e-01 -2.0883692800998688e-01 -6.2551334500312805e-02 6.3392132520675659e-02 -1.3566912710666656e-01 9.5628693699836731e-02 -1.6900061070919037e-01 4.6260442584753036e-02 1.3356365263462067e-01 -1.6794610023498535e-01 -4.7344684600830078e-02 1.8633048236370087e-01 1.0989045724272728e-02 1.9753940403461456e-01 8.3168946206569672e-02 7.6742477715015411e-02 -1.9832263886928558e-01 -1.7319115996360779e-01 -1.7883457243442535e-01 -8.3606481552124023e-02 2.0983077585697174e-02 1.1283154040575027e-01 1.1196085810661316e-01 -1.9540208578109741e-01 5.6190513074398041e-02 -1.4231228828430176e-01 -3.3999893814325333e-02 1.7574524879455566e-01 9.6824310719966888e-02 -1.0292743891477585e-01 9.0259157121181488e-02 1.2749448418617249e-01 9.7532086074352264e-03 1.6173343360424042e-01 -8.8402800261974335e-02 2.4412633478641510e-01 -8.1534415483474731e-02 -8.9133545756340027e-02 2.4804052710533142e-01 2.4770809710025787e-01 2.7412712574005127e-01 -9.0567335486412048e-02 1.7648084461688995e-01 6.4032837748527527e-02 7.5973463244736195e-03 9.6776261925697327e-02 -1.7979351803660393e-02 -1.7084503173828125e-01 1.6648678481578827e-01 -7.9874590039253235e-02 -7.5775082223117352e-03 9.7929351031780243e-02 -1.4122645556926727e-01 3.7599150091409683e-02 1.7546364665031433e-01 5.1684703677892685e-02 -2.0296055078506470e-01 -1.3876616721972823e-03 5.0340343266725540e-02 1.9479826092720032e-01 -5.1514260470867157e-02 5.7927936315536499e-02 -9.3172594904899597e-02 1.4850179851055145e-01 -2.0356541499495506e-02 2.0211109519004822e-01 -6.2516808509826660e-02 1.5995357930660248e-01 4.0914013981819153e-02 -1.7282237112522125e-01 1.9192469120025635e-01 -1.8680155277252197e-01 1.6004984080791473e-01 -2.1938480436801910e-02 1.4671033620834351e-01 -2.1741268038749695e-01 -4.3842298910021782e-03 -1.6078263521194458e-01 -7.7688843011856079e-02 -3.0802607536315918e-02 1.6926877200603485e-01 7.8661717474460602e-02 -1.7521668970584869e-01 1.1444846540689468e-01 -7.0008146576583385e-03 -1.1337518692016602e-01 -1.8127679824829102e-01 3.4516751766204834e-02 5.7594392448663712e-02 -1.1829447746276855e-01 1.0227479040622711e-01 1.9527694582939148e-01 7.5054027140140533e-02 1.3650742173194885e-01 7.4868917465209961e-02 3.9705425500869751e-02 7.2911292314529419e-02 4.6135753393173218e-02 1.2985186278820038e-01 1.3959251344203949e-01 1.6705271601676941e-01 -1.5728931128978729e-01 -3.5985365509986877e-02 -1.1681315302848816e-01 4.2874813079833984e-02 3.0830036848783493e-02 -1.4862960577011108e-01 2.7189031243324280e-01 -4.7609627246856689e-02 -1.2774087488651276e-01 -1.4992381632328033e-01 -1.0209789127111435e-01 -7.5137160718441010e-02 5.3169611841440201e-02 2.3334592580795288e-01 -1.3231895864009857e-01 -8.7363198399543762e-02 -2.9104417189955711e-02 1.9665603339672089e-01 2.1286755800247192e-02 2.0365685224533081e-01 2.7440100908279419e-02 -1.4782665669918060e-01 7.1468397974967957e-02 -1.7490155994892120e-01 -2.1573261916637421e-01 -6.2525123357772827e-02 -4.2845793068408966e-02 1.3877458870410919e-01 1.8914517760276794e-01 8.3714388310909271e-03 1.5771929919719696e-01 -1.8455645442008972e-01 -6.1329092830419540e-02 1.2565371394157410e-01 1.0932824015617371e-01 -1.1353458464145660e-01 4.4296300038695335e-03 -1.4242723584175110e-01 3.5382498055696487e-02 -1.7042468488216400e-01 -3.7508492823690176e-03 -1.8316817283630371e-01 1.0762010514736176e-01 -1.4169120788574219e-01 -1.0980870574712753e-01 -1.4884264767169952e-01 1.4007298741489649e-03 1.0695914179086685e-01 2.4291763082146645e-02 5.7672411203384399e-02 1.7624804750084877e-02 1.3423984870314598e-02 4.3168213218450546e-02 1.7992818355560303e-01 -9.5912903547286987e-02 -2.6901254896074533e-03 -1.9607394933700562e-01 1.3752982020378113e-01 1.7245151102542877e-01 -2.6482773944735527e-02 -1.0560867935419083e-01 1.8255044519901276e-01 -1.8518707156181335e-01 -4.4829556718468666e-03 -1.0077787935733795e-01 -1.5566927380859852e-02 -1.3463696837425232e-01 -1.8264021724462509e-02 -1.3893200457096100e-01 -2.8034104034304619e-02 9.8400197923183441e-02 -3.0783925205469131e-02 -1.6716440021991730e-01 -1.4176100492477417e-01 -1.7096252739429474e-01 -3.8519248366355896e-02 1.2032527476549149e-01 -4.5257985591888428e-02 1.9524668157100677e-01 -5.6236322969198227e-02 -5.7587474584579468e-02 -1.7679809033870697e-01 8.1985190510749817e-02 -1.5632178401574492e-03 -7.5435452163219452e-02 -5.7695969939231873e-02 1.7410057783126831e-01 -1.7028428614139557e-01 -1.4132340252399445e-01 1.6927887499332428e-01 -2.0838950574398041e-01 1.3566835224628448e-01 6.0645759105682373e-02 -1.6624112427234650e-01 1.7395423352718353e-01 1.3968655467033386e-01 -1.4671027660369873e-01 -3.1540829688310623e-02 7.0692881941795349e-02 -4.0422298014163971e-02 1.8613913655281067e-01 8.9080885052680969e-02 1.2633711099624634e-01 -1.3051386177539825e-01 -8.4224417805671692e-03 9.0147428214550018e-02 9.0387441217899323e-02 1.1902307718992233e-01 -3.8751509040594101e-02 2.2258932888507843e-01 1.5429399907588959e-02 1.9175092875957489e-01 -1.6990965604782104e-01 -3.1404387205839157e-02 -3.5504531115293503e-02 2.0340797305107117e-01 -1.3699756562709808e-01 2.9075203463435173e-02 -6.9948494434356689e-02 -2.8742104768753052e-02 -1.5600474178791046e-01 -7.2433374822139740e-02 9.3586027622222900e-02 -1.2966181337833405e-01 -8.4700398147106171e-02 6.6343359649181366e-02 7.8615628182888031e-02 -1.8923765420913696e-01 2.0350949466228485e-01 2.2038962692022324e-02 -6.0757476836442947e-02 1.0931850224733353e-01 -1.2248151004314423e-01 -7.2007745504379272e-02 1.1337901232764125e-03 7.2908192873001099e-02 7.9038068652153015e-02 -2.0080676674842834e-01 -2.7831206098198891e-02 1.9005832076072693e-01 -1.2849557399749756e-01 1.5465945005416870e-01 1.6962869465351105e-01 9.9000245332717896e-02 1.2501169694587588e-03 1.8592013418674469e-01 -6.5225869417190552e-02 2.0253422856330872e-01 -1.5022400021553040e-01 -1.5695869922637939e-02 -2.0486524701118469e-01 -1.9891703501343727e-02 -1.2571409344673157e-01 1.8911464512348175e-01 -4.4333122670650482e-02 2.4816527962684631e-02 -7.2660468518733978e-02 1.3869023323059082e-01 2.0437421277165413e-02 2.8985803946852684e-02 -5.5339448153972626e-02 1.6304196789860725e-02 -1.5659876167774200e-02 1.3992483913898468e-01 -1.7929814755916595e-01 -2.7830678969621658e-02 -5.5486280471086502e-02 -6.9485321640968323e-02 -1.7141415178775787e-01 4.9067968502640724e-03 -2.0799861848354340e-01 -6.9685466587543488e-02 -8.8161811232566833e-02 6.0981392860412598e-02 -1.9347634166479111e-02 -1.2125920504331589e-01 9.6662148833274841e-02 1.7519156634807587e-01 -9.5731399953365326e-02 -1.1008539795875549e-01 5.6342422962188721e-02 -2.3317411541938782e-01 -1.4102450013160706e-01 -6.8622440099716187e-02 1.9916933774948120e-01 1.0529817640781403e-01 4.5256674638949335e-04 1.2953345477581024e-01 1.2243613600730896e-01 -1.8310338258743286e-02 -1.4839908480644226e-01 -1.9469392299652100e-01 2.0612585544586182e-01 -9.2563210055232048e-03 4.0454238653182983e-02 2.2743189334869385e-01 1.2420917302370071e-01 -4.0281847119331360e-02 -2.4499483406543732e-01 -1.8475912511348724e-01 4.4006858021020889e-02 1.0081516951322556e-01 5.9400875121355057e-02 -1.2359339743852615e-01 8.8350869715213776e-02 -7.3870226740837097e-02 -7.9828009009361267e-02 -1.0147967189550400e-01 -1.5711423009634018e-02 1.2198773771524429e-01 -9.3727707862854004e-02 -4.0831897407770157e-02 5.4150369018316269e-02 7.4794039130210876e-02 6.8922169506549835e-02 8.5882686078548431e-02 6.4344786107540131e-02 1.3671714067459106e-01 1.1990510672330856e-01 6.9027677178382874e-02 1.0870099067687988e-01 1.8868930637836456e-01 2.0577377080917358e-01 3.7342319265007973e-03 -7.0729419589042664e-02 1.5782895684242249e-01 -2.1347671747207642e-01 -2.0864824950695038e-01 -2.9301336035132408e-02 4.5273907482624054e-02 1.0255630314350128e-01 -5.3595986217260361e-02 6.9971829652786255e-02 -8.7607078254222870e-02 6.5079107880592346e-02 1.0250671207904816e-01 9.9089611321687698e-03 6.4404688775539398e-02 -8.0674730241298676e-02 -1.6824047267436981e-01 1.3119538128376007e-01 -1.8008312582969666e-01 5.1203913986682892e-02 1.9033671915531158e-01 -1.8153873085975647e-01 -1.1294343322515488e-01 -1.1977483332157135e-01 -1.4824364334344864e-02 1.4167620241641998e-01 -5.7833343744277954e-02 -1.2031085044145584e-01 7.8780680894851685e-02 -1.0705152899026871e-01 -6.9631680846214294e-02 -1.7291761934757233e-01 -1.0092121362686157e-01 -3.5299751162528992e-01 -3.0597645044326782e-01 -4.7279933094978333e-01 -4.0006768703460693e-01 -5.6756354868412018e-02 9.4514667987823486e-02 1.2075405567884445e-01 2.0811216905713081e-02 -1.7182673513889313e-01 1.8561486899852753e-01 1.0931874811649323e-01 1.6187027096748352e-01 5.3178552538156509e-02 -3.9188939332962036e-01 2.1845336258411407e-01 -8.0783739686012268e-02 -2.8516868129372597e-02 -4.0886025875806808e-02 1.4800238609313965e-01 -9.5302566885948181e-02 1.6830425709486008e-02 3.7449594587087631e-02 -1.9448758661746979e-01 1.7869569361209869e-01 9.4158418476581573e-02 5.2753798663616180e-02 1.9458390772342682e-01 -8.3326667547225952e-02 -1.0215267539024353e-01 -1.1854340881109238e-01 -2.0592884719371796e-01 -3.3027574419975281e-02 -9.8637811839580536e-02 7.6402693986892700e-02 3.5774212330579758e-02 1.5773671865463257e-01 -3.8991410285234451e-02 -2.7574453502893448e-02 -2.6333438232541084e-02 7.7434651553630829e-02 -1.5616573393344879e-01 -8.8376253843307495e-02 -1.1144660413265228e-01 2.1042177453637123e-02 -9.0771757066249847e-02 -9.7141742706298828e-02 6.1947308480739594e-02 9.0442322194576263e-02 -1.3286717236042023e-01 -7.8007347881793976e-02 -6.8378392606973648e-03 -7.3386609554290771e-02 -1.8255896866321564e-01 -6.7168097011744976e-03 7.0736678317189217e-03 3.9413347840309143e-02 -1.7525553703308105e-03 9.2122063040733337e-02 -7.8571654856204987e-02 8.3148971199989319e-02 6.3734732568264008e-02 1.1476086825132370e-01 7.3730804026126862e-02 5.7792935520410538e-02 1.7093805968761444e-01 -6.3117265701293945e-02 -1.8899692595005035e-01 -2.1171016991138458e-01 1.4576639235019684e-01 -9.6100568771362305e-03 3.0110727995634079e-02 -1.6345533728599548e-01 7.2728469967842102e-02 -3.4896727651357651e-02 4.1325923055410385e-02 -6.7880481481552124e-02 -1.5488252043724060e-01 1.6362045705318451e-01 -9.8080404102802277e-02 6.3838936388492584e-02 1.2588366866111755e-01 1.1893809586763382e-01 6.0121309012174606e-02 -7.2677731513977051e-02 -1.9256964325904846e-01 -2.1090228855609894e-01 -1.4160305261611938e-01 1.9155381247401237e-02 2.5447467342019081e-02 -5.9217780828475952e-02 2.0433083176612854e-01 -1.9483484327793121e-01 -1.4917613007128239e-02 1.3816861808300018e-01 9.3890383839607239e-02 -1.6674652579240501e-04 2.3237103596329689e-02 -4.0973480790853500e-02 1.0236085951328278e-01 6.1482556164264679e-02 2.2545309737324715e-02 -1.3777497410774231e-01 1.7305850982666016e-01 -1.1909025162458420e-01 1.7593741416931152e-01 -9.7126990556716919e-02 1.4805752038955688e-01 1.1092630773782730e-01 -1.3056704401969910e-01 -1.9113211333751678e-01 1.9509844481945038e-02 7.2671145200729370e-02 -1.2266445904970169e-01 5.2942641079425812e-02 -4.2892854660749435e-02 -1.8865209817886353e-01 -5.1541503518819809e-02 -8.4032714366912842e-03 3.0678555369377136e-02 -1.9893001019954681e-01 -1.0238117724657059e-01 2.0611502230167389e-01 1.1481130123138428e-01 -1.1537735909223557e-01 1.7342250794172287e-02 1.1249523609876633e-01 -1.3102692365646362e-01 1.0159921646118164e-01 1.8217273056507111e-01 6.7498698830604553e-02 1.2302009761333466e-01 -3.9046385791152716e-04 6.6526658833026886e-02 -2.2924919426441193e-01 1.2702177464962006e-01 -1.0193225741386414e-01 5.2381075918674469e-02 1.6748748719692230e-01 -1.1039705015718937e-02 -1.1634425818920135e-01 -7.3800392448902130e-02 -5.8581244200468063e-02 1.7929524183273315e-01 9.1651022434234619e-02 1.5654122829437256e-01 1.3742369413375854e-01 -1.5932391583919525e-01 -1.2583610415458679e-01 3.3844585996121168e-03 1.1775863915681839e-01 2.0926448702812195e-01 8.0503374338150024e-02 2.5546615943312645e-02 -1.0444928705692291e-01 8.8963411748409271e-02 -1.8770892918109894e-01 1.0438796877861023e-01 2.8659315779805183e-02 1.4235243201255798e-01 -1.0902727022767067e-02 -1.2836100161075592e-01 -1.4959944784641266e-01 6.2516525387763977e-02 -1.4600287377834320e-01 -1.6529074311256409e-01 1.0316105931997299e-01 -8.4517844021320343e-02 -6.0594476759433746e-02 1.9244587421417236e-01 3.2240413129329681e-03 -1.6233360767364502e-01 1.6286407411098480e-01 -5.1266688853502274e-02 -1.6760110855102539e-01 2.5345085188746452e-02 -1.8044611811637878e-01 1.0110495984554291e-01 -1.4006411656737328e-02 -4.5817930251359940e-02 -7.5843513011932373e-02 -1.7385475337505341e-01 2.5307336822152138e-02 -5.2600376307964325e-02 1.5489507466554642e-02 1.7089307308197021e-01 1.3739357888698578e-01 -1.8036840856075287e-01 -1.4909830689430237e-01 1.7621454596519470e-01 1.2878540158271790e-01 -1.2931075692176819e-01 -1.5296979248523712e-01 -1.8914507329463959e-01 -2.3889273405075073e-01 -2.2452750802040100e-01 -1.9681751728057861e-01 1.2825159728527069e-01 4.3157674372196198e-02 -1.2459675222635269e-01 -8.1497766077518463e-02 5.0722327083349228e-02 -6.9368228316307068e-02 6.2106497585773468e-02 1.4378948509693146e-01 -1.4018021523952484e-01 -1.5145814418792725e-01 -7.9089976847171783e-02 -6.6105343401432037e-02 -1.1723238974809647e-01 8.7039045989513397e-02 -2.0137622952461243e-01 1.2299915403127670e-01 -8.5716411471366882e-02 1.3749675452709198e-01 -4.6792332082986832e-02 1.6767124831676483e-01 -1.2434669584035873e-01 2.5288514792919159e-02 -7.5799167156219482e-02 1.9454942643642426e-01 1.4874908328056335e-01 6.4768150448799133e-02 5.6467745453119278e-02 5.3423233330249786e-02 1.7782215774059296e-01 1.1203953623771667e-01 3.2818368077278137e-01 2.0725740492343903e-01 1.5719898045063019e-01 8.3894185721874237e-02 -1.3690631091594696e-01 -2.3010692000389099e-01 5.5486369878053665e-02 1.0428501665592194e-01 -2.0170269906520844e-01 1.8142777681350708e-01 1.2307403609156609e-02 -1.1089906096458435e-01 9.8815619945526123e-02 -6.0318042524158955e-03 -1.5931800007820129e-01 1.1031376570463181e-01 1.9327904284000397e-01 1.2505102157592773e-01 2.3312019184231758e-02 1.7880331724882126e-03 -1.9260987639427185e-02 -3.9740093052387238e-02 8.7913908064365387e-02 -8.4062770009040833e-02 -1.5292671322822571e-01 1.3777424395084381e-01 -8.5871785879135132e-02 1.5781383216381073e-01 6.7469112575054169e-02 1.2748035788536072e-01 -7.8856773674488068e-02 4.7684278339147568e-02 -1.5515884757041931e-01 -2.9408285021781921e-01 1.6288505494594574e-01 -1.1538141965866089e-01 -1.3415451347827911e-01 2.1125125885009766e-01 1.0957877337932587e-01 -8.2241080701351166e-02 1.6249185800552368e-01 1.6806615889072418e-01 -1.9103148579597473e-01 3.7048507481813431e-02 -1.2089999765157700e-01 1.5125073492527008e-01 1.7720374464988708e-01 -1.5970262885093689e-01 4.3917622417211533e-02 1.7841389402747154e-02 3.4319730475544930e-03 1.9950293004512787e-01 1.3430362567305565e-02 -1.3430537283420563e-01 -3.2239288557320833e-03 -1.0124192386865616e-01 8.6829876527190208e-03 1.7433580756187439e-01 -1.9001811742782593e-01 1.4404150843620300e-01 5.5005442351102829e-02 3.3931091427803040e-02 3.3933010697364807e-01 1.4556017518043518e-01 2.9457134008407593e-01 -1.1282608844339848e-02 4.5677140355110168e-02 9.9084138870239258e-02 1.5835376083850861e-01 7.1839272975921631e-02 1.9538132846355438e-01 -7.4741773307323456e-02 -7.8819178044795990e-02 -3.5177681595087051e-02 9.4233043491840363e-02 -9.8443865776062012e-02 6.8270057439804077e-02 -1.8861497938632965e-01 -1.0638558119535446e-01 -1.9755586981773376e-01 -1.2602379918098450e-01 1.0017277300357819e-01 -3.4932903945446014e-02 4.2718507349491119e-02 1.1065238714218140e-01 -2.0618660375475883e-02 4.7748642973601818e-03 -1.1078403890132904e-01 -5.5148913525044918e-03 -1.3314811885356903e-01 8.2835085690021515e-02 -1.0104047134518623e-02 -1.2510877847671509e-01 -6.8900763988494873e-02 -1.2554386258125305e-01 1.9634735584259033e-01 7.9202301800251007e-02 1.2170571833848953e-01 1.2488667853176594e-03 1.3724209368228912e-01 -1.5546163916587830e-01 -8.1479668617248535e-02 1.1474253982305527e-01 8.2803167402744293e-02 -2.0706935320049524e-03 1.0378488898277283e-01 1.8202406167984009e-01 -2.0764572918415070e-01 1.7757472395896912e-01 -1.6021829843521118e-01 2.6525747030973434e-02 -1.1456257104873657e-01 5.0231661647558212e-02 -6.3837662339210510e-02 -2.4819448590278625e-02 7.7982716262340546e-02 -7.5682587921619415e-02 -1.8843387067317963e-01 1.7879129946231842e-01 7.2688013315200806e-02 4.5639094896614552e-03 7.2893453761935234e-03 -1.9101612269878387e-01 -6.1135169118642807e-02 2.6597031950950623e-01 5.8952759951353073e-02 2.3211888968944550e-01 3.7443450093269348e-01 4.4155409932136536e-01 3.4879115223884583e-01 6.6470012068748474e-02 5.8071095496416092e-02 9.6468403935432434e-02 -2.0006646215915680e-01 -1.2193268537521362e-01 -2.2342000901699066e-01 -2.2232769429683685e-01 -8.6248479783535004e-02 5.4942455142736435e-02 2.0962108671665192e-01 -5.1474757492542267e-02 -6.8387888371944427e-02 -2.6510661467909813e-02 -1.3674101233482361e-01 3.3198539167642593e-02 1.1912684142589569e-01 1.9867733120918274e-02 1.3143834471702576e-01 1.2211881577968597e-01 1.7486943304538727e-01 4.2754556983709335e-02 4.8584811389446259e-02 -1.8639816343784332e-01 2.8103273361921310e-02 5.0278667360544205e-02 3.6811701953411102e-02 -1.0272521525621414e-02 1.3876509852707386e-02 -1.7316366732120514e-01 5.4272085428237915e-02 -1.2334029376506805e-01 -5.7972319424152374e-02 -1.2378106825053692e-02 -9.8764725029468536e-02 3.8826081901788712e-02 -2.2701579332351685e-01 1.3562905788421631e-01 -1.4130519330501556e-01 -2.4726897478103638e-02 -1.8162369728088379e-01 -1.6446518898010254e-01 -1.3988558948040009e-01 -8.5944741964340210e-02 -8.4268972277641296e-03 -7.9817458987236023e-02 1.2970960140228271e-01 -3.5971153527498245e-02 9.1541126370429993e-02 5.9473488479852676e-02 2.2351451218128204e-01 1.4649109542369843e-01 4.1077457368373871e-02 6.5178178250789642e-02 9.4710595905780792e-02 -1.9028928875923157e-01 1.7318540811538696e-01 -1.3974484801292419e-01 1.8435542285442352e-01 
      </Weights>
      <Biases rows="64" cols="1">
        -1.2232238659635186e-03 3.4830833319574594e-03 -2.0753742137458175e-04 0.0000000000000000e+00 0.0000000000000000e+00 -5.0748153626045678e-06 1.2391837080940604e-03 -4.2945132008753717e-05 -4.2124665924347937e-05 7.1787559136282653e-05 6.2339450232684612e-03 -3.5836847964674234e-03 -3.4970245324075222e-03 -6.7875499371439219e-04 -2.4631782434880733e-03 2.7444653678685427e-03 6.1202392680570483e-04 4.3268167064525187e-04 3.4407561179250479e-03 5.8437272673472762e-04 0.0000000000000000e+00 -2.3438273544229560e-08 6.0908100567758083e-04 -2.6039898511953652e-04 -5.5990309920161963e-04 0.0000000000000000e+00 -5.5544292554259300e-03 1.9330177456140518e-03 5.0133927725255489e-03 -4.3323822319507599e-04 0.0000000000000000e+00 -2.5612977333366871e-03 0.0000000000000000e+00 -4.5572096132673323e-04 1.4463913394138217e-03 3.1739322002977133e-04 -2.6717090513557196e-03 1.6526986146345735e-03 2.7506537735462189e-03 -1.1968970065936446e-03 0.0000000000000000e+00 -1.7121252603828907e-03 -2.6801755302585661e-04 1.2301311362534761e-03 -5.9332925593480468e-04 0.0000000000000000e+00 -1.0384490014985204e-03 0.0000000000000000e+00 -5.9311679797247052e-04 -2.2786268964409828e-03 4.1957577923312783e-04 6.3666836358606815e-03 -8.2739751405824791e-07 4.3191778240725398e-04 1.7342144928989001e-05 2.8451264370232821e-05 -5.3670810302719474e-05 6.3908455194905400e-04 -4.5308782719075680e-03 6.9604802411049604e-04 -9.3422451755031943e-04 -4.8984366003423929e-06 -4.9878298304975033e-03 2.9617256950587034e-04 
      </Biases>
    </Layer>
    <Layer ActivationFunction="1">
      <Weights rows="64" cols="64">
        -4.7475090832449496e-04 -4.0784258395433426e-02 4.8663947731256485e-02 6.3070203177630901e-03 3.5247582942247391e-02 3.4955695271492004e-02 5.3599830716848373e-02 7.0946455001831055e-02 -6.7490041255950928e-02 -1.4315706491470337e-01 -1.0692440718412399e-01 5.6486409157514572e-02 8.2476362586021423e-03 -2.7360241860151291e-02 -9.1796495020389557e-02 9.9957577884197235e-02 -1.2399930506944656e-01 -1.3586461544036865e-01 9.6998766064643860e-02 2.0519213750958443e-02 -9.8298303782939911e-02 -1.2093561701476574e-02 5.6791823357343674e-02 -1.3571687042713165e-02 -7.4630342423915863e-02 -6.8149201571941376e-02 7.8454427421092987e-02 -1.2576709687709808e-01 3.3423382788896561e-02 1.6844682395458221e-02 1.3796831667423248e-01 -1.4378248155117035e-01 5.3612239658832550e-02 -4.5349311083555222e-02 -1.2619826197624207e-01 -1.1709324270486832e-01 -9.7873650491237640e-02 1.2100604176521301e-01 1.3144455850124359e-01 6.4936005510389805e-03 1.0998738557100296e-01 -5.9458006173372269e-02 1.6693547368049622e-02 9.7492083907127380e-02 -6.2110606580972672e-02 1.2205666303634644e-01 7.1028016507625580e-02 1.4760798774659634e-02 7.7165611088275909e-02 -4.1287457570433617e-03 -9.5121897757053375e-02 -3.8240138441324234e-02 -2.9337245970964432e-02 -6.2934584915637970e-02 1.5991130843758583e-02 2.3944593966007233e-02 -3.7463819608092308e-03 1.2596675753593445e-01 -3.4144397825002670e-02 9.5083802938461304e-02 2.1935082972049713e-02 2.4648239836096764e-02 -1.4997129328548908e-02 7.2770595550537109e-02 -1.4204087853431702e-01 1.4229635894298553e-01 -5.0972588360309601e-02 5.5522754788398743e-02 -1.2043619155883789e-01 -1.2369936704635620e-01 -1.5579283237457275e-01 1.2534242868423462e-01 2.9175832867622375e-02 -4.8195903218584135e-05 1.2410237640142441e-01 6.4185708761215210e-02 1.2322112917900085e-01 -1.3616289198398590e-01 9.7956955432891846e-02 -7.5590848922729492e-02 -7.0529796183109283e-02 -1.1535558104515076e-01 1.4586238563060760e-01 9.3410916626453400e-02 8.7335661053657532e-02 -4.8004966229200363e-02 -1.3929583132266998e-01 1.1684203147888184e-01 6.8595215678215027e-02 -7.1148142218589783e-02 8.1508688628673553e-02 -1.1648111045360565e-01 9.8902456462383270e-02 -5.2192565053701401e-03 -4.0797274559736252e-02 -1.2680884450674057e-02 -9.6143208444118500e-02 -9.6664816141128540e-02 7.9770028591156006e-02 -5.0948999822139740e-02 -5.7027611881494522e-02 -1.3879910111427307e-01 -1.3650004751980305e-02 -7.4023216962814331e-02 -1.4596062712371349e-02 8.2418337464332581e-02 6.2244020402431488e-02 -2.8919823467731476e-02 -4.6464882791042328e-02 -6.8933121860027313e-02 1.5652161836624146e-01 7.1849457919597626e-02 2.9360507614910603e-03 -1.4351238310337067e-01 -4.0883302688598633e-02 -1.6314889490604401e-01 -4.6837739646434784e-02 -2.8169201686978340e-02 -7.4976213276386261e-02 2.1769285667687654e-03 1.2732760608196259e-01 -1.5948732197284698e-01 -1.8884675577282906e-02 4.2939793318510056e-02 -9.4040006399154663e-02 -8.7838985025882721e-02 -5.9271559119224548e-02 -1.0263989865779877e-01 3.2595306634902954e-02 -9.7346372902393341e-02 -5.9551931917667389e-02 -9.0917468070983887e-02 8.7450407445430756e-02 -4.8025284195318818e-04 -1.4201693236827850e-01 -4.8369053751230240e-02 -1.0474452376365662e-01 -2.7408290654420853e-02 4.5167859643697739e-02 -5.0549894571304321e-02 1.4040255546569824e-01 1.2947107851505280e-01 5.8786377310752869e-02 -7.9022096469998360e-03 -2.9122369363903999e-02 -4.1584372520446777e-03 1.1034740507602692e-01 -9.9221818149089813e-02 -7.5817272067070007e-02 -7.8206285834312439e-02 -7.6145753264427185e-02 -1.2347327917814255e-01 2.1593274548649788e-02 -3.8641512393951416e-02 -2.0112669095396996e-02 -4.5587837696075439e-02 -6.5403744578361511e-02 -2.3579450324177742e-02 -3.1739518046379089e-02 3.9323829114437103e-02 -3.0949510633945465e-02 -1.4103625901043415e-02 -1.0088563710451126e-01 9.2949252575635910e-03 1.5751935541629791e-01 -1.2412853538990021e-01 -9.7020462155342102e-02 8.3862558007240295e-02 -1.1214664578437805e-01 -3.5067025572061539e-02 1.3895219564437866e-01 9.8372600972652435e-02 -7.7560961246490479e-02 -9.1067411005496979e-02 -5.2880261093378067e-02 -4.6514578163623810e-02 -3.0052753165364265e-02 -1.3457069173455238e-02 1.2466016225516796e-02 2.0380744710564613e-02 1.2595246732234955e-01 -7.2182647883892059e-02 -8.7481535971164703e-02 1.0862919688224792e-01 1.4254437386989594e-01 6.4644716680049896e-02 -4.8385165631771088e-02 -1.0586824268102646e-01 -6.4814364304766059e-04 8.4483243525028229e-02 -3.0416853725910187e-02 -1.0023760795593262e-01 -1.9585529342293739e-02 -1.0232102870941162e-01 -1.3292945921421051e-01 3.4309681504964828e-02 -3.3130936324596405e-02 -9.1524489223957062e-02 -2.2598441690206528e-02 -9.0275900438427925e-03 9.2122238129377365e-03 2.8225343674421310e-02 1.3652587076649070e-03 -1.7154394881799817e-03 1.1425319314002991e-01 -1.2574030458927155e-01 -6.2691606581211090e-02 -1.4818395674228668e-01 5.4569873958826065e-02 1.2030161917209625e-01 9.6755906939506531e-02 1.3645967468619347e-02 -1.3656115531921387e-01 1.0187702625989914e-01 -1.4047299325466156e-01 7.1974985301494598e-02 -9.5259420573711395e-02 1.1406082659959793e-01 -1.0341194272041321e-01 -1.2432129681110382e-01 1.1552462726831436e-01 6.3553154468536377e-02 2.1648885682225227e-02 3.8774009793996811e-02 -6.4857095479965210e-02 -5.5924892425537109e-02 -6.1313178390264511e-02 1.2456989288330078e-01 6.1476334929466248e-02 -1.1313377320766449e-01 -4.4803798198699951e-02 -9.2038452625274658e-02 -7.2630085051059723e-02 6.3635542988777161e-02 -9.5864920876920223e-04 7.8929163515567780e-02 1.0494560748338699e-01 -1.6367785632610321e-02 -1.2031015753746033e-01 6.2446501106023788e-02 -8.7711833417415619e-02 -6.4629800617694855e-02 8.0339498817920685e-02 3.3676173537969589e-02 -1.8656414002180099e-02 -8.8257431983947754e-02 7.3319442570209503e-02 -8.5097730159759521e-02 1.1482726037502289e-01 -1.4254634082317352e-01 -6.5032713115215302e-02 -8.2271076738834381e-02 -8.9028567075729370e-02 9.9921098444610834e-04 -6.1371352523565292e-02 4.7394423745572567e-03 -8.2556232810020447e-02 3.9518527686595917e-02 1.9789284095168114e-02 -1.3408957421779633e-01 -1.4163988828659058e-01 1.3963380455970764e-01 -2.3441139608621597e-02 -8.3375073969364166e-02 1.1244829744100571e-01 1.4918914996087551e-02 2.5996131822466850e-02 -3.1224086880683899e-02 -6.8508073687553406e-02 1.4654850959777832e-01 1.3111905753612518e-01 -1.0445092618465424e-01 3.8743816316127777e-02 -4.3428614735603333e-02 7.2869479656219482e-02 -1.5684289857745171e-02 -8.6265757679939270e-02 -4.0783278644084930e-02 -4.9088377505540848e-02 -6.7063897848129272e-02 2.1352624520659447e-02 2.9139926657080650e-02 5.6017164140939713e-02 9.7697563469409943e-02 -1.0959153622388840e-01 -6.8151332437992096e-02 1.2339757382869720e-01 1.2028869241476059e-01 -6.9357365369796753e-02 -1.3535833358764648e-01 -1.3788153231143951e-01 2.7080124709755182e-03 -2.3838471621274948e-02 6.5266422927379608e-02 -1.2803313136100769e-01 -5.3375583142042160e-02 6.6531628370285034e-02 -9.4173595309257507e-02 1.3614609837532043e-01 -1.1324683576822281e-01 1.4773921575397253e-03 -6.4382568001747131e-02 -8.7697669863700867e-02 6.3952431082725525e-02 -5.9713341295719147e-02 -7.5989060103893280e-02 5.2333660423755646e-02 2.3096637800335884e-02 4.4310707598924637e-02 -8.5080921649932861e-02 6.1572715640068054e-02 2.7100432664155960e-02 -3.0043702572584152e-02 -1.0262710042297840e-02 7.4329428374767303e-02 -8.7330110371112823e-02 4.1642900556325912e-02 1.4214317500591278e-01 6.1794944107532501e-02 -1.0406129993498325e-02 -1.1943916231393814e-01 7.2468705475330353e-02 -4.9124442040920258e-02 -1.2877704203128815e-01 -4.5011732727289200e-02 -9.8145507276058197e-02 6.2325492501258850e-02 1.2498712539672852e-01 9.3773417174816132e-02 -1.0888128727674484e-01 -1.0415277630090714e-01 7.5053393840789795e-02 -1.0364666581153870e-01 4.9266893416643143e-02 -1.4146676659584045e-01 -5.7464502751827240e-02 -5.8747027069330215e-02 -4.9432706087827682e-02 1.0131331533193588e-01 8.5478417575359344e-02 -6.3785262405872345e-02 -6.5824817866086960e-03 5.4374735802412033e-02 -2.6568347588181496e-02 -7.1693070232868195e-02 8.6317881941795349e-02 -5.6793559342622757e-02 4.1577387601137161e-02 1.0257259756326675e-01 -1.4502068050205708e-02 1.3004314899444580e-01 -2.3611536249518394e-02 -6.3468508422374725e-02 5.5475705303251743e-03 1.4069755561649799e-02 -1.4301941730082035e-02 -2.1758655086159706e-02 1.3267622888088226e-01 6.9705531001091003e-02 -9.5050863921642303e-02 1.2034558504819870e-01 -8.0191172659397125e-02 1.0355891659855843e-02 -4.2001422494649887e-02 -1.5372315049171448e-01 -1.2109891511499882e-02 -1.3530553877353668e-01 6.5752871334552765e-02 -2.2671194747090340e-02 2.0602984353899956e-02 -3.9846699684858322e-02 -1.7600455880165100e-01 1.0221905261278152e-01 6.8154796957969666e-02 -2.6487821713089943e-02 6.3980943523347378e-03 7.6109088957309723e-02 -1.1771127581596375e-01 5.4787810891866684e-02 -1.7958465218544006e-01 -2.5552341714501381e-02 -4.3668139725923538e-02 6.5688766539096832e-02 4.5124743133783340e-02 9.6470870077610016e-02 -1.0603690519928932e-02 -4.9837470054626465e-02 7.5013786554336548e-02 7.2157951071858406e-03 2.6609631255269051e-02 -9.4905291916802526e-04 4.3111663311719894e-02 -1.0537348687648773e-02 7.3055252432823181e-02 -4.6852778643369675e-02 -1.4928731322288513e-01 -1.0418253391981125e-01 4.3379560112953186e-02 -1.5626883506774902e-01 8.2813844084739685e-02 -7.2468250989913940e-02 -9.2196799814701080e-02 -8.6900778114795685e-02 -1.1665511131286621e-01 -6.0483712702989578e-02 -3.3513270318508148e-02 -2.2997863590717316e-02 -9.0148085728287697e-03 -7.9764388501644135e-02 -7.2249449789524078e-02 1.1403299868106842e-01 -7.6679717749357224e-03 8.3515286445617676e-02 -9.9168546497821808e-02 4.5595325529575348e-02 7.4248977005481720e-02 8.1308752298355103e-02 3.1731549650430679e-02 4.3049979954957962e-02 6.1696678400039673e-02 3.9803713560104370e-02 -3.0803749337792397e-02 -5.6635513901710510e-02 1.1608817614614964e-02 5.1380258053541183e-02 -1.0697852075099945e-01 1.1451891809701920e-01 5.3989663720130920e-02 7.6100721955299377e-02 -7.9087905585765839e-02 -4.8427665024064481e-04 2.8083547949790955e-02 1.2454730272293091e-01 -1.9081331789493561e-02 -1.6931900754570961e-02 -1.2711113691329956e-01 8.9946895837783813e-02 5.9788938611745834e-02 5.2870564162731171e-02 -9.7195453941822052e-02 6.3933394849300385e-02 -1.0938365943729877e-02 1.1511424928903580e-01 -1.4410740137100220e-01 1.1077492684125900e-01 -7.6898358762264252e-02 -1.6677865758538246e-02 2.0253823604434729e-03 2.6751952245831490e-02 8.1485457718372345e-02 -1.3441088795661926e-01 5.9516679495573044e-02 -8.6937047541141510e-02 1.7767738550901413e-02 -1.9539477303624153e-02 8.8184408843517303e-02 -1.7029933631420135e-02 -3.4022625535726547e-02 -4.0631894022226334e-02 9.1406375169754028e-02 -1.8289919942617416e-02 1.2227646261453629e-01 -5.5629514157772064e-02 -9.9440753459930420e-02 2.1189039573073387e-02 -4.4354420155286789e-02 -1.2786293029785156e-01 -5.7381320744752884e-02 7.9790964722633362e-02 8.2991488277912140e-02 1.0884196311235428e-01 -7.5737513601779938e-02 1.3324277102947235e-01 -6.6809542477130890e-02 6.7933075129985809e-02 -6.1295468360185623e-02 4.1217442601919174e-02 8.0706059932708740e-02 2.1614227443933487e-02 1.1827791482210159e-01 5.0926949828863144e-02 -1.4844839274883270e-01 2.9849994461983442e-03 2.9657110571861267e-02 2.2271541878581047e-02 -1.2111917883157730e-01 -8.5729956626892090e-02 2.8644584119319916e-02 -3.0323822051286697e-02 4.6467810869216919e-02 -7.6538056135177612e-02 4.1671516373753548e-03 3.0362967401742935e-02 -4.2326491326093674e-02 1.4951761066913605e-01 5.8706425130367279e-02 4.9086693674325943e-02 -1.4728949964046478e-01 -1.5118072926998138e-01 1.8136156722903252e-02 8.9901506900787354e-02 3.4517543390393257e-03 9.9480189383029938e-02 1.4665473997592926e-01 6.5289912745356560e-03 1.7904338892549276e-03 -6.4214341342449188e-02 -1.0145807266235352e-01 5.4833438247442245e-02 1.0049533843994141e-01 1.6229468584060669e-01 5.6720536202192307e-02 -1.3805705308914185e-01 2.1073089912533760e-02 -1.2933769263327122e-02 1.4455677568912506e-01 1.3076643459498882e-02 1.1680458486080170e-01 1.0286227613687515e-01 -7.4576504528522491e-02 1.1180426180362701e-01 -3.0848674476146698e-02 -1.8284916877746582e-02 -3.8970381021499634e-02 -2.8003025799989700e-02 1.4113800227642059e-01 -8.3280541002750397e-02 5.6545687839388847e-03 8.4283426403999329e-02 1.3490891456604004e-01 -5.4970435798168182e-02 9.7428202629089355e-02 7.0661872625350952e-02 1.0494068264961243e-01 -8.7578356266021729e-02 -1.0986268520355225e-01 1.2899226276203990e-03 3.9817623794078827e-02 -1.5259467996656895e-02 4.3995268642902374e-02 -1.1440203338861465e-01 -9.3289613723754883e-02 6.2129516154527664e-02 -1.1290402710437775e-01 -2.6115443557500839e-02 -9.5737397670745850e-02 1.0722186416387558e-01 -1.5198640525341034e-01 -1.3578434288501740e-01 5.3858824074268341e-02 -2.6633255765773356e-04 -1.3219952583312988e-01 1.3280904293060303e-01 6.0032688081264496e-02 -1.1699156463146210e-01 9.3283534049987793e-02 9.4318151473999023e-02 -1.2135104089975357e-01 -3.3016771078109741e-02 1.1785427480936050e-01 1.1486729979515076e-01 -1.1928625404834747e-01 6.3841059803962708e-02 1.3241517543792725e-01 3.6966301500797272e-02 -6.5682351589202881e-02 6.6568911075592041e-02 -1.3690908253192902e-01 1.2497495859861374e-01 -1.4640292525291443e-01 -5.9114079922437668e-02 9.7194023430347443e-02 1.3979129493236542e-01 3.2211177051067352e-02 1.2877839803695679e-01 -3.0495675280690193e-02 -5.5262062698602676e-02 1.1363860219717026e-01 -1.3303692638874054e-01 -8.7670527398586273e-02 -8.9762471616268158e-02 1.2258027493953705e-01 -4.5331548899412155e-02 -2.6680773124098778e-02 -3.1706877052783966e-02 5.3969960659742355e-02 2.9058396816253662e-02 4.5246840454638004e-03 -7.3827594518661499e-02 9.7041465342044830e-02 -9.3545354902744293e-02 -1.2964107096195221e-02 1.1295706033706665e-01 2.9705198481678963e-02 -7.5109638273715973e-02 4.6944953501224518e-02 6.8274304270744324e-02 -5.8110762387514114e-02 1.3627135753631592e-01 7.7728897333145142e-02 -4.2494174093008041e-02 3.7309009581804276e-02 -1.3831827789545059e-02 1.0055288672447205e-01 1.3140991330146790e-01 4.8726513981819153e-02 2.3672197014093399e-02 2.8501227498054504e-02 1.2620638310909271e-01 -1.0465169697999954e-01 1.1116709560155869e-01 -1.1175695806741714e-01 -2.6843594387173653e-02 -1.2641261518001556e-01 5.3472421132028103e-03 -1.4327290654182434e-01 6.0783136636018753e-02 -1.4600482583045959e-01 9.9220022559165955e-02 -8.5586681962013245e-02 -6.3580654561519623e-02 -9.3189612030982971e-02 1.1923768371343613e-01 1.8272092565894127e-02 -2.7650624513626099e-02 -1.2898370623588562e-01 2.3887099698185921e-02 5.1440885290503502e-03 1.3543074950575829e-02 -7.0293910801410675e-02 4.4935815036296844e-02 1.1178292334079742e-01 -9.8130553960800171e-02 8.4566712379455566e-02 -1.3706170022487640e-01 1.2348166853189468e-01 -2.6296786963939667e-02 9.7512885928153992e-02 3.3354468643665314e-02 -3.6827571690082550e-02 -1.0396010428667068e-01 3.4068785607814789e-02 8.2608640193939209e-02 -2.2289481014013290e-02 -5.4898876696825027e-02 -1.8506236374378204e-02 -1.2542945146560669e-01 -7.8271247446537018e-02 -1.1568433046340942e-01 5.0937086343765259e-02 -1.6162979602813721e-01 5.7202361524105072e-02 7.5349144637584686e-02 1.5549246966838837e-01 -2.1008336916565895e-02 -1.2445364892482758e-01 4.6752128750085831e-02 -3.2046761363744736e-02 6.7876957356929779e-02 -6.1990551650524139e-02 8.1288337707519531e-02 -5.4113201797008514e-02 -6.6360346972942352e-02 2.2486897185444832e-02 -1.8516678363084793e-02 -1.3714568316936493e-01 4.8866551369428635e-02 -2.1109145134687424e-02 6.6185697913169861e-02 -6.0775388032197952e-02 -8.9739605784416199e-02 1.3902844488620758e-01 4.6307627111673355e-02 -3.0308794230222702e-02 -5.1081413403153419e-03 1.0214134305715561e-01 7.1873106062412262e-02 -1.4276783168315887e-01 -8.9372053742408752e-02 -1.0788210481405258e-01 1.1182148009538651e-02 1.4489872753620148e-01 1.4532935619354248e-01 5.2773397415876389e-02 -4.3140318244695663e-02 1.1766439676284790e-01 8.8896207511425018e-02 1.5205396339297295e-02 1.6030838713049889e-02 7.3980651795864105e-02 -6.6726252436637878e-02 2.3300053551793098e-02 -4.5484274625778198e-02 -1.7131432890892029e-02 -1.4502635225653648e-02 3.7847317755222321e-02 -1.4696821570396423e-01 -5.3644116967916489e-02 -9.7094029188156128e-02 9.8552547395229340e-02 3.0812364071607590e-02 -1.0452302545309067e-01 -9.0299583971500397e-02 1.0060168057680130e-01 8.2763694226741791e-02 1.3946196436882019e-01 -9.6804447472095490e-02 -7.7084220945835114e-02 1.5665734186768532e-02 8.2540109753608704e-02 1.2624064087867737e-01 -8.9655026793479919e-02 4.4293239712715149e-02 -6.9148868322372437e-02 1.6170655190944672e-01 -5.3287204355001450e-02 8.3189964061602950e-04 -1.3660441152751446e-02 3.6841765046119690e-02 -1.6489030420780182e-01 1.0690212249755859e-01 1.1615215986967087e-01 -9.7804434597492218e-02 3.3530641347169876e-02 -2.9175931587815285e-02 2.6468358933925629e-02 4.8969894647598267e-02 -5.0769444555044174e-02 -3.1021077185869217e-02 -1.0380570590496063e-01 -1.1699727922677994e-01 3.5222910344600677e-02 -1.5891198068857193e-02 -5.7468134909868240e-02 -1.2655419111251831e-01 7.7596664428710938e-02 1.0225032456219196e-02 1.0317093878984451e-01 5.5197812616825104e-02 -1.1888412758708000e-02 -1.0293870419263840e-01 1.4181204140186310e-02 -9.2678949236869812e-02 4.2882073670625687e-02 9.4052232801914215e-02 6.6757529973983765e-02 8.6584500968456268e-02 7.9463012516498566e-02 9.9279716610908508e-02 1.4416623115539551e-01 -1.0822715610265732e-01 -7.8611761331558228e-02 -1.1258030682802200e-01 4.2949430644512177e-02 1.3457600772380829e-01 -1.3492168486118317e-01 -5.7707455009222031e-02 -3.1017564237117767e-02 -1.3373582623898983e-02 7.4105538427829742e-02 5.1937870681285858e-02 1.5849971771240234e-01 2.3634629324078560e-03 -2.8782345354557037e-02 3.9152633398771286e-02 1.4889944344758987e-02 -1.3941109180450439e-01 6.5535940229892731e-02 1.5354056656360626e-01 -1.0109222494065762e-03 -9.0007863938808441e-02 6.7756764590740204e-02 -1.2756906449794769e-01 7.7065460383892059e-02 1.0648846626281738e-01 -1.0637026280164719e-01 -1.0674145072698593e-01 1.0875070095062256e-01 3.0247760005295277e-03 1.4752273261547089e-01 6.1992138624191284e-02 8.1018745899200439e-02 1.0663824528455734e-01 -3.3339727669954300e-02 -5.9988308697938919e-02 -9.1488860547542572e-02 -5.2032917737960815e-02 -1.2500478327274323e-01 4.0553260594606400e-02 -5.4322868585586548e-02 -8.3877898752689362e-02 -6.9979533553123474e-02 1.3924601674079895e-01 7.4517443776130676e-02 9.7541414201259613e-02 -1.3152562081813812e-01 -2.3160228505730629e-02 6.6109839826822281e-03 -8.2722261548042297e-02 1.3129837810993195e-01 1.4644952118396759e-01 -1.1567039042711258e-01 -7.3040440678596497e-02 1.1645025759935379e-01 9.3665793538093567e-02 -1.3984933495521545e-01 -1.4672075212001801e-01 -6.3399299979209900e-02 -2.3084562271833420e-02 -9.2421039938926697e-02 1.1919082701206207e-01 -1.9689854234457016e-02 -1.0620216280221939e-01 6.1768881976604462e-02 1.2355163693428040e-01 -7.9037267714738846e-03 -1.8467631191015244e-02 2.1027592942118645e-02 -1.2088378518819809e-01 8.6239233613014221e-02 -8.8251456618309021e-02 9.5459163188934326e-02 -7.6015349477529526e-03 -7.2069622576236725e-02 1.2902143597602844e-01 1.1845242977142334e-01 1.4795017242431641e-01 -1.2355136126279831e-01 -7.4453860521316528e-02 1.0033269226551056e-01 1.6766959428787231e-01 1.2919035553932190e-01 -8.4752880036830902e-02 1.1704172939062119e-01 -5.4507613182067871e-02 -5.5365161970257759e-03 3.4606847912073135e-03 5.9044916182756424e-02 9.4385966658592224e-02 -4.5865811407566071e-03 -8.8314093649387360e-02 1.5156758017838001e-02 2.6258271932601929e-01 -1.1554151028394699e-01 -1.7448025941848755e-01 6.6836655139923096e-02 1.2054649740457535e-01 5.3385157138109207e-02 1.0959719866514206e-01 -9.6748899668455124e-03 1.2861455976963043e-01 8.2621574401855469e-02 -1.4341123402118683e-01 -9.1959804296493530e-02 3.1893230974674225e-02 1.8082682043313980e-02 1.2883128225803375e-01 -1.0753173381090164e-01 -1.8731069564819336e-01 8.7560592219233513e-03 1.7339645326137543e-01 1.7213977873325348e-02 -1.0174830257892609e-01 -1.5928688645362854e-01 1.4094585180282593e-01 -1.3499593734741211e-01 1.0388603061437607e-01 -1.1967774480581284e-04 -1.6334109008312225e-01 1.7977619171142578e-01 1.3490489125251770e-01 -7.4828632175922394e-02 6.4861766993999481e-02 -1.4814476668834686e-01 -3.7760261446237564e-02 -1.0805774480104446e-02 -1.1584348231554031e-01 9.3500025570392609e-02 1.9820006564259529e-03 4.0049955248832703e-02 -1.0874690860509872e-01 -3.0269991606473923e-02 1.5346682071685791e-01 2.5018379092216492e-01 -5.4708473384380341e-02 -7.6237414032220840e-04 1.0533382743597031e-01 1.3293108344078064e-01 -1.3727943599224091e-01 1.2980815023183823e-02 -1.6398259997367859e-01 9.0728819370269775e-02 -1.5606501698493958e-01 1.1336504667997360e-01 -1.8857492506504059e-01 5.2677221596240997e-02 -3.1964264810085297e-02 -1.0651292651891708e-01 6.9227805361151695e-03 2.2846370935440063e-02 -1.3577744364738464e-01 -2.5197453796863556e-02 6.8094290792942047e-02 -1.2499871663749218e-02 1.3369894027709961e-01 -3.4445796161890030e-02 -4.8748239874839783e-02 6.3440144062042236e-02 -4.7434616833925247e-02 -5.4813023656606674e-02 6.5023735165596008e-02 -2.4195646867156029e-02 -4.1611507534980774e-02 6.9412193261086941e-03 -1.0380262136459351e-01 1.4658841490745544e-01 1.7603266984224319e-02 -2.9374185949563980e-02 8.5500001907348633e-02 8.0870136618614197e-02 -1.1318908631801605e-01 -1.2270413339138031e-01 -7.3384083807468414e-03 3.8136500865221024e-02 -1.2785297632217407e-01 -1.1855723708868027e-01 1.1543828248977661e-01 -4.0868759155273438e-02 1.2218630313873291e-01 -7.4552863836288452e-02 -4.4800054281949997e-02 -1.3643245398998260e-01 1.1033686250448227e-01 -3.3416140824556351e-02 6.9805115461349487e-02 6.5211117267608643e-02 2.5400893762707710e-02 7.0579513907432556e-02 -1.0800775140523911e-01 -7.6192960143089294e-02 9.8409920930862427e-02 1.9800251349806786e-02 1.3714039325714111e-01 2.5484915822744370e-02 1.3559208810329437e-01 9.6084736287593842e-02 1.4324468374252319e-01 -4.2205769568681717e-02 -2.2199211642146111e-02 1.3151188194751740e-01 -2.8955912217497826e-02 1.5052945353090763e-02 6.3053779304027557e-02 1.1563207954168320e-01 1.0662450641393661e-01 -1.3571453094482422e-01 -9.8735518753528595e-02 6.6406592726707458e-02 1.2265022099018097e-01 -1.2459406629204750e-02 3.0706036835908890e-02 1.5918876230716705e-01 -5.0850030034780502e-02 3.0165160074830055e-02 -5.7223696261644363e-02 -8.1631302833557129e-02 3.3143341541290283e-02 -1.7253093421459198e-01 -1.3971407711505890e-01 5.4143313318490982e-02 1.8101985752582550e-01 -1.0953114833682775e-03 -5.5283010005950928e-02 -1.7813085019588470e-01 -1.3409955799579620e-01 9.4626285135746002e-02 -2.9751735273748636e-03 1.1878727376461029e-01 1.5386112034320831e-01 9.1917507350444794e-02 8.9723460376262665e-02 4.2958039790391922e-02 -9.1322198510169983e-02 -4.2689830064773560e-02 -1.0574446618556976e-01 1.1371096968650818e-01 -6.2682390213012695e-02 -1.0155885480344296e-02 1.6946347057819366e-01 3.8358662277460098e-02 1.3034635782241821e-01 -1.5514563024044037e-01 7.1192733943462372e-02 -1.8532633781433105e-02 9.9819488823413849e-02 1.0752139240503311e-01 -5.4464593529701233e-02 6.2142986804246902e-02 1.5600113570690155e-01 -9.7832661122083664e-03 -3.1401898711919785e-02 3.1297869980335236e-02 -1.1108408123254776e-01 7.5152762234210968e-02 1.1436589062213898e-02 6.3679255545139313e-02 -3.9983090013265610e-02 5.6157700717449188e-02 -7.0632070302963257e-02 -1.1610039509832859e-02 -1.3224851340055466e-02 1.8627436459064484e-01 9.1685384511947632e-02 1.4739009737968445e-01 -1.1007452383637428e-02 8.4937289357185364e-02 -8.0873951315879822e-02 3.4481678158044815e-02 -1.7472061514854431e-01 -3.4742888528853655e-03 -8.3282195031642914e-02 -1.1065956205129623e-01 -1.9627892470452935e-04 1.2953567504882812e-01 -3.4372124820947647e-02 9.0203389525413513e-02 4.3760418891906738e-02 4.1204184293746948e-02 -1.0388844646513462e-02 1.3106390833854675e-01 -7.4950903654098511e-02 1.7595643177628517e-02 1.0456616990268230e-02 -1.2599487788975239e-02 -1.3850072398781776e-02 8.4788605570793152e-02 -4.6597585082054138e-02 5.9148132801055908e-02 9.0808786451816559e-02 -1.4791114628314972e-01 -6.5317727625370026e-02 1.2735170125961304e-01 9.2477358877658844e-02 2.6145629584789276e-02 8.1584423780441284e-02 -1.1293506622314453e-01 -5.1578726619482040e-02 -7.1851052343845367e-02 7.3084995150566101e-02 -5.1157683134078979e-02 1.2649612128734589e-01 -6.4360663294792175e-02 -1.5761686861515045e-01 9.0758889913558960e-02 -5.3016427904367447e-02 1.3759769499301910e-01 1.1643406003713608e-01 -1.4366921037435532e-02 -7.1064069867134094e-02 6.5490305423736572e-02 1.1882191151380539e-01 -6.5918624401092529e-02 3.4359551966190338e-02 -1.1572427302598953e-01 -1.4299616217613220e-01 1.5006853640079498e-01 -1.1154746264219284e-01 -6.9874420762062073e-02 -6.2620632350444794e-02 5.5884993635118008e-03 1.4290903508663177e-01 9.2320084571838379e-02 7.7621929347515106e-02 5.8291524648666382e-02 7.5432091951370239e-02 9.8549993708729744e-04 -7.3196671903133392e-02 -7.4005909264087677e-02 9.9000394344329834e-02 6.4002610743045807e-02 -5.4555267095565796e-02 -2.6746148243546486e-02 -2.2248148918151855e-02 -1.6407674178481102e-02 2.7120023965835571e-02 1.3538074493408203e-01 1.0825880616903305e-01 -5.4836288094520569e-02 -9.1539308428764343e-02 -1.2723905965685844e-02 -1.3677142560482025e-01 -6.6780127584934235e-02 -9.7257047891616821e-02 1.1687434464693069e-01 9.6018858253955841e-02 1.2053768336772919e-01 -1.1464511603116989e-01 1.2668950855731964e-01 -1.1985944956541061e-01 4.1933609172701836e-03 7.5202640146017075e-03 -1.2850569188594818e-01 -1.6967941820621490e-01 7.1586079895496368e-02 -6.4871557056903839e-02 -3.8553684949874878e-02 -3.0143907293677330e-02 -2.5265166535973549e-02 -1.4569497108459473e-01 2.5135343894362450e-03 -3.7829183042049408e-02 2.2828709334135056e-02 9.5781147480010986e-02 5.7451713830232620e-02 9.3507081270217896e-02 1.3434611260890961e-01 -2.0803995430469513e-02 -2.3795293644070625e-02 1.1933233588933945e-02 1.3307356834411621e-01 -5.6112688034772873e-02 1.0409223288297653e-01 5.6207146495580673e-02 -1.2155020982027054e-01 -3.1815130263566971e-02 -1.5650190180167556e-03 -1.1503758281469345e-01 -6.5783201716840267e-03 9.5691807568073273e-02 2.1906556561589241e-02 -7.0004068315029144e-02 7.7817127108573914e-02 -1.4333090186119080e-01 6.8531192839145660e-02 1.0391626507043839e-01 -5.3312174975872040e-02 1.0464175045490265e-01 -4.1506186127662659e-02 -7.3581799864768982e-02 6.2195039354264736e-03 -1.3942073285579681e-01 4.8364424146711826e-03 1.1160860210657120e-01 1.3269166648387909e-01 -7.8593268990516663e-02 -3.6448813974857330e-02 5.1868289709091187e-02 -8.4935568273067474e-02 -1.1639791727066040e-01 -9.2744484543800354e-02 -4.6386964619159698e-02 -5.1855366677045822e-02 -1.0326899588108063e-01 -1.3548706471920013e-01 -1.8569046631455421e-02 2.6024257764220238e-02 2.2726817056536674e-02 1.1717271059751511e-01 -7.7061794698238373e-02 6.6600918769836426e-02 1.0995960235595703e-01 -1.6844995319843292e-02 -1.2957036495208740e-01 -6.2673546373844147e-02 -1.1340329051017761e-01 1.0414456576108932e-01 4.4301360845565796e-02 -3.9144661277532578e-02 -3.9903737604618073e-02 1.1126816272735596e-01 2.3661082610487938e-02 4.3350499123334885e-02 6.6054267808794975e-03 -1.4368727803230286e-01 1.4742190018296242e-02 -2.7103088796138763e-02 -1.1800485104322433e-01 8.1716522574424744e-02 -5.6723814457654953e-02 -6.3432581722736359e-02 -2.0739089697599411e-02 -1.4086289703845978e-01 3.4206669777631760e-02 4.2243450880050659e-02 -2.2941078990697861e-02 2.9689064249396324e-02 -2.8693096712231636e-02 9.5013327896595001e-02 -1.2826076149940491e-01 3.6874134093523026e-02 8.6480960249900818e-02 1.7239643260836601e-02 5.7155657559633255e-02 -1.2661813199520111e-01 -8.4216609597206116e-02 6.6875563934445381e-03 -1.1717765778303146e-01 3.2963111996650696e-02 -1.3952864706516266e-01 -1.2547615170478821e-01 -9.0038061141967773e-02 8.7316691875457764e-02 -3.4161701798439026e-02 6.0306191444396973e-02 1.2292197346687317e-01 -8.9999608462676406e-04 -2.9902881011366844e-02 -5.5650342255830765e-02 6.7025862634181976e-02 -4.8635818064212799e-02 7.4390456080436707e-02 1.4361615478992462e-01 4.9394205212593079e-02 -6.5317505504935980e-04 3.5183649510145187e-02 6.8515911698341370e-02 6.0778153128921986e-03 -1.2530764937400818e-01 -4.7034285962581635e-02 -9.8152026534080505e-02 -4.7470271587371826e-02 -6.9129399955272675e-02 -7.0046886801719666e-02 8.2810379564762115e-02 -1.6689145937561989e-02 9.4421677291393280e-02 -1.0845971852540970e-01 1.3225691020488739e-01 1.2769059836864471e-01 -1.4454433321952820e-01 -6.0164127498865128e-02 -1.3604575395584106e-01 4.8637539148330688e-03 1.0497111082077026e-01 -5.2541907876729965e-02 -6.3892744481563568e-02 1.0457202047109604e-01 -5.1952969282865524e-02 -1.1541527695953846e-02 1.9712526351213455e-02 -1.0898334532976151e-01 1.0631196200847626e-01 3.5472810268402100e-03 -6.2777847051620483e-02 -1.2484677881002426e-01 -1.1774487048387527e-01 -1.2968359887599945e-01 1.1156618595123291e-01 -9.8079800605773926e-02 -1.1724165827035904e-01 1.6928263008594513e-02 -1.2206818163394928e-01 -8.7801225483417511e-02 1.3016514480113983e-01 -8.5385143756866455e-02 2.8978019952774048e-02 1.4649321138858795e-01 -1.4254313707351685e-01 -1.0200218856334686e-01 -1.1444405466318130e-01 -3.0341338366270065e-02 1.2187638878822327e-01 1.0821795463562012e-01 -1.6402242705225945e-02 -4.5766785740852356e-02 -1.0264233499765396e-01 -5.7366784662008286e-02 7.9473584890365601e-02 -8.8843390345573425e-02 5.6018084287643433e-02 6.6901169717311859e-02 2.4133639410138130e-02 -1.3445696234703064e-01 -1.1399009963497519e-03 4.7316648066043854e-02 -6.2516545876860619e-03 -8.8232822716236115e-02 -1.2946316599845886e-01 -1.4533953368663788e-01 -4.3195433914661407e-02 9.9162697792053223e-02 -7.6883174479007721e-02 6.5667510032653809e-02 -1.1950062215328217e-01 3.2710950821638107e-02 9.4438001513481140e-02 -1.2365029007196426e-01 -6.3274785876274109e-02 1.3174629211425781e-01 1.2471349909901619e-02 1.7787365615367889e-01 5.4045498371124268e-02 5.9102259576320648e-02 -1.3917554914951324e-01 -6.3828982412815094e-02 -1.0596781224012375e-01 -5.6957207620143890e-02 -2.4572450667619705e-02 6.7390009760856628e-02 8.3251215517520905e-02 -1.3818275928497314e-01 3.9736244827508926e-02 -1.1289020627737045e-01 -1.8129220232367516e-02 1.1569517105817795e-01 6.8463519215583801e-02 -5.3069978952407837e-02 3.7447765469551086e-02 8.1817619502544403e-02 2.8734509833157063e-03 1.1435791105031967e-01 -6.1345010995864868e-02 1.4199879765510559e-01 -9.5626257359981537e-02 -1.1326494812965393e-01 8.6564511060714722e-02 8.1769295036792755e-02 1.2497129291296005e-01 -3.9360392838716507e-02 1.7003393173217773e-01 3.1210862100124359e-02 4.2723063379526138e-02 6.8290062248706818e-02 -2.4976646527647972e-02 -9.1184027493000031e-02 1.1574856936931610e-01 -7.5287289917469025e-02 -6.0884270817041397e-02 5.9928666800260544e-02 -5.4248314350843430e-02 3.4815799444913864e-02 1.5050767362117767e-01 4.5253254473209381e-02 -1.3860379159450531e-01 5.5376306176185608e-02 7.1124039590358734e-02 1.2774187326431274e-01 -4.5230690389871597e-02 1.0831657052040100e-01 -6.4265459775924683e-02 1.1262233555316925e-01 -4.7984621487557888e-03 1.7911870777606964e-01 -2.2612333297729492e-02 1.1201983690261841e-01 2.4453392252326012e-02 -1.2233600020408630e-01 1.3427470624446869e-01 -1.3375853002071381e-01 1.1173611134290695e-01 -1.6585292294621468e-02 1.0566206276416779e-01 -1.4597067236900330e-01 -8.6568417027592659e-03 -1.1369533836841583e-01 -5.7610541582107544e-02 -2.2971739992499352e-02 1.2021903693675995e-01 5.1829241216182709e-02 -1.2677365541458130e-01 8.0237567424774170e-02 -8.4178028628230095e-03 -8.1508181989192963e-02 -1.2815183401107788e-01 2.4580487981438637e-02 4.0913861244916916e-02 -8.6534880101680756e-02 7.0838086307048798e-02 1.3630428910255432e-01 5.2849959582090378e-02 9.4340547919273376e-02 5.0102423876523972e-02 2.4600714445114136e-02 4.9508783966302872e-02 3.2804567366838455e-02 8.8004805147647858e-02 8.8205046951770782e-02 1.0292846709489822e-01 -1.4925964176654816e-01 -5.1896385848522186e-02 -1.1435157805681229e-01 2.7386513538658619e-03 6.0638401657342911e-02 -1.3372513651847839e-01 1.1639848351478577e-01 -7.1207307279109955e-02 -9.5545515418052673e-02 -1.0391558706760406e-01 -6.5149188041687012e-02 -5.7453330606222153e-02 2.9990613460540771e-02 1.4384871721267700e-01 -9.2820875346660614e-02 -6.3264213502407074e-02 -1.8489543348550797e-02 1.3993118703365326e-01 1.7552092671394348e-02 1.4591223001480103e-01 3.2757382839918137e-02 -6.0115613043308258e-02 4.1681587696075439e-02 -1.2425068020820618e-01 -1.4809365570545197e-01 -5.9478864073753357e-02 -3.2988533377647400e-02 9.8702378571033478e-02 1.3269588351249695e-01 5.2931383252143860e-03 1.1688558012247086e-01 -1.2742754817008972e-01 -3.2036792486906052e-02 9.7878977656364441e-02 8.8710546493530273e-02 -7.0814326405525208e-02 1.6077609034255147e-03 -1.0027512162923813e-01 7.1494355797767639e-02 -1.2832257151603699e-01 -2.6483316905796528e-03 -1.3108116388320923e-01 7.4796341359615326e-02 -9.9002853035926819e-02 -7.5081400573253632e-02 -9.5767907798290253e-02 6.7383114947006106e-04 7.5119242072105408e-02 1.6160689294338226e-02 4.0079101920127869e-02 1.1419732123613358e-02 8.6141144856810570e-03 6.1806052923202515e-02 9.8256729543209076e-02 -6.6427655518054962e-02 -3.3177684526890516e-03 -1.3956516981124878e-01 9.8933555185794830e-02 1.2236384302377701e-01 -1.8737623468041420e-02 -7.5303211808204651e-02 1.2878789007663727e-01 -1.3094656169414520e-01 -3.3488553017377853e-03 -7.1300700306892395e-02 -1.1058521457016468e-02 -9.5208197832107544e-02 -1.2914573773741722e-02 -9.8263308405876160e-02 -1.9826797768473625e-02 6.9577559828758240e-02 -2.1767763420939445e-02 -1.1818988621234894e-01 -1.0029432177543640e-01 -1.2089134007692337e-01 -2.7233803644776344e-02 8.5087604820728302e-02 -3.2001953572034836e-02 1.3807079195976257e-01 -3.9769757539033890e-02 -4.0724389255046844e-02 -1.2505802512168884e-01 5.7968117296695709e-02 -1.1054336791858077e-03 -5.3339187055826187e-02 -4.0825866162776947e-02 1.2310639023780823e-01 -1.2040210515260696e-01 -9.9911332130432129e-02 1.1957975476980209e-01 -1.4737883210182190e-01 9.5930665731430054e-02 4.2892679572105408e-02 -1.1755310744047165e-01 1.4515984058380127e-01 1.0955988615751266e-01 -1.0694852471351624e-01 -5.6371722370386124e-02 8.0635873600840569e-03 -6.4244970679283142e-02 1.4831529557704926e-01 1.7998600378632545e-02 8.2906551659107208e-02 -9.2940330505371094e-02 4.7915436327457428e-02 3.8966469466686249e-02 4.0240172296762466e-02 6.8652555346488953e-02 -2.6191914454102516e-02 1.3871836662292480e-01 -7.6293232850730419e-03 7.4757635593414307e-02 -1.1758065968751907e-01 -1.8943455070257187e-02 -2.1497854962944984e-02 1.4740841090679169e-01 -9.1483250260353088e-02 -1.2374280020594597e-02 -5.1789447665214539e-02 -1.5348380431532860e-02 -1.0940115898847580e-01 -5.9547599405050278e-02 8.2615062594413757e-02 -9.1919340193271637e-02 -5.8405525982379913e-02 1.3087055645883083e-02 5.5583909153938293e-02 -1.3127841055393219e-01 1.5925641357898712e-01 -1.3464953750371933e-02 -8.5689626634120941e-02 8.6342915892601013e-02 -7.1376502513885498e-02 -7.2958916425704956e-02 8.0168450949713588e-04 1.6666660085320473e-02 5.8861799538135529e-02 -1.5583357214927673e-01 -1.8248936161398888e-02 1.3439412415027618e-01 -1.1482913792133331e-01 1.0935703665018082e-01 1.0002250969409943e-01 1.0025937855243683e-01 4.2091892100870609e-03 1.3928166031837463e-01 -4.6120740473270416e-02 1.4973473548889160e-01 -1.0617616027593613e-01 -1.0976134799420834e-02 -1.4474588632583618e-01 -2.2382298484444618e-03 -5.9098277240991592e-02 1.3445000350475311e-01 -5.3260993212461472e-02 2.1168278530240059e-02 -7.3236420750617981e-02 1.1292643845081329e-01 -5.7418919168412685e-03 -9.3729067593812943e-03 -6.3828930258750916e-02 -8.6940079927444458e-03 -3.5151153802871704e-02 7.7793978154659271e-02 -1.2800334393978119e-01 -4.8519428819417953e-02 -7.5572021305561066e-02 -4.4820062816143036e-02 -1.4189136028289795e-01 -4.2239134199917316e-03 -1.4005921781063080e-01 -5.4277792572975159e-02 -1.0512378811836243e-01 2.9682056047022343e-03 -9.9429916590452194e-03 -1.0841000825166702e-01 5.3671587258577347e-02 1.2135919183492661e-01 -6.5527923405170441e-02 -7.5710713863372803e-02 6.4420320093631744e-02 -1.3562126457691193e-01 -1.0431091487407684e-01 -4.6044159680604935e-02 1.3981810212135315e-01 5.5589377880096436e-02 -2.5241831317543983e-02 9.8774015903472900e-02 8.7529867887496948e-02 -1.4673092402517796e-02 -1.0877843946218491e-01 -1.7686368525028229e-01 1.2849989533424377e-01 -3.3783327788114548e-02 1.1406246572732925e-02 1.4918850362300873e-01 8.0355979502201080e-02 -4.4240836054086685e-02 -1.2738388776779175e-01 -1.0567519068717957e-01 4.0557198226451874e-02 5.6511841714382172e-02 3.2134857028722763e-02 -8.7152212858200073e-02 7.9949177801609039e-02 -6.1860755085945129e-02 -5.7986844331026077e-02 -1.0480243712663651e-01 -5.8996202424168587e-03 5.6950580328702927e-02 -6.4807839691638947e-02 -2.4099435657262802e-02 1.1739617586135864e-01 3.7610586732625961e-02 4.8529170453548431e-02 6.6189289093017578e-02 2.3887000977993011e-02 7.4474103748798370e-02 8.3305507898330688e-02 5.4609131067991257e-02 5.2473340183496475e-02 1.1916601657867432e-01 1.4103281497955322e-01 1.4855461195111275e-02 -4.6619128435850143e-02 1.1817926913499832e-01 -1.4291930198669434e-01 -1.4075757563114166e-01 4.8319133929908276e-03 3.2962311059236526e-02 7.5335130095481873e-02 -4.2768090963363647e-02 7.2780892252922058e-02 -6.9946609437465668e-02 2.7466151863336563e-02 6.7911550402641296e-02 -7.8518874943256378e-03 2.5908818468451500e-02 -6.9220490753650665e-02 -1.2312742322683334e-01 7.8349627554416656e-02 -1.2842081487178802e-01 3.5490691661834717e-02 1.3387103378772736e-01 -1.3268806040287018e-01 -6.7495331168174744e-02 -8.8160358369350433e-02 -1.0702976956963539e-02 8.1972844898700714e-02 -4.5790340751409531e-02 -7.5237274169921875e-02 6.8742796778678894e-02 -7.6013050973415375e-02 -6.9260917603969574e-02 -5.3026143461465836e-02 -4.6647429466247559e-02 -4.0501207113265991e-02 -3.2709483057260513e-02 -1.1392183601856232e-01 -5.8513589203357697e-02 -3.6154076457023621e-02 9.5438189804553986e-02 9.0112559497356415e-02 -4.8588444478809834e-03 -1.2957732379436493e-01 1.1032205820083618e-01 2.2671170532703400e-02 1.2119071185588837e-01 7.9908072948455811e-02 -1.4290508627891541e-01 1.3673114776611328e-01 -7.7591724693775177e-02 -2.2700451314449310e-02 -3.0851026996970177e-02 8.4315232932567596e-02 -7.3812611401081085e-02 1.2485566735267639e-01 -2.7494095265865326e-03 -1.0854214429855347e-01 1.4565628767013550e-01 1.2281273491680622e-02 -3.7980804336257279e-04 1.2242747843265533e-01 -6.7209094762802124e-02 -1.1833533644676208e-01 -9.2747047543525696e-02 -1.4366930723190308e-01 -1.3650187291204929e-02 -6.9869220256805420e-02 5.4022211581468582e-02 2.5298479944467545e-02 1.1153309047222137e-01 -2.5155574083328247e-02 -1.9412226974964142e-02 -1.8568061292171478e-02 5.4849475622177124e-02 -9.9788710474967957e-02 -6.8805418908596039e-02 -8.3291903138160706e-02 1.4878688380122185e-02 -6.1930075287818909e-02 -7.4079543352127075e-02 4.5613549649715424e-02 6.4458727836608887e-02 -9.4224132597446442e-02 -5.5773198604583740e-02 -4.8352051526308060e-03 -5.1891732960939407e-02 -1.2346991151571274e-01 -6.1446954496204853e-03 1.3382221572101116e-02 2.7867555618286133e-02 3.8324345950968564e-04 6.4553290605545044e-02 -4.9688659608364105e-02 6.3589684665203094e-02 4.5065980404615402e-02 8.0286733806133270e-02 5.6329715996980667e-02 4.7577779740095139e-02 1.3493078947067261e-01 -3.5040643066167831e-02 -1.2735575437545776e-01 -1.3153757154941559e-01 8.8700041174888611e-02 -4.5891374349594116e-02 2.5778645649552345e-02 -1.4906746149063110e-01 4.8574965447187424e-02 -2.3369681090116501e-02 2.3838149383664131e-02 -5.0163060426712036e-02 -1.0325490683317184e-01 1.2149602174758911e-01 -7.0023596286773682e-02 4.9616754055023193e-02 8.9409679174423218e-02 8.6269587278366089e-02 4.1100099682807922e-02 -5.0130270421504974e-02 -1.3614313304424286e-01 -1.4123414456844330e-01 -1.0059844702482224e-01 2.3416589945554733e-02 1.7397766932845116e-02 -2.9967624694108963e-02 1.4200358092784882e-01 -1.3912713527679443e-01 -1.9326811656355858e-02 9.8376676440238953e-02 7.1704544126987457e-02 -2.6285350322723389e-03 1.4723633415997028e-02 -2.8895445168018341e-02 7.2495177388191223e-02 4.3565087020397186e-02 2.4565791711211205e-02 -9.7341857850551605e-02 1.2185298651456833e-01 -7.6848804950714111e-02 1.2363529950380325e-01 -6.6937446594238281e-02 7.4158862233161926e-02 8.9488647878170013e-02 -1.1149765551090240e-01 -1.7367950081825256e-01 1.6061078757047653e-02 6.4765132963657379e-02 -1.0630473494529724e-01 3.3056464046239853e-02 -3.0340226367115974e-02 -1.3340489566326141e-01 -2.4589102715253830e-02 -9.1466270387172699e-03 3.9480388164520264e-02 -1.4065386354923248e-01 -7.6108574867248535e-02 1.3692875206470490e-01 7.1531482040882111e-02 -8.5388630628585815e-02 1.2254456058144569e-02 6.5419070422649384e-02 -9.4742365181446075e-02 2.8154667466878891e-02 7.2195082902908325e-02 3.0762298032641411e-02 7.8518807888031006e-02 1.1912412010133266e-02 4.6491310000419617e-02 -9.9145948886871338e-02 8.4699958562850952e-02 -1.1616448312997818e-01 3.1821664422750473e-02 1.3626872003078461e-01 3.2854075543582439e-03 -8.3203762769699097e-02 -4.3184466660022736e-02 -4.5959550887346268e-02 1.3211904466152191e-01 6.4733132719993591e-02 1.1650069802999496e-01 7.9905711114406586e-02 -1.1204481869935989e-01 -7.5025327503681183e-02 2.1672623232007027e-02 8.4348127245903015e-02 1.4577017724514008e-01 8.6238220334053040e-02 1.4384408481419086e-02 -1.0660353302955627e-01 1.8977705389261246e-02 -1.4258094131946564e-01 4.2234815657138824e-02 2.5811828672885895e-02 1.0077715665102005e-01 -7.6118772849440575e-03 -9.0774141252040863e-02 -1.0578918457031250e-01 4.4177480041980743e-02 -1.0325919836759567e-01 -1.1245261877775192e-01 8.2073286175727844e-02 -5.7608969509601593e-02 -4.0726304054260254e-02 1.3636794686317444e-01 2.2896046284586191e-03 -1.1467430740594864e-01 1.1524425446987152e-01 -3.6036483943462372e-02 -1.1838175356388092e-01 1.7928326502442360e-02 