<?xml version="1.0"?>
<MethodSetup Method="BDT::BDT_comb">
  <GeneralInfo>
    <Info name="TMVA Release" value="4.2.1 [262657]"/>
    <Info name="ROOT Release" value="6.12/04 [396292]"/>
    <Info name="Creator" value="viniciusmikuni"/>
    <Info name="Date" value="Wed Mar 14 13:01:06 2018"/>
    <Info name="Host" value="Darwin Viniciuss-MacBook-Pro.local 17.2.0 Darwin Kernel Version 17.2.0: Fri Sep 29 18:27:05 PDT 2017; root:xnu-4570.20.62~3/RELEASE_X86_64 x86_64"/>
    <Info name="Dir" value="/Users/viniciusmikuni/cernbox/CMS/ttbbAnalysis/KinFitter/test/MVA/BDT"/>
    <Info name="Training events" value="17338136"/>
    <Info name="TrainingTime" value="3.09629207e+04"/>
    <Info name="AnalysisType" value="Classification"/>
  </GeneralInfo>
  <Options>
    <Option name="V" modified="Yes">False</Option>
    <Option name="VerbosityLevel" modified="No">Default</Option>
    <Option name="VarTransform" modified="No">None</Option>
    <Option name="H" modified="Yes">False</Option>
    <Option name="CreateMVAPdfs" modified="No">False</Option>
    <Option name="IgnoreNegWeightsInTraining" modified="No">False</Option>
    <Option name="NTrees" modified="Yes">850</Option>
    <Option name="MaxDepth" modified="Yes">6</Option>
    <Option name="MinNodeSize" modified="No">5%</Option>
    <Option name="nCuts" modified="Yes">30</Option>
    <Option name="BoostType" modified="Yes">Grad</Option>
    <Option name="AdaBoostR2Loss" modified="No">quadratic</Option>
    <Option name="UseBaggedBoost" modified="Yes">True</Option>
    <Option name="Shrinkage" modified="Yes">1.000000e-01</Option>
    <Option name="AdaBoostBeta" modified="No">5.000000e-01</Option>
    <Option name="UseRandomisedTrees" modified="No">False</Option>
    <Option name="UseNvars" modified="No">7</Option>
    <Option name="UsePoissonNvars" modified="No">True</Option>
    <Option name="BaggedSampleFraction" modified="Yes">5.000000e-01</Option>
    <Option name="UseYesNoLeaf" modified="No">True</Option>
    <Option name="NegWeightTreatment" modified="No">pray</Option>
    <Option name="Css" modified="No">1.000000e+00</Option>
    <Option name="Cts_sb" modified="No">1.000000e+00</Option>
    <Option name="Ctb_ss" modified="No">1.000000e+00</Option>
    <Option name="Cbb" modified="No">1.000000e+00</Option>
    <Option name="NodePurityLimit" modified="No">5.000000e-01</Option>
    <Option name="SeparationType" modified="Yes">giniindex</Option>
    <Option name="RegressionLossFunctionBDTG" modified="No">huber</Option>
    <Option name="HuberQuantile" modified="No">7.000000e-01</Option>
    <Option name="DoBoostMonitor" modified="No">False</Option>
    <Option name="UseFisherCuts" modified="No">False</Option>
    <Option name="MinLinCorrForFisher" modified="No">8.000000e-01</Option>
    <Option name="UseExclusiveVars" modified="No">False</Option>
    <Option name="DoPreselection" modified="No">False</Option>
    <Option name="SigToBkgFraction" modified="No">1.000000e+00</Option>
    <Option name="PruneMethod" modified="No">nopruning</Option>
    <Option name="PruneStrength" modified="No">0.000000e+00</Option>
    <Option name="PruningValFraction" modified="No">5.000000e-01</Option>
    <Option name="SkipNormalization" modified="No">False</Option>
    <Option name="nEventsMin" modified="No">0</Option>
    <Option name="UseBaggedGrad" modified="No">False</Option>
    <Option name="GradBaggingFraction" modified="No">5.000000e-01</Option>
    <Option name="UseNTrainEvents" modified="No">0</Option>
    <Option name="NNodesMax" modified="No">0</Option>
  </Options>
  <Variables NVar="44">
    <Variable VarIndex="0" Expression="top1_m" Label="top1_m" Title="top1_m" Unit="" Internal="top1_m" Type="F" Min="8.89210205e+01" Max="2.59288483e+02"/>
    <Variable VarIndex="1" Expression="top2_m" Label="top2_m" Title="top2_m" Unit="" Internal="top2_m" Type="F" Min="8.79547577e+01" Max="2.59323578e+02"/>
    <Variable VarIndex="2" Expression="w1_m" Label="w1_m" Title="w1_m" Unit="" Internal="w1_m" Type="F" Min="1.61241627e+01" Max="1.53660309e+02"/>
    <Variable VarIndex="3" Expression="w2_m" Label="w2_m" Title="w2_m" Unit="" Internal="w2_m" Type="F" Min="1.61241627e+01" Max="1.53899368e+02"/>
    <Variable VarIndex="4" Expression="b1_pt" Label="b1_pt" Title="b1_pt" Unit="" Internal="b1_pt" Type="F" Min="3.00505104e+01" Max="8.41958435e+02"/>
    <Variable VarIndex="5" Expression="b2_pt" Label="b2_pt" Title="b2_pt" Unit="" Internal="b2_pt" Type="F" Min="3.00000572e+01" Max="6.05642944e+02"/>
    <Variable VarIndex="6" Expression="deltaRl1l2" Label="deltaRl1l2" Title="deltaRl1l2" Unit="" Internal="deltaRl1l2" Type="F" Min="3.83472770e-01" Max="4.19805336e+00"/>
    <Variable VarIndex="7" Expression="deltaRq1q2" Label="deltaRq1q2" Title="deltaRq1q2" Unit="" Internal="deltaRq1q2" Type="F" Min="3.83472770e-01" Max="4.27374792e+00"/>
    <Variable VarIndex="8" Expression="deltaRb1b2" Label="deltaRb1b2" Title="deltaRb1b2" Unit="" Internal="deltaRb1b2" Type="F" Min="3.82691145e-01" Max="5.58638334e+00"/>
    <Variable VarIndex="9" Expression="deltaRb1w1" Label="deltaRb1w1" Title="deltaRb1w1" Unit="" Internal="deltaRb1w1" Type="F" Min="1.73881673e-03" Max="8.38610840e+00"/>
    <Variable VarIndex="10" Expression="deltaRb2w2" Label="deltaRb2w2" Title="deltaRb2w2" Unit="" Internal="deltaRb2w2" Type="F" Min="2.05264916e-03" Max="8.38610840e+00"/>
    <Variable VarIndex="11" Expression="deltaPhil1l2" Label="deltaPhil1l2" Title="deltaPhil1l2" Unit="" Internal="deltaPhil1l2" Type="F" Min="-3.14159107e+00" Max="3.14158630e+00"/>
    <Variable VarIndex="12" Expression="deltaPhiq1q2" Label="deltaPhiq1q2" Title="deltaPhiq1q2" Unit="" Internal="deltaPhiq1q2" Type="F" Min="-3.14159107e+00" Max="3.14158630e+00"/>
    <Variable VarIndex="13" Expression="deltaPhib1b2" Label="deltaPhib1b2" Title="deltaPhib1b2" Unit="" Internal="deltaPhib1b2" Type="F" Min="-3.14159131e+00" Max="3.14158630e+00"/>
    <Variable VarIndex="14" Expression="deltaPhiw1w2" Label="deltaPhiw1w2" Title="deltaPhiw1w2" Unit="" Internal="deltaPhiw1w2" Type="F" Min="-3.14159250e+00" Max="3.14159250e+00"/>
    <Variable VarIndex="15" Expression="deltaPhit1t2" Label="deltaPhit1t2" Title="deltaPhit1t2" Unit="" Internal="deltaPhit1t2" Type="F" Min="-3.14159250e+00" Max="3.14159250e+00"/>
    <Variable VarIndex="16" Expression="q1b1_mass" Label="q1b1_mass" Title="q1b1_mass" Unit="" Internal="q1b1_mass" Type="F" Min="2.05666351e+01" Max="2.42710556e+02"/>
    <Variable VarIndex="17" Expression="p1b2_mass" Label="p1b2_mass" Title="p1b2_mass" Unit="" Internal="p1b2_mass" Type="F" Min="1.69169846e+01" Max="2.42880203e+02"/>
    <Variable VarIndex="18" Expression="deltaRb1q1" Label="deltaRb1q1" Title="deltaRb1q1" Unit="" Internal="deltaRb1q1" Type="F" Min="3.87205303e-01" Max="4.43753433e+00"/>
    <Variable VarIndex="19" Expression="deltaRb2p1" Label="deltaRb2p1" Title="deltaRb2p1" Unit="" Internal="deltaRb2p1" Type="F" Min="3.82691145e-01" Max="4.69325924e+00"/>
    <Variable VarIndex="20" Expression="deltaRb1top2" Label="deltaRb1top2" Title="deltaRb1top2" Unit="" Internal="deltaRb1top2" Type="F" Min="6.15026336e-04" Max="1.02034912e+01"/>
    <Variable VarIndex="21" Expression="deltaRb2top1" Label="deltaRb2top1" Title="deltaRb2top1" Unit="" Internal="deltaRb2top1" Type="F" Min="6.15026336e-04" Max="1.02034912e+01"/>
    <Variable VarIndex="22" Expression="deltaRb1w2" Label="deltaRb1w2" Title="deltaRb1w2" Unit="" Internal="deltaRb1w2" Type="F" Min="4.49015148e-04" Max="9.78294849e+00"/>
    <Variable VarIndex="23" Expression="deltaRb2w1" Label="deltaRb2w1" Title="deltaRb2w1" Unit="" Internal="deltaRb2w1" Type="F" Min="2.08615675e-03" Max="9.78294849e+00"/>
    <Variable VarIndex="24" Expression="mindeltaRb1q" Label="mindeltaRb1q" Title="mindeltaRb1q" Unit="" Internal="mindeltaRb1q" Type="F" Min="3.83472770e-01" Max="3.67888093e+00"/>
    <Variable VarIndex="25" Expression="simple_chi2" Label="simple_chi2" Title="simple_chi2" Unit="" Internal="simple_chi2" Type="F" Min="7.75790482e-04" Max="1.84668255e+01"/>
    <Variable VarIndex="26" Expression="mindeltaRb2p" Label="mindeltaRb2p" Title="mindeltaRb2p" Unit="" Internal="mindeltaRb2p" Type="F" Min="3.82691145e-01" Max="3.90591574e+00"/>
    <Variable VarIndex="27" Expression="deltaEtal1l2" Label="deltaEtal1l2" Title="deltaEtal1l2" Unit="" Internal="deltaEtal1l2" Type="F" Min="-3.02853012e+00" Max="3.08491993e+00"/>
    <Variable VarIndex="28" Expression="deltaEtaq1q2" Label="deltaEtaq1q2" Title="deltaEtaq1q2" Unit="" Internal="deltaEtaq1q2" Type="F" Min="-3.09540033e+00" Max="3.14835501e+00"/>
    <Variable VarIndex="29" Expression="deltaEtab1b2" Label="deltaEtab1b2" Title="deltaEtab1b2" Unit="" Internal="deltaEtab1b2" Type="F" Min="-4.75232410e+00" Max="4.74831009e+00"/>
    <Variable VarIndex="30" Expression="deltaEtaw1w2" Label="deltaEtaw1w2" Title="deltaEtaw1w2" Unit="" Internal="deltaEtaw1w2" Type="F" Min="-9.32509804e+00" Max="1.00644016e+01"/>
    <Variable VarIndex="31" Expression="deltaEtat1t2" Label="deltaEtat1t2" Title="deltaEtat1t2" Unit="" Internal="deltaEtat1t2" Type="F" Min="-1.01340265e+01" Max="9.94844913e+00"/>
    <Variable VarIndex="32" Expression="jet_QGL[0]" Label="jet_QGL[0]" Title="jet_QGL[0]" Unit="" Internal="jet_QGL_0_" Type="F" Min="1.00300601e-09" Max="1.00000000e+00"/>
    <Variable VarIndex="33" Expression="jet_QGL[1]" Label="jet_QGL[1]" Title="jet_QGL[1]" Unit="" Internal="jet_QGL_1_" Type="F" Min="1.00300601e-09" Max="1.00000000e+00"/>
    <Variable VarIndex="34" Expression="jet_QGL[2]" Label="jet_QGL[2]" Title="jet_QGL[2]" Unit="" Internal="jet_QGL_2_" Type="F" Min="1.00300601e-09" Max="1.00000000e+00"/>
    <Variable VarIndex="35" Expression="jet_QGL[3]" Label="jet_QGL[3]" Title="jet_QGL[3]" Unit="" Internal="jet_QGL_3_" Type="F" Min="1.00300601e-09" Max="1.00000000e+00"/>
    <Variable VarIndex="36" Expression="jet_QGL[4]" Label="jet_QGL[4]" Title="jet_QGL[4]" Unit="" Internal="jet_QGL_4_" Type="F" Min="1.00300601e-09" Max="1.00000000e+00"/>
    <Variable VarIndex="37" Expression="jet_QGL[5]" Label="jet_QGL[5]" Title="jet_QGL[5]" Unit="" Internal="jet_QGL_5_" Type="F" Min="1.00300601e-09" Max="1.00000000e+00"/>
    <Variable VarIndex="38" Expression="jet_CSV[0]" Label="jet_CSV[0]" Title="jet_CSV[0]" Unit="" Internal="jet_CSV_0_" Type="F" Min="3.42085361e-02" Max="1.00000000e+00"/>
    <Variable VarIndex="39" Expression="jet_CSV[1]" Label="jet_CSV[1]" Title="jet_CSV[1]" Unit="" Internal="jet_CSV_1_" Type="F" Min="3.35376374e-02" Max="1.00000000e+00"/>
    <Variable VarIndex="40" Expression="jet_CSV[2]" Label="jet_CSV[2]" Title="jet_CSV[2]" Unit="" Internal="jet_CSV_2_" Type="F" Min="3.42085361e-02" Max="1.00000000e+00"/>
    <Variable VarIndex="41" Expression="jet_CSV[3]" Label="jet_CSV[3]" Title="jet_CSV[3]" Unit="" Internal="jet_CSV_3_" Type="F" Min="3.35376374e-02" Max="1.00000000e+00"/>
    <Variable VarIndex="42" Expression="jet_CSV[4]" Label="jet_CSV[4]" Title="jet_CSV[4]" Unit="" Internal="jet_CSV_4_" Type="F" Min="3.42085361e-02" Max="1.00000000e+00"/>
    <Variable VarIndex="43" Expression="jet_CSV[5]" Label="jet_CSV[5]" Title="jet_CSV[5]" Unit="" Internal="jet_CSV_5_" Type="F" Min="3.35376374e-02" Max="1.00000000e+00"/>
  </Variables>
  <Spectators NSpec="0"/>
  <Classes NClass="2">
    <Class Name="Signal" Index="0"/>
    <Class Name="Background" Index="1"/>
  </Classes>
  <Transformations NTransformations="0"/>
  <MVAPdfs/>
  <Weights NTrees="850" AnalysisType="1">
    <BinaryTree type="DecisionTree" boostWeight="1.0000000000000000e+00" itree="0">
      <Node pos="s" depth="0" NCoef="0" IVar="39" Cut="8.1294274330139160e-01" cType="1" res="8.5559862782247365e-05" rms="5.0000000000000000e-01" purity="5.0008559226989746e-01" nType="0">
        <Node pos="l" depth="1" NCoef="0" IVar="25" Cut="2.9797999858856201e+00" cType="1" res="-3.9183461666107178e-01" rms="3.1058916449546814e-01" purity="1.0816538333892822e-01" nType="0">
          <Node pos="l" depth="2" NCoef="0" IVar="-1" Cut="0.0000000000000000e+00" cType="1" res="-1.2718213722109795e-02" rms="4.9593970179557800e-01" purity="4.3640893697738647e-01" nType="-99"/>
          <Node pos="r" depth="2" NCoef="0" IVar="38" Cut="8.4425354003906250e-01" cType="1" res="-4.4004791975021362e-01" rms="2.3739802837371826e-01" purity="5.9952080249786377e-02" nType="0">
            <Node pos="l" depth="3" NCoef="0" IVar="38" Cut="3.7399944663047791e-01" cType="1" res="-4.9455413222312927e-01" rms="7.3594808578491211e-02" purity="5.4458538070321083e-03" nType="0">
              <Node pos="l" depth="4" NCoef="0" IVar="39" Cut="2.8495845198631287e-01" cType="1" res="-4.9797353148460388e-01" rms="4.4970735907554626e-02" purity="2.0264738705009222e-03" nType="0">
                <Node pos="l" depth="5" NCoef="0" IVar="11" Cut="-3.0403211712837219e-01" cType="1" res="-4.9962201714515686e-01" rms="1.9437966868281364e-02" purity="3.7797738332301378e-04" nType="0">
                  <Node pos="l" depth="6" NCoef="0" IVar="-1" Cut="0.0000000000000000e+00" cType="1" res="-9.9835142493247986e-02" rms="2.8698353096842766e-02" purity="8.2427484448999166e-04" nType="-99"/>
                  <Node pos="r" depth="6" NCoef="0" IVar="-1" Cut="0.0000000000000000e+00" cType="1" res="-1.0000000149011612e-01" rms="0.0000000000000000e+00" purity="0.0000000000000000e+00" nType="-99"/>
                </Node>
                <Node pos="r" depth="5" NCoef="0" IVar="-1" Cut="0.0000000000000000e+00" cType="1" res="-9.8932586610317230e-02" rms="7.2860009968280792e-02" purity="5.3370650857686996e-03" nType="-99"/>
              </Node>
              <Node pos="r" depth="4" NCoef="0" IVar="-1" Cut="0.0000000000000000e+00" cType="1" res="-9.6771523356437683e-02" rms="1.2602300941944122e-01" purity="1.6142373904585838e-02" nType="-99"/>
            </Node>
            <Node pos="r" depth="3" NCoef="0" IVar="39" Cut="3.1010055541992188e-01" cType="1" res="-3.5557904839515686e-01" rms="3.5151606798171997e-01" purity="1.4442095160484314e-01" nType="0">
              <Node pos="l" depth="4" NCoef="0" IVar="-1" Cut="0.0000000000000000e+00" cType="1" res="-8.8132858276367188e-02" rms="2.3625193536281586e-01" purity="5.9335697442293167e-02" nType="-99"/>
              <Node pos="r" depth="4" NCoef="0" IVar="-1" Cut="0.0000000000000000e+00" cType="1" res="-4.1064117103815079e-02" rms="4.5589852333068848e-01" purity="2.9467940330505371e-01" nType="-99"/>
            </Node>
          </Node>
        </Node>
        <Node pos="r" depth="1" NCoef="0" IVar="38" Cut="6.8859821557998657e-01" cType="1" res="2.6875439286231995e-01" rms="4.2162907123565674e-01" purity="7.6875436305999756e-01" nType="0">
          <Node pos="l" depth="2" NCoef="0" IVar="25" Cut="6.5532422065734863e+00" cType="1" res="-2.6212602853775024e-01" rms="4.2578157782554626e-01" purity="2.3787398636341095e-01" nType="0">
            <Node pos="l" depth="3" NCoef="0" IVar="-1" Cut="0.0000000000000000e+00" cType="1" res="-9.2354845255613327e-03" rms="4.9786308407783508e-01" purity="4.5382258296012878e-01" nType="-99"/>
            <Node pos="r" depth="3" NCoef="0" IVar="-1" Cut="0.0000000000000000e+00" cType="1" res="-8.3123467862606049e-02" rms="2.7796083688735962e-01" purity="8.4382660686969757e-02" nType="-99"/>
          </Node>
          <Node pos="r" depth="2" NCoef="0" IVar="-1" Cut="0.0000000000000000e+00" cType="1" res="8.2557991147041321e-02" rms="2.8214260935783386e-01" purity="9.1278994083404541e-01" nType="-99"/>
        </Node>
      </Node>
    </BinaryTree>
    <BinaryTree type="DecisionTree" boostWeight="1.0000000000000000e+00" itree="1">
      <Node pos="s" depth="0" NCoef="0" IVar="39" Cut="7.8176653385162354e-01" cType="1" res="-6.4216682221740484e-04" rms="4.6770420670509338e-01" purity="4.9934956431388855e-01" nType="0">
        <Node pos="l" depth="1" NCoef="0" IVar="25" Cut="2.9811205863952637e+00" cType="1" res="-3.6075353622436523e-01" rms="2.9265457391738892e-01" purity="9.9815890192985535e-02" nType="0">
          <Node pos="l" depth="2" NCoef="0" IVar="-1" Cut="0.0000000000000000e+00" cType="1" res="-1.3675200752913952e-02" rms="4.9436706304550171e-01" purity="4.2525824904441833e-01" nType="-99"/>
          <Node pos="r" depth="2" NCoef="0" IVar="38" Cut="8.4425354003906250e-01" cType="1" res="-4.0296801924705505e-01" rms="2.2045700252056122e-01" purity="5.2829209715127945e-02" nType="0">
            <Node pos="l" depth="3" NCoef="0" IVar="38" Cut="3.4787425398826599e-01" cType="1" res="-4.4605010747909546e-01" rms="6.7988373339176178e-02" purity="4.6505834907293320e-03" nType="0">
              <Node pos="l" depth="4" NCoef="0" IVar="25" Cut="8.4760513305664062e+00" cType="1" res="-4.4896325469017029e-01" rms="3.7351440638303757e-02" purity="1.3975539477542043e-03" nType="0">
                <Node pos="l" depth="5" NCoef="0" IVar="-1" Cut="0.0000000000000000e+00" cType="1" res="-9.0235888957977295e-02" rms="6.0119297355413437e-02" purity="3.6286488175392151e-03" nType="-99"/>
                <Node pos="r" depth="5" NCoef="0" IVar="6" Cut="1.5795714855194092e+00" cType="1" res="-4.5009437203407288e-01" rms="1.6311429440975189e-02" purity="2.6625776081345975e-04" nType="0">
                  <Node pos="l" depth="6" NCoef="0" IVar="-1" Cut="0.0000000000000000e+00" cType="1" res="-9.0857379138469696e-02" rms="2.3462386801838875e-02" purity="5.5110111134126782e-04" nType="-99"/>
                  <Node pos="r" depth="6" NCoef="0" IVar="-1" Cut="0.0000000000000000e+00" cType="1" res="-9.0968817472457886e-02" rms="2.2974929015617818e-04" purity="0.0000000000000000e+00" nType="-99"/>
                </Node>
              </Node>
              <Node pos="r" depth="4" NCoef="0" IVar="-1" Cut="0.0000000000000000e+00" cType="1" res="-8.8399305939674377e-02" rms="1.1662001907825470e-01" purity="1.3791581615805626e-02" nType="-99"/>
            </Node>
            <Node pos="r" depth="3" NCoef="0" IVar="7" Cut="1.2290952205657959e+00" cType="1" res="-3.3492088317871094e-01" rms="3.3241963386535645e-01" purity="1.2892615795135498e-01" nType="0">
              <Node pos="l" depth="4" NCoef="0" IVar="-1" Cut="0.0000000000000000e+00" cType="1" res="-4.8949562013149261e-02" rms="4.1170009970664978e-01" purity="2.2136211395263672e-01" nType="-99"/>
              <Node pos="r" depth="4" NCoef="0" IVar="-1" Cut="0.0000000000000000e+00" cType="1" res="-7.8705713152885437e-02" rms="2.5668388605117798e-01" purity="7.2058096528053284e-02" nType="-99"/>
            </Node>
          </Node>
        </Node>
        <Node pos="r" depth="1" NCoef="0" IVar="38" Cut="7.1971029043197632e-01" cType="1" res="2.3675027489662170e-01" rms="4.0576696395874023e-01" purity="7.6272994279861450e-01" nType="0">
          <Node pos="l" depth="2" NCoef="0" IVar="25" Cut="5.9575519561767578e+00" cType="1" res="-2.3414072394371033e-01" rms="4.1883039474487305e-01" purity="2.4091310799121857e-01" nType="0">
            <Node pos="l" depth="3" NCoef="0" IVar="-1" Cut="0.0000000000000000e+00" cType="1" res="-1.1888232547789812e-03" rms="4.9861794710159302e-01" purity="4.9046623706817627e-01" nType="-99"/>
            <Node pos="r" depth="3" NCoef="0" IVar="-1" Cut="0.0000000000000000e+00" cType="1" res="-7.6362259685993195e-02" rms="2.7324914932250977e-01" purity="8.2178652286529541e-02" nType="-99"/>
          </Node>
          <Node pos="r" depth="2" NCoef="0" IVar="-1" Cut="0.0000000000000000e+00" cType="1" res="7.4587307870388031e-02" rms="2.8419744968414307e-01" purity="9.1086941957473755e-01" nType="-99"/>
        </Node>
      </Node>
    </BinaryTree>
    <BinaryTree type="DecisionTree" boostWeight="1.0000000000000000e+00" itree="2">
      <Node pos="s" depth="0" NCoef="0" IVar="39" Cut="8.4411895275115967e-01" cType="1" res="-1.6752341762185097e-03" rms="4.4003009796142578e-01" purity="4.9789041280746460e-01" nType="0">
        <Node pos="l" depth="1" NCoef="0" IVar="25" Cut="3.5767245292663574e+00" cType="1" res="-3.1150472164154053e-01" rms="3.0484631657600403e-01" purity="1.1736954748630524e-01" nType="0">
          <Node pos="l" depth="2" NCoef="0" IVar="-1" Cut="0.0000000000000000e+00" cType="1" res="-1.3650801032781601e-02" rms="4.8096042871475220e-01" purity="4.1283211112022400e-01" nType="-99"/>
          <Node pos="r" depth="2" NCoef="0" IVar="38" Cut="8.4428346157073975e-01" cType="1" res="-3.5910069942474365e-01" rms="2.2811815142631531e-01" purity="5.9663277119398117e-02" nType="0">
            <Node pos="l" depth="3" NCoef="0" IVar="25" Cut="7.4193310737609863e+00" cType="1" res="-4.0251809358596802e-01" rms="6.9354578852653503e-02" purity="4.9451533704996109e-03" nType="0">
              <Node pos="l" depth="4" NCoef="0" IVar="-1" Cut="0.0000000000000000e+00" cType="1" res="-8.1569530069828033e-02" rms="1.1839433759450912e-01" purity="1.4620481990277767e-02" nType="-99"/>
              <Node pos="r" depth="4" NCoef="0" IVar="6" Cut="1.2336198091506958e+00" cType="1" res="-4.0528297424316406e-01" rms="4.2361486703157425e-02" purity="1.8090731464326382e-03" nType="0">
                <Node pos="l" depth="5" NCoef="0" IVar="-1" Cut="0.0000000000000000e+00" cType="1" res="-8.3392307162284851e-02" rms="6.7346043884754181e-02" purity="4.6666138805449009e-03" nType="-99"/>
                <Node pos="r" depth="5" NCoef="0" IVar="38" Cut="1.9127810001373291e-01" cType="1" res="-4.0654373168945312e-01" rms="2.3288892582058907e-02" purity="5.0900917267426848e-04" nType="0">
                  <Node pos="l" depth="6" NCoef="0" IVar="-1" Cut="0.0000000000000000e+00" cType="1" res="-8.4153465926647186e-02" rms="1.6730556264519691e-02" purity="2.7572136605158448e-04" nType="-99"/>
                  <Node pos="r" depth="6" NCoef="0" IVar="-1" Cut="0.0000000000000000e+00" cType="1" res="-8.4323488175868988e-02" rms="2.9198665171861649e-02" purity="7.8549288446083665e-04" nType="-99"/>
                </Node>
              </Node>
            </Node>
            <Node pos="r" depth="3" NCoef="0" IVar="39" Cut="2.9501527547836304e-01" cType="1" res="-2.9140946269035339e-01" rms="3.4372785687446594e-01" purity="1.4497330784797668e-01" nType="0">
              <Node pos="l" depth="4" NCoef="0" IVar="-1" Cut="0.0000000000000000e+00" cType="1" res="-7.3657773435115814e-02" rms="2.4235573410987854e-01" purity="6.3121825456619263e-02" nType="-99"/>
              <Node pos="r" depth="4" NCoef="0" IVar="-1" Cut="0.0000000000000000e+00" cType="1" res="-3.7013962864875793e-02" rms="4.4037955999374390e-01" purity="2.7580693364143372e-01" nType="-99"/>
            </Node>
          </Node>
        </Node>
        <Node pos="r" depth="1" NCoef="0" IVar="38" Cut="5.3289729356765747e-01" cType="1" res="2.2215174138545990e-01" rms="3.8330668210983276e-01" purity="7.7278625965118408e-01" nType="0">
          <Node pos="l" depth="2" NCoef="0" IVar="25" Cut="8.3402547836303711e+00" cType="1" res="-2.5289753079414368e-01" rms="3.8324096798896790e-01" purity="1.9625638425350189e-01" nType="0">
            <Node pos="l" depth="3" NCoef="0" IVar="-1" Cut="0.0000000000000000e+00" cType="1" res="-2.7499603107571602e-02" rms="4.6651697158813477e-01" purity="3.4086850285530090e-01" nType="-99"/>
            <Node pos="r" depth="3" NCoef="0" IVar="-1" Cut="0.0000000000000000e+00" cType="1" res="-7.5512565672397614e-02" rms="2.2364728152751923e-01" purity="5.2806656807661057e-02" nType="-99"/>
          </Node>
          <Node pos="r" depth="2" NCoef="0" IVar="-1" Cut="0.0000000000000000e+00" cType="1" res="6.7507751286029816e-02" rms="2.9050514101982117e-01" purity="9.0310645103454590e-01" nType="-99"/>
        </Node>
      </Node>
    </BinaryTree>
    <BinaryTree type="DecisionTree" boostWeight="1.0000000000000000e+00" itree="3">
      <Node pos="s" depth="0" NCoef="0" IVar="39" Cut="7.1967911720275879e-01" cType="1" res="5.5205746321007609e-04" rms="4.1594967246055603e-01" purity="5.0107020139694214e-01" nType="0">
        <Node pos="l" depth="1" NCoef="0" IVar="25" Cut="4.1711101531982422e+00" cType="1" res="-3.0728736519813538e-01" rms="2.6372912526130676e-01" purity="8.5137471556663513e-02" nType="0">
          <Node pos="l" depth="2" NCoef="0" IVar="-1" Cut="0.0000000000000000e+00" cType="1" res="-3.0800767242908478e-02" rms="4.4826641678810120e-01" purity="3.0012971162796021e-01" nType="-99"/>
          <Node pos="r" depth="2" NCoef="0" IVar="38" Cut="8.4422719478607178e-01" cType="1" res="-3.4169214963912964e-01" rms="1.8436889350414276e-01" purity="3.7655714899301529e-02" nType="0">
            <Node pos="l" depth="3" NCoef="0" IVar="32" Cut="2.5806450843811035e-01" cType="1" res="-3.6374938488006592e-01" rms="5.7099487632513046e-02" purity="3.2796799205243587e-03" nType="0">
              <Node pos="l" depth="4" NCoef="0" IVar="-1" Cut="0.0000000000000000e+00" cType="1" res="-7.7294185757637024e-02" rms="8.8577322661876678e-02" purity="7.9320939257740974e-03" nType="-99"/>
              <Node pos="r" depth="4" NCoef="0" IVar="20" Cut="2.4971780776977539e+00" cType="1" res="-3.6590799689292908e-01" rms="3.2983247190713882e-02" purity="1.0903386864811182e-03" nType="0">
                <Node pos="l" depth="5" NCoef="0" IVar="-1" Cut="0.0000000000000000e+00" cType="1" res="-7.8480929136276245e-02" rms="4.8392239958047867e-02" purity="2.3515061475336552e-03" nType="-99"/>
                <Node pos="r" depth="5" NCoef="0" IVar="-1" Cut="0.0000000000000000e+00" cType="1" res="-7.8970737755298615e-02" rms="9.7280703485012054e-03" purity="9.3659386038780212e-05" nType="-99"/>
              </Node>
            </Node>
            <Node pos="r" depth="3" NCoef="0" IVar="6" Cut="1.4754519462585449e+00" cType="1" res="-3.0522593855857849e-01" rms="2.8751471638679504e-01" purity="9.4487942755222321e-02" nType="0">
              <Node pos="l" depth="4" NCoef="0" IVar="-1" Cut="0.0000000000000000e+00" cType="1" res="-5.1945179700851440e-02" rms="3.5272729396820068e-01" purity="1.5221042931079865e-01" nType="-99"/>
              <Node pos="r" depth="4" NCoef="0" IVar="-1" Cut="0.0000000000000000e+00" cType="1" res="-7.4464716017246246e-02" rms="1.9779312610626221e-01" purity="4.1858840733766556e-02" nType="-99"/>
            </Node>
          </Node>
        </Node>
        <Node pos="r" depth="1" NCoef="0" IVar="38" Cut="7.5087857246398926e-01" cType="1" res="1.8864966928958893e-01" rms="3.7808313965797424e-01" purity="7.5521552562713623e-01" nType="0">
          <Node pos="l" depth="2" NCoef="0" IVar="25" Cut="5.9575629234313965e+00" cType="1" res="-1.9823196530342102e-01" rms="3.9879551529884338e-01" purity="2.3779299855232239e-01" nType="0">
            <Node pos="l" depth="3" NCoef="0" IVar="-1" Cut="0.0000000000000000e+00" cType="1" res="-2.5633214972913265e-03" rms="4.8912987112998962e-01" purity="4.8046144843101501e-01" nType="-99"/>
            <Node pos="r" depth="3" NCoef="0" IVar="-1" Cut="0.0000000000000000e+00" cType="1" res="-6.5413080155849457e-02" rms="2.7529627084732056e-01" purity="8.8940545916557312e-02" nType="-99"/>
          </Node>
          <Node pos="r" depth="2" NCoef="0" IVar="-1" Cut="0.0000000000000000e+00" cType="1" res="6.3562698662281036e-02" rms="2.8452754020690918e-01" purity="9.0798461437225342e-01" nType="-99"/>
        </Node>
      </Node>
    </BinaryTree>
    <BinaryTree type="DecisionTree" boostWeight="1.0000000000000000e+00" itree="4">
      <Node pos="s" depth="0" NCoef="0" IVar="39" Cut="8.4411895275115967e-01" cType="1" res="2.6641582371667027e-04" rms="3.9567801356315613e-01" purity="5.0018936395645142e-01" nType="0">
        <Node pos="l" depth="1" NCoef="0" IVar="38" Cut="8.4422719478607178e-01" cType="1" res="-2.5534299015998840e-01" rms="2.9219284653663635e-01" purity="1.1615017056465149e-01" nType="0">
          <Node pos="l" depth="2" NCoef="0" IVar="25" Cut="5.9610838890075684e+00" cType="1" res="-3.3449801802635193e-01" rms="1.0367622971534729e-01" purity="1.0980464518070221e-02" nType="0">
            <Node pos="l" depth="3" NCoef="0" IVar="-1" Cut="0.0000000000000000e+00" cType="1" res="-7.5585611164569855e-02" rms="1.8327893316745758e-01" purity="3.4544862806797028e-02" nType="-99"/>
            <Node pos="r" depth="3" NCoef="0" IVar="7" Cut="1.2671041488647461e+00" cType="1" res="-3.2865449786186218e-01" rms="6.0359824448823929e-02" purity="3.8012769073247910e-03" nType="0">
              <Node pos="l" depth="4" NCoef="0" IVar="-1" Cut="0.0000000000000000e+00" cType="1" res="-7.3016256093978882e-02" rms="9.0290673077106476e-02" purity="8.6590498685836792e-03" nType="-99"/>
              <Node pos="r" depth="4" NCoef="0" IVar="37" Cut="4.5161288976669312e-01" cType="1" res="-3.3125987648963928e-01" rms="3.3122200518846512e-02" purity="1.0785153135657310e-03" nType="0">
                <Node pos="l" depth="5" NCoef="0" IVar="-1" Cut="0.0000000000000000e+00" cType="1" res="-7.4908345937728882e-02" rms="8.4552289918065071e-03" purity="0.0000000000000000e+00" nType="-99"/>
                <Node pos="r" depth="5" NCoef="0" IVar="-1" Cut="0.0000000000000000e+00" cType="1" res="-7.4450507760047913e-02" rms="4.5233827084302902e-02" purity="2.0785517990589142e-03" nType="-99"/>
              </Node>
            </Node>
          </Node>
          <Node pos="r" depth="2" NCoef="0" IVar="25" Cut="4.7700777053833008e+00" cType="1" res="-1.5067072212696075e-01" rms="4.0598124265670776e-01" purity="2.5522348284721375e-01" nType="0">
            <Node pos="l" depth="3" NCoef="0" IVar="-1" Cut="0.0000000000000000e+00" cType="1" res="1.8494401127099991e-02" rms="4.7722432017326355e-01" purity="5.4758793115615845e-01" nType="-99"/>
            <Node pos="r" depth="3" NCoef="0" IVar="3" Cut="9.6022552490234375e+01" cType="1" res="-2.6168173551559448e-01" rms="3.1106624007225037e-01" purity="1.2068866193294525e-01" nType="0">
              <Node pos="l" depth="4" NCoef="0" IVar="-1" Cut="0.0000000000000000e+00" cType="1" res="-4.4834464788436890e-02" rms="3.6556428670883179e-01" purity="1.7666019499301910e-01" nType="-99"/>
              <Node pos="r" depth="4" NCoef="0" IVar="-1" Cut="0.0000000000000000e+00" cType="1" res="-7.0062525570392609e-02" rms="2.0772603154182434e-01" purity="5.0596132874488831e-02" nType="-99"/>
            </Node>
          </Node>
        </Node>
        <Node pos="r" depth="1" NCoef="0" IVar="38" Cut="5.6383609771728516e-01" cType="1" res="1.8295542895793915e-01" rms="3.5688328742980957e-01" purity="7.7466964721679688e-01" nType="0">
          <Node pos="l" depth="2" NCoef="0" IVar="7" Cut="1.2563427686691284e+00" cType="1" res="-2.0501177012920380e-01" rms="3.7876677513122559e-01" purity="2.0035757124423981e-01" nType="0">
            <Node pos="l" depth="3" NCoef="0" IVar="-1" Cut="0.0000000000000000e+00" cType="1" res="-2.0786939188838005e-02" rms="4.4055601954460144e-01" purity="3.1809431314468384e-01" nType="-99"/>
            <Node pos="r" depth="3" NCoef="0" IVar="-1" Cut="0.0000000000000000e+00" cType="1" res="-6.2694303691387177e-02" rms="2.8658014535903931e-01" purity="9.9091321229934692e-02" nType="-99"/>
          </Node>
          <Node pos="r" depth="2" NCoef="0" IVar="-1" Cut="0.0000000000000000e+00" cType="1" res="5.8930579572916031e-02" rms="2.8466874361038208e-01" purity="9.0687102079391479e-01" nType="-99"/>
        </Node>
      </Node>
    </BinaryTree>
    <BinaryTree type="DecisionTree" boostWeight="1.0000000000000000e+00" itree="5">
      <Node pos="s" depth="0" NCoef="0" IVar="39" Cut="6.8823796510696411e-01" cType="1" res="1.4476857613772154e-03" rms="3.7746828794479370e-01" purity="5.0139153003692627e-01" nType="0">
        <Node pos="l" depth="1" NCoef="0" IVar="38" Cut="8.4422719478607178e-01" cType="1" res="-2.5219565629959106e-01" rms="2.5433704257011414e-01" purity="8.4298409521579742e-02" nType="0">
          <Node pos="l" depth="2" NCoef="0" IVar="25" Cut="5.9591412544250488e+00" cType="1" res="-3.0440962314605713e-01" rms="8.3828099071979523e-02" purity="6.5507935360074043e-03" nType="0">
            <Node pos="l" depth="3" NCoef="0" IVar="-1" Cut="0.0000000000000000e+00" cType="1" res="-7.3085710406303406e-02" rms="1.5230192244052887e-01" purity="2.1805007010698318e-02" nType="-99"/>
            <Node pos="r" depth="3" NCoef="0" IVar="32" Cut="2.2580645978450775e-01" cType="1" res="-2.9739785194396973e-01" rms="4.4279284775257111e-02" purity="1.9717677496373653e-03" nType="0">
              <Node pos="l" depth="4" NCoef="0" IVar="-1" Cut="0.0000000000000000e+00" cType="1" res="-6.9967158138751984e-02" rms="7.7547073364257812e-02" purity="6.0697970911860466e-03" nType="-99"/>
              <Node pos="r" depth="4" NCoef="0" IVar="38" Cut="1.9098547101020813e-01" cType="1" res="-2.9896616935729980e-01" rms="1.4136359095573425e-02" purity="1.9957740732934326e-04" nType="0">
                <Node pos="l" depth="5" NCoef="0" IVar="-1" Cut="0.0000000000000000e+00" cType="1" res="-7.1292065083980560e-02" rms="6.0410582227632403e-04" purity="0.0000000000000000e+00" nType="-99"/>
                <Node pos="r" depth="5" NCoef="0" IVar="-1" Cut="0.0000000000000000e+00" cType="1" res="-7.1301899850368500e-02" rms="2.1406333893537521e-02" purity="4.5839100494049489e-04" nType="-99"/>
              </Node>
            </Node>
          </Node>
          <Node pos="r" depth="2" NCoef="0" IVar="25" Cut="5.9610991477966309e+00" cType="1" res="-1.7774157226085663e-01" rms="3.7077808380126953e-01" purity="1.9516195356845856e-01" nType="0">
            <Node pos="l" depth="3" NCoef="0" IVar="-1" Cut="0.0000000000000000e+00" cType="1" res="-3.2576587982475758e-03" rms="4.7328507900238037e-01" purity="4.1121229529380798e-01" nType="-99"/>
            <Node pos="r" depth="3" NCoef="0" IVar="-1" Cut="0.0000000000000000e+00" cType="1" res="-5.9600993990898132e-02" rms="2.5786599516868591e-01" purity="7.4773304164409637e-02" nType="-99"/>
          </Node>
        </Node>
        <Node pos="r" depth="1" NCoef="0" IVar="38" Cut="4.3915987014770508e-01" cType="1" res="1.5268595516681671e-01" rms="3.5726046562194824e-01" purity="7.5008893013000488e-01" nType="0">
          <Node pos="l" depth="2" NCoef="0" IVar="6" Cut="1.4579107761383057e+00" cType="1" res="-2.1367719769477844e-01" rms="3.4570074081420898e-01" purity="1.6224807500839233e-01" nType="0">
            <Node pos="l" depth="3" NCoef="0" IVar="-1" Cut="0.0000000000000000e+00" cType="1" res="-2.6452241465449333e-02" rms="4.1062647104263306e-01" purity="2.6104313135147095e-01" nType="-99"/>
            <Node pos="r" depth="3" NCoef="0" IVar="-1" Cut="0.0000000000000000e+00" cType="1" res="-6.4595609903335571e-02" rms="2.4570281803607941e-01" purity="7.2095684707164764e-02" nType="-99"/>
          </Node>
          <Node pos="r" depth="2" NCoef="0" IVar="25" Cut="7.7470297813415527e+00" cType="1" res="2.3275113105773926e-01" rms="3.0605152249336243e-01" purity="8.7855589389801025e-01" nType="0">
            <Node pos="l" depth="3" NCoef="0" IVar="-1" Cut="0.0000000000000000e+00" cType="1" res="6.3782744109630585e-02" rms="2.2958974540233612e-01" purity="9.3887913227081299e-01" nType="-99"/>
            <Node pos="r" depth="3" NCoef="0" IVar="-1" Cut="0.0000000000000000e+00" cType="1" res="8.4175113588571548e-03" rms="4.4120952486991882e-01" purity="6.5858930349349976e-01" nType="-99"/>
          </Node>
        </Node>
      </Node>
    </BinaryTree>
    <BinaryTree type="DecisionTree" boostWeight="1.0000000000000000e+00" itree="6">
      <Node pos="s" depth="0" NCoef="0" IVar="39" Cut="8.4411895275115967e-01" cType="1" res="-6.6629913635551929e-04" rms="3.6040574312210083e-01" purity="4.9904730916023254e-01" nType="0">
        <Node pos="l" depth="1" NCoef="0" IVar="25" Cut="2.9824423789978027e+00" cType="1" res="-2.0961216092109680e-01" rms="2.7798289060592651e-01" purity="1.1530105024576187e-01" nType="0">
          <Node pos="l" depth="2" NCoef="0" IVar="-1" Cut="0.0000000000000000e+00" cType="1" res="-3.3840632531791925e-03" rms="4.6282517910003662e-01" purity="4.4818085432052612e-01" nType="-99"/>
          <Node pos="r" depth="2" NCoef="0" IVar="39" Cut="5.5649292469024658e-01" cType="1" res="-2.3841266334056854e-01" rms="2.2462794184684753e-01" purity="6.5643690526485443e-02" nType="0">
            <Node pos="l" depth="3" NCoef="0" IVar="6" Cut="1.3403517007827759e+00" cType="1" res="-2.5684961676597595e-01" rms="1.7744341492652893e-01" purity="3.5962566733360291e-02" nType="0">
              <Node pos="l" depth="4" NCoef="0" IVar="38" Cut="6.2614524364471436e-01" cType="1" res="-2.3510557413101196e-01" rms="2.2890439629554749e-01" purity="6.2262743711471558e-02" nType="0">
                <Node pos="l" depth="5" NCoef="0" IVar="-1" Cut="0.0000000000000000e+00" cType="1" res="-6.7643024027347565e-02" rms="6.5727710723876953e-02" purity="4.3322704732418060e-03" nType="-99"/>
                <Node pos="r" depth="5" NCoef="0" IVar="-1" Cut="0.0000000000000000e+00" cType="1" res="-4.5062959194183350e-02" rms="3.2485586404800415e-01" purity="1.2955960631370544e-01" nType="-99"/>
              </Node>
              <Node pos="r" depth="4" NCoef="0" IVar="6" Cut="1.8728094100952148e+00" cType="1" res="-2.7031955122947693e-01" rms="1.3437972962856293e-01" purity="1.9670203328132629e-02" nType="0">
                <Node pos="l" depth="5" NCoef="0" IVar="-1" Cut="0.0000000000000000e+00" cType="1" res="-6.2824532389640808e-02" rms="1.7221580445766449e-01" purity="3.3270396292209625e-02" nType="-99"/>
                <Node pos="r" depth="5" NCoef="0" IVar="38" Cut="5.6390988826751709e-01" cType="1" res="-2.7858740091323853e-01" rms="1.0038367658853531e-01" purity="1.0512462817132473e-02" nType="0">
                  <Node pos="l" depth="6" NCoef="0" IVar="-1" Cut="0.0000000000000000e+00" cType="1" res="-6.8629361689090729e-02" rms="1.7749361693859100e-02" purity="2.7232425054535270e-04" nType="-99"/>
                  <Node pos="r" depth="6" NCoef="0" IVar="-1" Cut="0.0000000000000000e+00" cType="1" res="-6.7415505647659302e-02" rms="1.4888069033622742e-01" purity="2.3335572332143784e-02" nType="-99"/>
                </Node>
              </Node>
            </Node>
            <Node pos="r" depth="3" NCoef="0" IVar="-1" Cut="0.0000000000000000e+00" cType="1" res="-3.0680932104587555e-02" rms="3.7860161066055298e-01" purity="2.3026676476001740e-01" nType="-99"/>
          </Node>
        </Node>
        <Node pos="r" depth="1" NCoef="0" IVar="38" Cut="8.4433108568191528e-01" cType="1" res="1.4893929660320282e-01" rms="3.3752843737602234e-01" purity="7.7381032705307007e-01" nType="0">
          <Node pos="l" depth="2" NCoef="0" IVar="25" Cut="5.9575605392456055e+00" cType="1" res="-1.1803299933671951e-01" rms="4.0513184666633606e-01" purity="3.1106668710708618e-01" nType="0">
            <Node pos="l" depth="3" NCoef="0" IVar="-1" Cut="0.0000000000000000e+00" cType="1" res="1.1307987384498119e-02" rms="4.5902499556541443e-01" purity="5.7119590044021606e-01" nType="-99"/>
            <Node pos="r" depth="3" NCoef="0" IVar="-1" Cut="0.0000000000000000e+00" cType="1" res="-5.5345393717288971e-02" rms="3.0360260605812073e-01" purity="1.2000969052314758e-01" nType="-99"/>
          </Node>
          <Node pos="r" depth="2" NCoef="0" IVar="-1" Cut="0.0000000000000000e+00" cType="1" res="5.5643450468778610e-02" rms="2.5599151849746704e-01" purity="9.2800581455230713e-01" nType="-99"/>
        </Node>
      </Node>
    </BinaryTree>
    <BinaryTree type="DecisionTree" boostWeight="1.0000000000000000e+00" itree="7">
      <Node pos="s" depth="0" NCoef="0" IVar="39" Cut="6.5706175565719604e-01" cType="1" res="-2.6879616780206561e-04" rms="3.4667089581489563e-01" purity="4.9996629357337952e-01" nType="0">
        <Node pos="l" depth="1" NCoef="0" IVar="38" Cut="8.4422719478607178e-01" cType="1" res="-2.1154919266700745e-01" rms="2.3994053900241852e-01" purity="7.7932171523571014e-02" nType="0">
          <Node pos="l" depth="2" NCoef="0" IVar="25" Cut="5.9591383934020996e+00" cType="1" res="-2.5281056761741638e-01" rms="7.9573169350624084e-02" purity="5.6760921142995358e-03" nType="0">
            <Node pos="l" depth="3" NCoef="0" IVar="-1" Cut="0.0000000000000000e+00" cType="1" res="-6.8204633891582489e-02" rms="1.4540769159793854e-01" purity="1.9318746402859688e-02" nType="-99"/>
            <Node pos="r" depth="3" NCoef="0" IVar="33" Cut="4.8387098312377930e-01" cType="1" res="-2.4435131251811981e-01" rms="3.9730511605739594e-02" purity="1.5834553632885218e-03" nType="0">
              <Node pos="l" depth="4" NCoef="0" IVar="-1" Cut="0.0000000000000000e+00" cType="1" res="-6.5506428480148315e-02" rms="5.4589595645666122e-02" purity="3.0039323028177023e-03" nType="-99"/>
              <Node pos="r" depth="4" NCoef="0" IVar="-1" Cut="0.0000000000000000e+00" cType="1" res="-6.6193893551826477e-02" rms="2.0826466381549835e-02" purity="4.2602783651091158e-04" nType="-99"/>
            </Node>
          </Node>
          <Node pos="r" depth="2" NCoef="0" IVar="25" Cut="5.9610977172851562e+00" cType="1" res="-1.5191036462783813e-01" rms="3.5442227125167847e-01" purity="1.8237049877643585e-01" nType="0">
            <Node pos="l" depth="3" NCoef="0" IVar="-1" Cut="0.0000000000000000e+00" cType="1" res="-3.5134635400027037e-03" rms="4.6713808178901672e-01" purity="3.9421188831329346e-01" nType="-99"/>
            <Node pos="r" depth="3" NCoef="0" IVar="-1" Cut="0.0000000000000000e+00" cType="1" res="-5.4650571197271347e-02" rms="2.4431453645229340e-01" purity="6.6808618605136871e-02" nType="-99"/>
          </Node>
        </Node>
        <Node pos="r" depth="1" NCoef="0" IVar="38" Cut="8.4422719478607178e-01" cType="1" res="1.2230976670980453e-01" rms="3.3997169137001038e-01" purity="7.4481785297393799e-01" nType="0">
          <Node pos="l" depth="2" NCoef="0" IVar="25" Cut="5.3618865013122559e+00" cType="1" res="-1.2310317158699036e-01" rms="3.8581728935241699e-01" purity="2.8020012378692627e-01" nType="0">
            <Node pos="l" depth="3" NCoef="0" IVar="-1" Cut="0.0000000000000000e+00" cType="1" res="1.0947491042315960e-02" rms="4.5567157864570618e-01" purity="5.6513023376464844e-01" nType="-99"/>
            <Node pos="r" depth="3" NCoef="0" IVar="7" Cut="1.5015400648117065e+00" cType="1" res="-2.2557374835014343e-01" rms="2.9331210255622864e-01" purity="1.1365390568971634e-01" nType="0">
              <Node pos="l" depth="4" NCoef="0" IVar="-1" Cut="0.0000000000000000e+00" cType="1" res="-4.2504787445068359e-02" rms="3.4224399924278259e-01" purity="1.6767577826976776e-01" nType="-99"/>
              <Node pos="r" depth="4" NCoef="0" IVar="-1" Cut="0.0000000000000000e+00" cType="1" res="-6.4296722412109375e-02" rms="2.2026027739048004e-01" purity="5.5272478610277176e-02" nType="-99"/>
            </Node>
          </Node>
          <Node pos="r" depth="2" NCoef="0" IVar="-1" Cut="0.0000000000000000e+00" cType="1" res="5.0587832927703857e-02" rms="2.7370870113372803e-01" purity="9.0935128927230835e-01" nType="-99"/>
        </Node>
      </Node>
    </BinaryTree>
    <BinaryTree type="DecisionTree" boostWeight="1.0000000000000000e+00" itree="8">
      <Node pos="s" depth="0" NCoef="0" IVar="39" Cut="6.5706175565719604e-01" cType="1" res="-1.7896381905302405e-04" rms="3.3511775732040405e-01" purity="4.9947398900985718e-01" nType="0">
        <Node pos="l" depth="1" NCoef="0" IVar="38" Cut="8.7538176774978638e-01" cType="1" res="-1.8886573612689972e-01" rms="2.4107301235198975e-01" purity="7.9969339072704315e-02" nType="0">
          <Node pos="l" depth="2" NCoef="0" IVar="25" Cut="5.9591412544250488e+00" cType="1" res="-2.2557309269905090e-01" rms="1.0686550289392471e-01" purity="1.2632449157536030e-02" nType="0">
            <Node pos="l" depth="3" NCoef="0" IVar="-1" Cut="0.0000000000000000e+00" cType="1" res="-6.1288256198167801e-02" rms="1.8713979423046112e-01" purity="3.9933606982231140e-02" nType="-99"/>
            <Node pos="r" depth="3" NCoef="0" IVar="7" Cut="1.5176577568054199e+00" cType="1" res="-2.2039246559143066e-01" rms="6.3669480383396149e-02" purity="4.2432122863829136e-03" nType="0">
              <Node pos="l" depth="4" NCoef="0" IVar="-1" Cut="0.0000000000000000e+00" cType="1" res="-6.2344294041395187e-02" rms="8.6463265120983124e-02" purity="7.8842267394065857e-03" nType="-99"/>
              <Node pos="r" depth="4" NCoef="0" IVar="-1" Cut="0.0000000000000000e+00" cType="1" res="-6.4236797392368317e-02" rms="2.8535170480608940e-02" purity="8.1360078183934093e-04" nType="-99"/>
            </Node>
          </Node>
          <Node pos="r" depth="2" NCoef="0" IVar="25" Cut="6.5559029579162598e+00" cType="1" res="-1.2783767282962799e-01" rms="3.6025860905647278e-01" purity="1.9192068278789520e-01" nType="0">
            <Node pos="l" depth="3" NCoef="0" IVar="-1" Cut="0.0000000000000000e+00" cType="1" res="-4.3777446262538433e-03" rms="4.5948097109794617e-01" purity="3.7710472941398621e-01" nType="-99"/>
            <Node pos="r" depth="3" NCoef="0" IVar="-1" Cut="0.0000000000000000e+00" cType="1" res="-4.9712527543306351e-02" rms="2.5769951939582825e-01" purity="7.4727676808834076e-02" nType="-99"/>
          </Node>
        </Node>
        <Node pos="r" depth="1" NCoef="0" IVar="38" Cut="8.1277871131896973e-01" cType="1" res="1.0986402630805969e-01" rms="3.3321660757064819e-01" purity="7.4413108825683594e-01" nType="0">
          <Node pos="l" depth="2" NCoef="0" IVar="25" Cut="5.3618865013122559e+00" cType="1" res="-1.2441206723451614e-01" rms="3.7549427151679993e-01" purity="2.5227960944175720e-01" nType="0">
            <Node pos="l" depth="3" NCoef="0" IVar="-1" Cut="0.0000000000000000e+00" cType="1" res="5.1252441480755806e-03" rms="4.6717792749404907e-01" purity="5.2440536022186279e-01" nType="-99"/>
            <Node pos="r" depth="3" NCoef="0" IVar="38" Cut="1.8489730358123779e-01" cType="1" res="-2.0450720191001892e-01" rms="2.8484192490577698e-01" purity="1.0609302669763565e-01" nType="0">
              <Node pos="l" depth="4" NCoef="0" IVar="-1" Cut="0.0000000000000000e+00" cType="1" res="-6.2577664852142334e-02" rms="1.6145063936710358e-01" purity="2.7201795950531960e-02" nType="-99"/>
              <Node pos="r" depth="4" NCoef="0" IVar="-1" Cut="0.0000000000000000e+00" cType="1" res="-3.8211435079574585e-02" rms="3.6146938800811768e-01" purity="1.8225897848606110e-01" nType="-99"/>
            </Node>
          </Node>
          <Node pos="r" depth="2" NCoef="0" IVar="-1" Cut="0.0000000000000000e+00" cType="1" res="4.7108661383390427e-02" rms="2.7758598327636719e-01" purity="9.0645217895507812e-01" nType="-99"/>
        </Node>
      </Node>
    </BinaryTree>
    <BinaryTree type="DecisionTree" boostWeight="1.0000000000000000e+00" itree="9">
      <Node pos="s" depth="0" NCoef="0" IVar="39" Cut="8.4411895275115967e-01" cType="1" res="1.0065772803500295e-03" rms="3.2473814487457275e-01" purity="5.0169861316680908e-01" nType="0">
        <Node pos="l" depth="1" NCoef="0" IVar="25" Cut="2.9798007011413574e+00" cType="1" res="-1.5413968265056610e-01" rms="2.6841431856155396e-01" purity="1.1921594291925430e-01" nType="0">
          <Node pos="l" depth="2" NCoef="0" IVar="-1" Cut="0.0000000000000000e+00" cType="1" res="3.6956011317670345e-03" rms="4.4768920540809631e-01" purity="4.7057858109474182e-01" nType="-99"/>
          <Node pos="r" depth="2" NCoef="0" IVar="6" Cut="1.3498984575271606e+00" cType="1" res="-1.8083779513835907e-01" rms="2.1630766987800598e-01" purity="6.4587533473968506e-02" nType="0">
            <Node pos="l" depth="3" NCoef="0" IVar="38" Cut="8.4422719478607178e-01" cType="1" res="-1.4464311301708221e-01" rms="2.7550268173217773e-01" purity="1.1367811262607574e-01" nType="0">
              <Node pos="l" depth="4" NCoef="0" IVar="-1" Cut="0.0000000000000000e+00" cType="1" res="-5.9018481522798538e-02" rms="1.1406707018613815e-01" purity="1.4814760535955429e-02" nType="-99"/>
              <Node pos="r" depth="4" NCoef="0" IVar="-1" Cut="0.0000000000000000e+00" cType="1" res="-1.8964607268571854e-02" rms="3.8935694098472595e-01" purity="2.4456070363521576e-01" nType="-99"/>
            </Node>
            <Node pos="r" depth="3" NCoef="0" IVar="6" Cut="1.9772983789443970e+00" cType="1" res="-2.0478178560733795e-01" rms="1.6152407228946686e-01" purity="3.2112512737512589e-02" nType="0">
              <Node pos="l" depth="4" NCoef="0" IVar="7" Cut="1.5192447900772095e+00" cType="1" res="-1.8956474959850311e-01" rms="1.9746209681034088e-01" purity="5.1451329141855240e-02" nType="0">
                <Node pos="l" depth="5" NCoef="0" IVar="-1" Cut="0.0000000000000000e+00" cType="1" res="-4.6901743859052658e-02" rms="2.3756946623325348e-01" purity="7.9250983893871307e-02" nType="-99"/>
                <Node pos="r" depth="5" NCoef="0" IVar="-1" Cut="0.0000000000000000e+00" cType="1" res="-6.0011405497789383e-02" rms="1.4456091821193695e-01" purity="2.3952465504407883e-02" nType="-99"/>
              </Node>
              <Node pos="r" depth="4" NCoef="0" IVar="38" Cut="5.9526079893112183e-01" cType="1" res="-2.1807217597961426e-01" rms="1.2018035352230072e-01" purity="1.5222176909446716e-02" nType="0">
                <Node pos="l" depth="5" NCoef="0" IVar="-1" Cut="0.0000000000000000e+00" cType="1" res="-6.2520839273929596e-02" rms="4.2115863412618637e-02" purity="1.5663420781493187e-03" nType="-99"/>
                <Node pos="r" depth="5" NCoef="0" IVar="-1" Cut="0.0000000000000000e+00" cType="1" res="-6.2271233648061752e-02" rms="1.7357127368450165e-01" purity="3.2815020531415939e-02" nType="-99"/>
              </Node>
            </Node>
          </Node>
        </Node>
        <Node pos="r" depth="1" NCoef="0" IVar="38" Cut="4.3921786546707153e-01" cType="1" res="1.1202312260866165e-01" rms="3.1593081355094910e-01" purity="7.7538812160491943e-01" nType="0">
          <Node pos="l" depth="2" NCoef="0" IVar="-1" Cut="0.0000000000000000e+00" cType="1" res="-3.5555701702833176e-02" rms="3.4524044394493103e-01" purity="1.7183785140514374e-01" nType="-99"/>
          <Node pos="r" depth="2" NCoef="0" IVar="25" Cut="8.9368076324462891e+00" cType="1" res="1.6437013447284698e-01" rms="2.8203263878822327e-01" purity="8.9668095111846924e-01" nType="0">
            <Node pos="l" depth="3" NCoef="0" IVar="-1" Cut="0.0000000000000000e+00" cType="1" res="5.2733782678842545e-02" rms="2.2437962889671326e-01" purity="9.4117343425750732e-01" nType="-99"/>
            <Node pos="r" depth="3" NCoef="0" IVar="-1" Cut="0.0000000000000000e+00" cType="1" res="-1.4258823357522488e-03" rms="4.3408876657485962e-01" purity="6.7769026756286621e-01" nType="-99"/>
          </Node>
        </Node>
      </Node>
    </BinaryTree>
    <BinaryTree type="DecisionTree" boostWeight="1.0000000000000000e+00" itree="10">
      <Node pos="s" depth="0" NCoef="0" IVar="25" Cut="4.7679319381713867e+00" cType="1" res="-3.4537291503511369e-04" rms="3.1520369648933411e-01" purity="5.0035679340362549e-01" nType="0">
        <Node pos="l" depth="1" NCoef="0" IVar="39" Cut="4.0821143984794617e-01" cType="1" res="1.3436634838581085e-01" rms="2.9237616062164307e-01" purity="7.9730391502380371e-01" nType="0">
          <Node pos="l" depth="2" NCoef="0" IVar="-1" Cut="0.0000000000000000e+00" cType="1" res="-3.1679533421993256e-02" rms="3.6626091599464417e-01" purity="2.0609243214130402e-01" nType="-99"/>
          <Node pos="r" depth="2" NCoef="0" IVar="-1" Cut="0.0000000000000000e+00" cType="1" res="4.7496952116489410e-02" rms="2.5258818268775940e-01" purity="8.9328801631927490e-01" nType="-99"/>
        </Node>
        <Node pos="r" depth="1" NCoef="0" IVar="38" Cut="8.4422719478607178e-01" cType="1" res="-1.0720414668321609e-01" rms="2.9075989127159119e-01" purity="2.6480627059936523e-01" nType="0">
          <Node pos="l" depth="2" NCoef="0" IVar="6" Cut="1.2207418680191040e+00" cType="1" res="-1.8053093552589417e-01" rms="1.8372058868408203e-01" purity="4.5282922685146332e-02" nType="0">
            <Node pos="l" depth="3" NCoef="0" IVar="-1" Cut="0.0000000000000000e+00" cType="1" res="-4.4551808387041092e-02" rms="2.3823499679565430e-01" purity="8.5264019668102264e-02" nType="-99"/>
            <Node pos="r" depth="3" NCoef="0" IVar="39" Cut="6.5748542547225952e-01" cType="1" res="-1.9417297840118408e-01" rms="1.5011246502399445e-01" purity="2.6805620640516281e-02" nType="0">
              <Node pos="l" depth="4" NCoef="0" IVar="6" Cut="1.9615515470504761e+00" cType="1" res="-1.8170760571956635e-01" rms="3.4432068467140198e-02" purity="1.1770917335525155e-03" nType="0">
                <Node pos="l" depth="5" NCoef="0" IVar="-1" Cut="0.0000000000000000e+00" cType="1" res="-6.1007663607597351e-02" rms="3.1327087432146072e-02" purity="9.7663979977369308e-04" nType="-99"/>
                <Node pos="r" depth="5" NCoef="0" IVar="-1" Cut="0.0000000000000000e+00" cType="1" res="-6.0590576380491257e-02" rms="3.7214759737253189e-02" purity="1.3809790834784508e-03" nType="-99"/>
              </Node>
              <Node pos="r" depth="4" NCoef="0" IVar="-1" Cut="0.0000000000000000e+00" cType="1" res="-5.6369397789239883e-02" rms="2.4255865812301636e-01" purity="7.1270108222961426e-02" nType="-99"/>
            </Node>
          </Node>
          <Node pos="r" depth="2" NCoef="0" IVar="39" Cut="8.1282550096511841e-01" cType="1" res="-2.7135096490383148e-02" rms="3.5737514495849609e-01" purity="5.0451433658599854e-01" nType="0">
            <Node pos="l" depth="3" NCoef="0" IVar="7" Cut="1.3498984575271606e+00" cType="1" res="-1.5439654886722565e-01" rms="2.8953731060028076e-01" purity="1.0836235433816910e-01" nType="0">
              <Node pos="l" depth="4" NCoef="0" IVar="-1" Cut="0.0000000000000000e+00" cType="1" res="-2.4843720719218254e-02" rms="3.5882779955863953e-01" purity="1.8162089586257935e-01" nType="-99"/>
              <Node pos="r" depth="4" NCoef="0" IVar="-1" Cut="0.0000000000000000e+00" cType="1" res="-5.3995244204998016e-02" rms="2.1205829083919525e-01" purity="5.2262764424085617e-02" nType="-99"/>
            </Node>
            <Node pos="r" depth="3" NCoef="0" IVar="-1" Cut="0.0000000000000000e+00" cType="1" res="2.0390115678310394e-02" rms="3.7352615594863892e-01" purity="8.2595753669738770e-01" nType="-99"/>
          </Node>
        </Node>
      </Node>
    </BinaryTree>
    <BinaryTree type="DecisionTree" boostWeight="1.0000000000000000e+00" itree="11">
      <Node pos="s" depth="0" NCoef="0" IVar="39" Cut="8.4411895275115967e-01" cType="1" res="-6.8500882480293512e-04" rms="3.0812561511993408e-01" purity="4.9929270148277283e-01" nType="0">
        <Node pos="l" depth="1" NCoef="0" IVar="38" Cut="8.4422719478607178e-01" cType="1" res="-1.2980395555496216e-01" rms="2.6056984066963196e-01" purity="1.1523959040641785e-01" nType="0">
          <Node pos="l" depth="2" NCoef="0" IVar="25" Cut="5.9638652801513672e+00" cType="1" res="-1.7594301700592041e-01" rms="1.0254016518592834e-01" purity="1.0714770294725895e-02" nType="0">
            <Node pos="l" depth="3" NCoef="0" IVar="-1" Cut="0.0000000000000000e+00" cType="1" res="-5.9078525751829147e-02" rms="1.7726132273674011e-01" purity="3.3041298389434814e-02" nType="-99"/>
            <Node pos="r" depth="3" NCoef="0" IVar="32" Cut="2.2580645978450775e-01" cType="1" res="-1.6616678237915039e-01" rms="6.1206039041280746e-02" purity="3.9246026426553726e-03" nType="0">
              <Node pos="l" depth="4" NCoef="0" IVar="-1" Cut="0.0000000000000000e+00" cType="1" res="-5.7385813444852829e-02" rms="8.9801058173179626e-02" purity="8.5241254419088364e-03" nType="-99"/>
              <Node pos="r" depth="4" NCoef="0" IVar="39" Cut="2.4360556900501251e-01" cType="1" res="-1.6787353157997131e-01" rms="4.3199125677347183e-02" purity="1.9323052838444710e-03" nType="0">
                <Node pos="l" depth="5" NCoef="0" IVar="-1" Cut="0.0000000000000000e+00" cType="1" res="-5.9913802891969681e-02" rms="1.2222573161125183e-02" purity="1.3914985174778849e-04" nType="-99"/>
                <Node pos="r" depth="5" NCoef="0" IVar="-1" Cut="0.0000000000000000e+00" cType="1" res="-5.9248492121696472e-02" rms="6.5930619835853577e-02" purity="4.5369733124971390e-03" nType="-99"/>
              </Node>
            </Node>
          </Node>
          <Node pos="r" depth="2" NCoef="0" IVar="25" Cut="4.7700347900390625e+00" cType="1" res="-6.8598672747612000e-02" rms="3.7073746323585510e-01" purity="2.5389587879180908e-01" nType="0">
            <Node pos="l" depth="3" NCoef="0" IVar="-1" Cut="0.0000000000000000e+00" cType="1" res="1.6637479886412621e-02" rms="4.5776313543319702e-01" purity="5.4506832361221313e-01" nType="-99"/>
            <Node pos="r" depth="3" NCoef="0" IVar="7" Cut="1.3498984575271606e+00" cType="1" res="-1.3610634207725525e-01" rms="2.9987028241157532e-01" purity="1.2057232111692429e-01" nType="0">
              <Node pos="l" depth="4" NCoef="0" IVar="-1" Cut="0.0000000000000000e+00" cType="1" res="-2.1204652264714241e-02" rms="3.6775317788124084e-01" purity="1.9726483523845673e-01" nType="-99"/>
              <Node pos="r" depth="4" NCoef="0" IVar="-1" Cut="0.0000000000000000e+00" cType="1" res="-5.0811141729354858e-02" rms="2.2535023093223572e-01" purity="6.1250537633895874e-02" nType="-99"/>
            </Node>
          </Node>
        </Node>
        <Node pos="r" depth="1" NCoef="0" IVar="38" Cut="3.1459960341453552e-01" cType="1" res="9.1676846146583557e-02" rms="3.0631810426712036e-01" purity="7.7401506900787354e-01" nType="0">
          <Node pos="l" depth="2" NCoef="0" IVar="-1" Cut="0.0000000000000000e+00" cType="1" res="-3.8040868937969208e-02" rms="3.1945613026618958e-01" purity="1.4559619128704071e-01" nType="-99"/>
          <Node pos="r" depth="2" NCoef="0" IVar="25" Cut="7.7466716766357422e+00" cType="1" res="1.3180488348007202e-01" rms="2.8492373228073120e-01" purity="8.7866079807281494e-01" nType="0">
            <Node pos="l" depth="3" NCoef="0" IVar="-1" Cut="0.0000000000000000e+00" cType="1" res="4.9048472195863724e-02" rms="2.2213812172412872e-01" purity="9.3890678882598877e-01" nType="-99"/>
            <Node pos="r" depth="3" NCoef="0" IVar="-1" Cut="0.0000000000000000e+00" cType="1" res="-1.1102856369689107e-03" rms="4.1910752654075623e-01" purity="6.5536624193191528e-01" nType="-99"/>
          </Node>
        </Node>
      </Node>
    </BinaryTree>
    <BinaryTree type="DecisionTree" boostWeight="1.0000000000000000e+00" itree="12">
      <Node pos="s" depth="0" NCoef="0" IVar="39" Cut="5.6353312730789185e-01" cType="1" res="-1.9834461272694170e-04" rms="3.0082279443740845e-01" purity="5.0012600421905518e-01" nType="0">
        <Node pos="l" depth="1" NCoef="0" IVar="7" Cut="1.1257212162017822e+00" cType="1" res="-1.3778617978096008e-01" rms="2.1840761601924896e-01" purity="6.8529598414897919e-02" nType="0">
          <Node pos="l" depth="2" NCoef="0" IVar="38" Cut="7.8195494413375854e-01" cType="1" res="-9.1057345271110535e-02" rms="2.9245099425315857e-01" purity="1.3945493102073669e-01" nType="0">
            <Node pos="l" depth="3" NCoef="0" IVar="-1" Cut="0.0000000000000000e+00" cType="1" res="-5.5907931178808212e-02" rms="1.1277899891138077e-01" purity="1.3397825881838799e-02" nType="-99"/>
            <Node pos="r" depth="3" NCoef="0" IVar="-1" Cut="0.0000000000000000e+00" cType="1" res="-4.6792170032858849e-03" rms="4.0004473924636841e-01" purity="2.8531911969184875e-01" nType="-99"/>
          </Node>
          <Node pos="r" depth="2" NCoef="0" IVar="39" Cut="1.8805490434169769e-01" cType="1" res="-1.5906803309917450e-01" rms="1.7037439346313477e-01" purity="3.6227885633707047e-02" nType="0">
            <Node pos="l" depth="3" NCoef="0" IVar="25" Cut="8.9371614456176758e+00" cType="1" res="-1.7149707674980164e-01" rms="1.2997807562351227e-01" purity="1.8149919807910919e-02" nType="0">
              <Node pos="l" depth="4" NCoef="0" IVar="-1" Cut="0.0000000000000000e+00" cType="1" res="-5.7043951004743576e-02" rms="1.8085621297359467e-01" purity="3.6211151629686356e-02" nType="-99"/>
              <Node pos="r" depth="4" NCoef="0" IVar="-1" Cut="0.0000000000000000e+00" cType="1" res="-5.8300033211708069e-02" rms="6.8873494863510132e-02" purity="4.6703773550689220e-03" nType="-99"/>
            </Node>
            <Node pos="r" depth="3" NCoef="0" IVar="3" Cut="9.6479209899902344e+01" cType="1" res="-1.4467671513557434e-01" rms="2.0661588013172150e-01" purity="5.7159937918186188e-02" nType="0">
              <Node pos="l" depth="4" NCoef="0" IVar="-1" Cut="0.0000000000000000e+00" cType="1" res="-3.6230981349945068e-02" rms="2.7332431077957153e-01" purity="1.0654854029417038e-01" nType="-99"/>
              <Node pos="r" depth="4" NCoef="0" IVar="-1" Cut="0.0000000000000000e+00" cType="1" res="-5.7104680687189102e-02" rms="1.2222941964864731e-01" purity="1.5904996544122696e-02" nType="-99"/>
            </Node>
          </Node>
        </Node>
        <Node pos="r" depth="1" NCoef="0" IVar="38" Cut="8.4422719478607178e-01" cType="1" res="7.2864718735218048e-02" rms="3.1277400255203247e-01" purity="7.2931599617004395e-01" nType="0">
          <Node pos="l" depth="2" NCoef="0" IVar="6" Cut="1.3678807020187378e+00" cType="1" res="-8.9668177068233490e-02" rms="3.5340070724487305e-01" purity="2.6259726285934448e-01" nType="0">
            <Node pos="l" depth="3" NCoef="0" IVar="-1" Cut="0.0000000000000000e+00" cType="1" res="3.9586814818903804e-04" rms="3.9202484488487244e-01" purity="3.9475974440574646e-01" nType="-99"/>
            <Node pos="r" depth="3" NCoef="0" IVar="-1" Cut="0.0000000000000000e+00" cType="1" res="-4.4607441872358322e-02" rms="2.9546681046485901e-01" purity="1.5019968152046204e-01" nType="-99"/>
          </Node>
          <Node pos="r" depth="2" NCoef="0" IVar="-1" Cut="0.0000000000000000e+00" cType="1" res="3.9209645241498947e-02" rms="2.7333196997642517e-01" purity="9.0016257762908936e-01" nType="-99"/>
        </Node>
      </Node>
    </BinaryTree>
    <BinaryTree type="DecisionTree" boostWeight="1.0000000000000000e+00" itree="13">
      <Node pos="s" depth="0" NCoef="0" IVar="25" Cut="4.1718115806579590e+00" cType="1" res="-1.9784530159085989e-03" rms="2.9473501443862915e-01" purity="4.9744975566864014e-01" nType="0">
        <Node pos="l" depth="1" NCoef="0" IVar="39" Cut="4.0821143984794617e-01" cType="1" res="1.1383572965860367e-01" rms="2.7251371741294861e-01" purity="8.1690824031829834e-01" nType="0">
          <Node pos="l" depth="2" NCoef="0" IVar="-1" Cut="0.0000000000000000e+00" cType="1" res="-2.4973727762699127e-02" rms="3.7336179614067078e-01" purity="2.1926726400852203e-01" nType="-99"/>
          <Node pos="r" depth="2" NCoef="0" IVar="-1" Cut="0.0000000000000000e+00" cType="1" res="4.3967831879854202e-02" rms="2.3852077126502991e-01" purity="9.0397936105728149e-01" nType="-99"/>
        </Node>
        <Node pos="r" depth="1" NCoef="0" IVar="39" Cut="8.7529516220092773e-01" cType="1" res="-8.0229125916957855e-02" rms="2.8319552540779114e-01" purity="2.8160542249679565e-01" nType="0">
          <Node pos="l" depth="2" NCoef="0" IVar="7" Cut="1.2494292259216309e+00" cType="1" res="-1.2984062731266022e-01" rms="2.0571844279766083e-01" purity="7.2656683623790741e-02" nType="0">
            <Node pos="l" depth="3" NCoef="0" IVar="39" Cut="3.3222377300262451e-01" cType="1" res="-9.8398059606552124e-02" rms="2.6237106323242188e-01" purity="1.3628992438316345e-01" nType="0">
              <Node pos="l" depth="4" NCoef="0" IVar="-1" Cut="0.0000000000000000e+00" cType="1" res="-4.7907434403896332e-02" rms="1.8137203156948090e-01" purity="3.8181196898221970e-02" nType="-99"/>
              <Node pos="r" depth="4" NCoef="0" IVar="-1" Cut="0.0000000000000000e+00" cType="1" res="-1.1604296043515205e-02" rms="3.4785035252571106e-01" purity="2.9379042983055115e-01" nType="-99"/>
            </Node>
            <Node pos="r" depth="3" NCoef="0" IVar="3" Cut="9.0591110229492188e+01" cType="1" res="-1.4885459840297699e-01" rms="1.5913644433021545e-01" purity="3.4176316112279892e-02" nType="0">
              <Node pos="l" depth="4" NCoef="0" IVar="-1" Cut="0.0000000000000000e+00" cType="1" res="-4.3476227670907974e-02" rms="2.2050850093364716e-01" purity="7.4692487716674805e-02" nType="-99"/>
              <Node pos="r" depth="4" NCoef="0" IVar="38" Cut="8.1315892934799194e-01" cType="1" res="-1.5934932231903076e-01" rms="1.2226167321205139e-01" purity="1.6769731417298317e-02" nType="0">
                <Node pos="l" depth="5" NCoef="0" IVar="-1" Cut="0.0000000000000000e+00" cType="1" res="-5.8553744107484818e-02" rms="4.4364064931869507e-02" purity="9.9685485474765301e-04" nType="-99"/>
                <Node pos="r" depth="5" NCoef="0" IVar="-1" Cut="0.0000000000000000e+00" cType="1" res="-5.9184405952692032e-02" rms="1.8964481353759766e-01" purity="4.3738711625337601e-02" nType="-99"/>
              </Node>
            </Node>
          </Node>
          <Node pos="r" depth="2" NCoef="0" IVar="7" Cut="1.7500227689743042e+00" cType="1" res="-6.7480714060366154e-03" rms="3.5673430562019348e-01" purity="5.9108561277389526e-01" nType="0">
            <Node pos="l" depth="3" NCoef="0" IVar="6" Cut="1.6139826774597168e+00" cType="1" res="4.7584746032953262e-02" rms="3.3792626857757568e-01" purity="6.8124949932098389e-01" nType="0">
              <Node pos="l" depth="4" NCoef="0" IVar="-1" Cut="0.0000000000000000e+00" cType="1" res="2.9051534831523895e-02" rms="3.1026449799537659e-01" purity="7.7263838052749634e-01" nType="-99"/>
              <Node pos="r" depth="4" NCoef="0" IVar="-1" Cut="0.0000000000000000e+00" cType="1" res="-2.6295606046915054e-02" rms="3.6549592018127441e-01" purity="4.4548442959785461e-01" nType="-99"/>
            </Node>
            <Node pos="r" depth="3" NCoef="0" IVar="-1" Cut="0.0000000000000000e+00" cType="1" res="-5.2989289164543152e-02" rms="3.5895317792892456e-01" purity="2.9707694053649902e-01" nType="-99"/>
          </Node>
        </Node>
      </Node>
    </BinaryTree>
    <BinaryTree type="DecisionTree" boostWeight="1.0000000000000000e+00" itree="14">
      <Node pos="s" depth="0" NCoef="0" IVar="25" Cut="3.5775539875030518e+00" cType="1" res="1.1907414300367236e-03" rms="2.8965467214584351e-01" purity="5.0220775604248047e-01" nType="0">
        <Node pos="l" depth="1" NCoef="0" IVar="38" Cut="6.2631785869598389e-01" cType="1" res="1.1445085704326630e-01" rms="2.6297822594642639e-01" purity="8.4016752243041992e-01" nType="0">
          <Node pos="l" depth="2" NCoef="0" IVar="-1" Cut="0.0000000000000000e+00" cType="1" res="-1.0638489387929440e-02" rms="4.0293452143669128e-01" purity="3.5280859470367432e-01" nType="-99"/>
          <Node pos="r" depth="2" NCoef="0" IVar="-1" Cut="0.0000000000000000e+00" cType="1" res="4.5008346438407898e-02" rms="2.2231087088584900e-01" purity="9.1814833879470825e-01" nType="-99"/>
        </Node>
        <Node pos="r" depth="1" NCoef="0" IVar="38" Cut="8.4422719478607178e-01" cType="1" res="-6.3132777810096741e-02" rms="2.8434059023857117e-01" purity="3.1027108430862427e-01" nType="0">
          <Node pos="l" depth="2" NCoef="0" IVar="7" Cut="1.1310560703277588e+00" cType="1" res="-1.2539124488830566e-01" rms="2.0045857131481171e-01" purity="6.2409669160842896e-02" nType="0">
            <Node pos="l" depth="3" NCoef="0" IVar="6" Cut="1.4531605243682861e+00" cType="1" res="-9.6185453236103058e-02" rms="2.6033511757850647e-01" purity="1.2055772542953491e-01" nType="0">
              <Node pos="l" depth="4" NCoef="0" IVar="-1" Cut="0.0000000000000000e+00" cType="1" res="-1.8905607983469963e-02" rms="3.0742123723030090e-01" purity="1.8235491216182709e-01" nType="-99"/>
              <Node pos="r" depth="4" NCoef="0" IVar="-1" Cut="0.0000000000000000e+00" cType="1" res="-4.7303006052970886e-02" rms="1.9622755050659180e-01" purity="5.9128630906343460e-02" nType="-99"/>
            </Node>
            <Node pos="r" depth="3" NCoef="0" IVar="39" Cut="7.1971029043197632e-01" cType="1" res="-1.3886986672878265e-01" rms="1.6393615305423737e-01" purity="3.5574063658714294e-02" nType="0">
              <Node pos="l" depth="4" NCoef="0" IVar="38" Cut="2.4324356019496918e-01" cType="1" res="-1.2482269853353500e-01" rms="5.3122863173484802e-02" purity="2.9686531051993370e-03" nType="0">
                <Node pos="l" depth="5" NCoef="0" IVar="-1" Cut="0.0000000000000000e+00" cType="1" res="-5.7229634374380112e-02" rms="1.8200568854808807e-02" purity="2.2451391851063818e-04" nType="-99"/>
                <Node pos="r" depth="5" NCoef="0" IVar="-1" Cut="0.0000000000000000e+00" cType="1" res="-5.4143726825714111e-02" rms="8.3267971873283386e-02" purity="7.5176162645220757e-03" nType="-99"/>
              </Node>
              <Node pos="r" depth="4" NCoef="0" IVar="-1" Cut="0.0000000000000000e+00" cType="1" res="-4.7615960240364075e-02" rms="2.6698583364486694e-01" purity="9.7232103347778320e-02" nType="-99"/>
            </Node>
          </Node>
          <Node pos="r" depth="2" NCoef="0" IVar="6" Cut="1.7147160768508911e+00" cType="1" res="-1.4891983009874821e-03" rms="3.3686217665672302e-01" purity="5.5568450689315796e-01" nType="0">
            <Node pos="l" depth="3" NCoef="0" IVar="39" Cut="5.0147539377212524e-01" cType="1" res="5.1931664347648621e-02" rms="3.2394924759864807e-01" purity="6.5777611732482910e-01" nType="0">
              <Node pos="l" depth="4" NCoef="0" IVar="-1" Cut="0.0000000000000000e+00" cType="1" res="-3.0420972034335136e-02" rms="2.9849070310592651e-01" purity="1.0806284844875336e-01" nType="-99"/>
              <Node pos="r" depth="4" NCoef="0" IVar="-1" Cut="0.0000000000000000e+00" cType="1" res="3.1342163681983948e-02" rms="3.1565904617309570e-01" purity="8.5541605949401855e-01" nType="-99"/>
            </Node>
            <Node pos="r" depth="3" NCoef="0" IVar="-1" Cut="0.0000000000000000e+00" cType="1" res="-4.2659312486648560e-02" rms="3.3048722147941589e-01" purity="2.9329875111579895e-01" nType="-99"/>
          </Node>
        </Node>
      </Node>
    </BinaryTree>
    <BinaryTree type="DecisionTree" boostWeight="1.0000000000000000e+00" itree="15">
      <Node pos="s" depth="0" NCoef="0" IVar="25" Cut="4.7662057876586914e+00" cType="1" res="-1.1114701192127541e-04" rms="2.8464561700820923e-01" purity="4.9997282028198242e-01" nType="0">
        <Node pos="l" depth="1" NCoef="0" IVar="38" Cut="4.7061693668365479e-01" cType="1" res="8.7305784225463867e-02" rms="2.7371531724929810e-01" purity="7.9682892560958862e-01" nType="0">
          <Node pos="l" depth="2" NCoef="0" IVar="-1" Cut="0.0000000000000000e+00" cType="1" res="-2.5106769055128098e-02" rms="3.6288970708847046e-01" purity="2.2798837721347809e-01" nType="-99"/>
          <Node pos="r" depth="2" NCoef="0" IVar="-1" Cut="0.0000000000000000e+00" cType="1" res="3.8629036396741867e-02" rms="2.4347677826881409e-01" purity="8.8744783401489258e-01" nType="-99"/>
        </Node>
        <Node pos="r" depth="1" NCoef="0" IVar="7" Cut="1.4968453645706177e+00" cType="1" res="-6.9221980869770050e-02" rms="2.7391672134399414e-01" purity="2.6528179645538330e-01" nType="0">
          <Node pos="l" depth="2" NCoef="0" IVar="38" Cut="5.6383609771728516e-01" cType="1" res="-2.4393446743488312e-02" rms="2.9580748081207275e-01" purity="3.7572282552719116e-01" nType="0">
            <Node pos="l" depth="3" NCoef="0" IVar="38" Cut="1.5380166471004486e-01" cType="1" res="-1.1221896857023239e-01" rms="1.8975517153739929e-01" purity="4.4210556894540787e-02" nType="0">
              <Node pos="l" depth="4" NCoef="0" IVar="-1" Cut="0.0000000000000000e+00" cType="1" res="-5.3298272192478180e-02" rms="1.2665848433971405e-01" purity="1.6618307679891586e-02" nType="-99"/>
              <Node pos="r" depth="4" NCoef="0" IVar="-1" Cut="0.0000000000000000e+00" cType="1" res="-3.5538610070943832e-02" rms="2.3176424205303192e-01" purity="6.9687485694885254e-02" nType="-99"/>
            </Node>
            <Node pos="r" depth="3" NCoef="0" IVar="39" Cut="4.3882831931114197e-01" cType="1" res="3.1745180487632751e-02" rms="3.3516576886177063e-01" purity="5.8762753009796143e-01" nType="0">
              <Node pos="l" depth="4" NCoef="0" IVar="-1" Cut="0.0000000000000000e+00" cType="1" res="-3.5083085298538208e-02" rms="2.6191931962966919e-01" purity="7.7707201242446899e-02" nType="-99"/>
              <Node pos="r" depth="4" NCoef="0" IVar="-1" Cut="0.0000000000000000e+00" cType="1" res="2.4337084963917732e-02" rms="3.4595337510108948e-01" purity="7.9029476642608643e-01" nType="-99"/>
            </Node>
          </Node>
          <Node pos="r" depth="2" NCoef="0" IVar="3" Cut="9.3373870849609375e+01" cType="1" res="-1.2684938311576843e-01" rms="2.3042054474353790e-01" purity="1.2330903857946396e-01" nType="0">
            <Node pos="l" depth="3" NCoef="0" IVar="-1" Cut="0.0000000000000000e+00" cType="1" res="-2.5215348228812218e-02" rms="2.7812269330024719e-01" purity="2.5001761317253113e-01" nType="-99"/>
            <Node pos="r" depth="3" NCoef="0" IVar="39" Cut="6.5738558769226074e-01" cType="1" res="-1.5300767123699188e-01" rms="1.9837887585163116e-01" purity="6.2575034797191620e-02" nType="0">
              <Node pos="l" depth="4" NCoef="0" IVar="38" Cut="4.7044235467910767e-01" cType="1" res="-1.2132497131824493e-01" rms="7.3274798691272736e-02" purity="5.3812400437891483e-03" nType="0">
                <Node pos="l" depth="5" NCoef="0" IVar="-1" Cut="0.0000000000000000e+00" cType="1" res="-5.6266516447067261e-02" rms="3.7453307304531336e-03" purity="0.0000000000000000e+00" nType="-99"/>
                <Node pos="r" depth="5" NCoef="0" IVar="-1" Cut="0.0000000000000000e+00" cType="1" res="-5.4094046354293823e-02" rms="1.0635796934366226e-01" purity="1.1607781983911991e-02" nType="-99"/>
              </Node>
              <Node pos="r" depth="4" NCoef="0" IVar="-1" Cut="0.0000000000000000e+00" cType="1" res="-6.4513012766838074e-02" rms="3.1371611356735229e-01" purity="1.7128847539424896e-01" nType="-99"/>
            </Node>
          </Node>
        </Node>
      </Node>
    </BinaryTree>
    <BinaryTree type="DecisionTree" boostWeight="1.0000000000000000e+00" itree="16">
      <Node pos="s" depth="0" NCoef="0" IVar="39" Cut="6.2588554620742798e-01" cType="1" res="-7.6653268479276448e-05" rms="2.8079491853713989e-01" purity="4.9916163086891174e-01" nType="0">
        <Node pos="l" depth="1" NCoef="0" IVar="7" Cut="8.8544374704360962e-01" cType="1" res="-9.5276802778244019e-02" rms="2.2278906404972076e-01" purity="7.6711788773536682e-02" nType="0">
          <Node pos="l" depth="2" NCoef="0" IVar="-1" Cut="0.0000000000000000e+00" cType="1" res="-1.3157784938812256e-02" rms="3.0365049839019775e-01" purity="1.7460267245769501e-01" nType="-99"/>
          <Node pos="r" depth="2" NCoef="0" IVar="39" Cut="1.8640048801898956e-01" cType="1" res="-1.0745982825756073e-01" rms="1.9880998134613037e-01" purity="5.5370811372995377e-02" nType="0">
            <Node pos="l" depth="3" NCoef="0" IVar="25" Cut="7.7476167678833008e+00" cType="1" res="-1.2499874830245972e-01" rms="1.4859880506992340e-01" purity="2.5064727291464806e-02" nType="0">
              <Node pos="l" depth="4" NCoef="0" IVar="-1" Cut="0.0000000000000000e+00" cType="1" res="-4.9977924674749374e-02" rms="2.1848186850547791e-01" purity="5.6557409465312958e-02" nType="-99"/>
              <Node pos="r" depth="4" NCoef="0" IVar="-1" Cut="0.0000000000000000e+00" cType="1" res="-5.3595911711454391e-02" rms="8.3302482962608337e-02" purity="7.1091651916503906e-03" nType="-99"/>
            </Node>
            <Node pos="r" depth="3" NCoef="0" IVar="38" Cut="8.4422719478607178e-01" cType="1" res="-8.9366383850574493e-02" rms="2.3848694562911987e-01" purity="8.6635075509548187e-02" nType="0">
              <Node pos="l" depth="4" NCoef="0" IVar="-1" Cut="0.0000000000000000e+00" cType="1" res="-5.5021010339260101e-02" rms="9.0490572154521942e-02" purity="6.8425713106989861e-03" nType="-99"/>
              <Node pos="r" depth="4" NCoef="0" IVar="-1" Cut="0.0000000000000000e+00" cType="1" res="-1.4862142503261566e-02" rms="3.5157975554466248e-01" purity="2.0027261972427368e-01" nType="-99"/>
            </Node>
          </Node>
        </Node>
        <Node pos="r" depth="1" NCoef="0" IVar="7" Cut="1.6227195262908936e+00" cType="1" res="5.4009988903999329e-02" rms="2.9557922482490540e-01" purity="7.3917067050933838e-01" nType="0">
          <Node pos="l" depth="2" NCoef="0" IVar="38" Cut="2.5220820307731628e-01" cType="1" res="9.0180650353431702e-02" rms="2.7018621563911438e-01" purity="8.1558322906494141e-01" nType="0">
            <Node pos="l" depth="3" NCoef="0" IVar="-1" Cut="0.0000000000000000e+00" cType="1" res="-2.6171725243330002e-02" rms="3.3001589775085449e-01" purity="1.6532628238201141e-01" nType="-99"/>
            <Node pos="r" depth="3" NCoef="0" IVar="38" Cut="8.5497236251831055e-01" cType="1" res="1.1131940037012100e-01" rms="2.5404110550880432e-01" purity="8.9081305265426636e-01" nType="0">
              <Node pos="l" depth="4" NCoef="0" IVar="-1" Cut="0.0000000000000000e+00" cType="1" res="1.8565511330962181e-02" rms="3.9277914166450500e-01" purity="6.0150283575057983e-01" nType="-99"/>
              <Node pos="r" depth="4" NCoef="0" IVar="-1" Cut="0.0000000000000000e+00" cType="1" res="4.1666489094495773e-02" rms="2.2213211655616760e-01" purity="9.3885338306427002e-01" nType="-99"/>
            </Node>
          </Node>
          <Node pos="r" depth="2" NCoef="0" IVar="3" Cut="9.7951194763183594e+01" cType="1" res="-8.7285414338111877e-02" rms="3.4411120414733887e-01" purity="4.4067603349685669e-01" nType="0">
            <Node pos="l" depth="3" NCoef="0" IVar="-1" Cut="0.0000000000000000e+00" cType="1" res="1.1971371714025736e-03" rms="3.4005403518676758e-01" purity="6.3511133193969727e-01" nType="-99"/>
            <Node pos="r" depth="3" NCoef="0" IVar="-1" Cut="0.0000000000000000e+00" cType="1" res="-6.7126840353012085e-02" rms="3.0640894174575806e-01" purity="1.6515471041202545e-01" nType="-99"/>
          </Node>
        </Node>
      </Node>
    </BinaryTree>
    <BinaryTree type="DecisionTree" boostWeight="1.0000000000000000e+00" itree="17">
      <Node pos="s" depth="0" NCoef="0" IVar="25" Cut="3.5767250061035156e+00" cType="1" res="-5.8212634030496702e-05" rms="2.7603897452354431e-01" purity="4.9968743324279785e-01" nType="0">
        <Node pos="l" depth="1" NCoef="0" IVar="6" Cut="1.5907099246978760e+00" cType="1" res="8.9340500533580780e-02" rms="2.5696492195129395e-01" purity="8.3971643447875977e-01" nType="0">
          <Node pos="l" depth="2" NCoef="0" IVar="-1" Cut="0.0000000000000000e+00" cType="1" res="4.0562164038419724e-02" rms="2.3074983060359955e-01" purity="8.8956892490386963e-01" nType="-99"/>
          <Node pos="r" depth="2" NCoef="0" IVar="-1" Cut="0.0000000000000000e+00" cType="1" res="-1.5444796299561858e-03" rms="3.1316080689430237e-01" purity="6.6997754573822021e-01" nType="-99"/>
        </Node>
        <Node pos="r" depth="1" NCoef="0" IVar="6" Cut="1.6139826774597168e+00" cType="1" res="-5.0955809652805328e-02" rms="2.7357798814773560e-01" purity="3.0609786510467529e-01" nType="0">
          <Node pos="l" depth="2" NCoef="0" IVar="38" Cut="8.4422719478607178e-01" cType="1" res="-1.0257002897560596e-02" rms="2.8882178664207458e-01" purity="4.1488918662071228e-01" nType="0">
            <Node pos="l" depth="3" NCoef="0" IVar="38" Cut="3.4776410460472107e-01" cType="1" res="-8.2470111548900604e-02" rms="2.3044052720069885e-01" purity="9.3776717782020569e-02" nType="0">
              <Node pos="l" depth="4" NCoef="0" IVar="38" Cut="1.4546988904476166e-01" cType="1" res="-1.0123373568058014e-01" rms="1.7459681630134583e-01" purity="3.8504164665937424e-02" nType="0">
                <Node pos="l" depth="5" NCoef="0" IVar="-1" Cut="0.0000000000000000e+00" cType="1" res="-5.1399897783994675e-02" rms="1.3337847590446472e-01" purity="1.9193818792700768e-02" nType="-99"/>
                <Node pos="r" depth="5" NCoef="0" IVar="-1" Cut="0.0000000000000000e+00" cType="1" res="-3.6085169762372971e-02" rms="2.1128335595130920e-01" purity="6.0747042298316956e-02" nType="-99"/>
              </Node>
              <Node pos="r" depth="4" NCoef="0" IVar="-1" Cut="0.0000000000000000e+00" cType="1" res="-1.3288252986967564e-02" rms="3.1980052590370178e-01" purity="2.2041794657707214e-01" nType="-99"/>
            </Node>
            <Node pos="r" depth="3" NCoef="0" IVar="39" Cut="4.0807038545608521e-01" cType="1" res="4.5256000012159348e-02" rms="3.1564539670944214e-01" purity="6.6174077987670898e-01" nType="0">
              <Node pos="l" depth="4" NCoef="0" IVar="-1" Cut="0.0000000000000000e+00" cType="1" res="-2.7388557791709900e-02" rms="2.8742599487304688e-01" purity="9.8439924418926239e-02" nType="-99"/>
              <Node pos="r" depth="4" NCoef="0" IVar="-1" Cut="0.0000000000000000e+00" cType="1" res="2.6902288198471069e-02" rms="3.1411850452423096e-01" purity="8.3935976028442383e-01" nType="-99"/>
            </Node>
          </Node>
          <Node pos="r" depth="2" NCoef="0" IVar="2" Cut="9.7986968994140625e+01" cType="1" res="-1.1196476221084595e-01" rms="2.3619575798511505e-01" purity="1.4301577210426331e-01" nType="0">
            <Node pos="l" depth="3" NCoef="0" IVar="3" Cut="9.6225212097167969e+01" cType="1" res="-8.2292586565017700e-02" rms="2.6447886228561401e-01" purity="2.1745516359806061e-01" nType="0">
              <Node pos="l" depth="4" NCoef="0" IVar="-1" Cut="0.0000000000000000e+00" cType="1" res="-1.8885053694248199e-02" rms="2.9418575763702393e-01" purity="3.0883121490478516e-01" nType="-99"/>
              <Node pos="r" depth="4" NCoef="0" IVar="-1" Cut="0.0000000000000000e+00" cType="1" res="-4.9192391335964203e-02" rms="2.1398662030696869e-01" purity="9.7718447446823120e-02" nType="-99"/>
            </Node>
            <Node pos="r" depth="3" NCoef="0" IVar="39" Cut="5.9470933675765991e-01" cType="1" res="-1.3931687176227570e-01" rms="2.0291694998741150e-01" purity="7.4396796524524689e-02" nType="0">
              <Node pos="l" depth="4" NCoef="0" IVar="-1" Cut="0.0000000000000000e+00" cType="1" res="-5.4734278470277786e-02" rms="7.1447983384132385e-02" purity="4.8457966186106205e-03" nType="-99"/>
              <Node pos="r" depth="4" NCoef="0" IVar="-1" Cut="0.0000000000000000e+00" cType="1" res="-5.9019092470407486e-02" rms="3.0794674158096313e-01" purity="1.8486817181110382e-01" nType="-99"/>
            </Node>
          </Node>
        </Node>
      </Node>
    </BinaryTree>
    <BinaryTree type="DecisionTree" boostWeight="1.0000000000000000e+00" itree="18">
      <Node pos="s" depth="0" NCoef="0" IVar="39" Cut="8.4411895275115967e-01" cType="1" res="4.6329645556397736e-04" rms="2.7249756455421448e-01" purity="5.0155127048492432e-01" nType="0">
        <Node pos="l" depth="1" NCoef="0" IVar="6" Cut="1.4733505249023438e+00" cType="1" res="-7.3915407061576843e-02" rms="2.4357883632183075e-01" purity="1.1671107262372971e-01" nType="0">
          <Node pos="l" depth="2" NCoef="0" IVar="38" Cut="8.4422719478607178e-01" cType="1" res="-3.8829308003187180e-02" rms="2.9337373375892639e-01" purity="1.8751867115497589e-01" nType="0">
            <Node pos="l" depth="3" NCoef="0" IVar="32" Cut="6.1290323734283447e-01" cType="1" res="-1.0136293619871140e-01" rms="1.2778136134147644e-01" purity="1.8690038472414017e-02" nType="0">
              <Node pos="l" depth="4" NCoef="0" IVar="-1" Cut="0.0000000000000000e+00" cType="1" res="-4.6887699514627457e-02" rms="1.4649437367916107e-01" purity="2.5092624127864838e-02" nType="-99"/>
              <Node pos="r" depth="4" NCoef="0" IVar="-1" Cut="0.0000000000000000e+00" cType="1" res="-5.2730016410350800e-02" rms="1.0736180841922760e-01" purity="1.2773217633366585e-02" nType="-99"/>
            </Node>
            <Node pos="r" depth="3" NCoef="0" IVar="-1" Cut="0.0000000000000000e+00" cType="1" res="7.9271467402577400e-03" rms="3.9096778631210327e-01" purity="3.7059769034385681e-01" nType="-99"/>
          </Node>
          <Node pos="r" depth="2" NCoef="0" IVar="25" Cut="5.9591398239135742e+00" cType="1" res="-1.0655239969491959e-01" rms="1.7958073318004608e-01" purity="5.0846040248870850e-02" nType="0">
            <Node pos="l" depth="3" NCoef="0" IVar="-1" Cut="0.0000000000000000e+00" cType="1" res="-3.8520988076925278e-02" rms="2.8448951244354248e-01" purity="1.4807088673114777e-01" nType="-99"/>
            <Node pos="r" depth="3" NCoef="0" IVar="38" Cut="8.1319725513458252e-01" cType="1" res="-9.8832115530967712e-02" rms="1.2244424968957901e-01" purity="1.6843600198626518e-02" nType="0">
              <Node pos="l" depth="4" NCoef="0" IVar="26" Cut="1.4025897979736328e+00" cType="1" res="-8.9662455022335052e-02" rms="4.0181834250688553e-02" purity="1.4739099424332380e-03" nType="0">
                <Node pos="l" depth="5" NCoef="0" IVar="-1" Cut="0.0000000000000000e+00" cType="1" res="-5.3852964192628860e-02" rms="4.5212261378765106e-02" purity="1.9718867260962725e-03" nType="-99"/>
                <Node pos="r" depth="5" NCoef="0" IVar="-1" Cut="0.0000000000000000e+00" cType="1" res="-5.4627876728773117e-02" rms="3.4317642450332642e-02" purity="9.7367650596424937e-04" nType="-99"/>
              </Node>
              <Node pos="r" depth="4" NCoef="0" IVar="-1" Cut="0.0000000000000000e+00" cType="1" res="-4.5874886214733124e-02" rms="1.9343556463718414e-01" purity="4.3052468448877335e-02" nType="-99"/>
            </Node>
          </Node>
        </Node>
        <Node pos="r" depth="1" NCoef="0" IVar="7" Cut="1.8720240592956543e+00" cType="1" res="5.3465250879526138e-02" rms="2.7953261137008667e-01" purity="7.7578681707382202e-01" nType="0">
          <Node pos="l" depth="2" NCoef="0" IVar="38" Cut="2.5220820307731628e-01" cType="1" res="7.6431900262832642e-02" rms="2.6037183403968811e-01" purity="8.2924658060073853e-01" nType="0">
            <Node pos="l" depth="3" NCoef="0" IVar="-1" Cut="0.0000000000000000e+00" cType="1" res="-2.3377915844321251e-02" rms="3.3134922385215759e-01" purity="1.6682745516300201e-01" nType="-99"/>
            <Node pos="r" depth="3" NCoef="0" IVar="-1" Cut="0.0000000000000000e+00" cType="1" res="3.4732595086097717e-02" rms="2.4527826905250549e-01" purity="9.0252590179443359e-01" nType="-99"/>
          </Node>
          <Node pos="r" depth="2" NCoef="0" IVar="-1" Cut="0.0000000000000000e+00" cType="1" res="-3.2401308417320251e-02" rms="3.4694236516952515e-01" purity="4.1503435373306274e-01" nType="-99"/>
        </Node>
      </Node>
    </BinaryTree>
    <BinaryTree type="DecisionTree" boostWeight="1.0000000000000000e+00" itree="19">
      <Node pos="s" depth="0" NCoef="0" IVar="25" Cut="2.9791705608367920e+00" cType="1" res="2.4658031179569662e-04" rms="2.6982504129409790e-01" purity="5.0037509202957153e-01" nType="0">
        <Node pos="l" depth="1" NCoef="0" IVar="-1" Cut="0.0000000000000000e+00" cType="1" res="3.1070681288838387e-02" rms="2.4676701426506042e-01" purity="8.6078673601150513e-01" nType="-99"/>
        <Node pos="r" depth="1" NCoef="0" IVar="6" Cut="1.7194181680679321e+00" cType="1" res="-3.8959462195634842e-02" rms="2.7079534530639648e-01" purity="3.3601152896881104e-01" nType="0">
          <Node pos="l" depth="2" NCoef="0" IVar="39" Cut="8.7541294097900391e-01" cType="1" res="-6.0061914846301079e-03" rms="2.8261545300483704e-01" purity="4.3847987055778503e-01" nType="0">
            <Node pos="l" depth="3" NCoef="0" IVar="38" Cut="8.4422719478607178e-01" cType="1" res="-6.0500789433717728e-02" rms="2.4969580769538879e-01" purity="1.3669213652610779e-01" nType="0">
              <Node pos="l" depth="4" NCoef="0" IVar="22" Cut="2.4222247600555420e+00" cType="1" res="-8.7422057986259460e-02" rms="1.0912247747182846e-01" purity="1.6417801380157471e-02" nType="0">
                <Node pos="l" depth="5" NCoef="0" IVar="-1" Cut="0.0000000000000000e+00" cType="1" res="-4.6665932983160019e-02" rms="1.2057189643383026e-01" purity="2.0631460472941399e-02" nType="-99"/>
                <Node pos="r" depth="5" NCoef="0" IVar="-1" Cut="0.0000000000000000e+00" cType="1" res="-5.1197811961174011e-02" rms="9.8859280347824097e-02" purity="1.3048808090388775e-02" nType="-99"/>
              </Node>
              <Node pos="r" depth="4" NCoef="0" IVar="-1" Cut="0.0000000000000000e+00" cType="1" res="-7.8963916748762131e-03" rms="3.5518825054168701e-01" purity="2.9406818747520447e-01" nType="-99"/>
            </Node>
            <Node pos="r" depth="3" NCoef="0" IVar="7" Cut="1.4932007789611816e+00" cType="1" res="4.8983879387378693e-02" rms="3.0254542827606201e-01" purity="7.4301147460937500e-01" nType="0">
              <Node pos="l" depth="4" NCoef="0" IVar="-1" Cut="0.0000000000000000e+00" cType="1" res="2.7300516143441200e-02" rms="2.7554032206535339e-01" purity="8.2024562358856201e-01" nType="-99"/>
              <Node pos="r" depth="4" NCoef="0" IVar="-1" Cut="0.0000000000000000e+00" cType="1" res="-8.5301529616117477e-03" rms="3.5647332668304443e-01" purity="5.2823764085769653e-01" nType="-99"/>
            </Node>
          </Node>
          <Node pos="r" depth="2" NCoef="0" IVar="2" Cut="8.9057540893554688e+01" cType="1" res="-1.0160931944847107e-01" rms="2.3431672155857086e-01" purity="1.4120154082775116e-01" nType="0">
            <Node pos="l" depth="3" NCoef="0" IVar="-1" Cut="0.0000000000000000e+00" cType="1" res="-2.5722036138176918e-02" rms="2.7109700441360474e-01" purity="2.4355185031890869e-01" nType="-99"/>
            <Node pos="r" depth="3" NCoef="0" IVar="39" Cut="7.1941417455673218e-01" cType="1" res="-1.1724572628736496e-01" rms="2.1420791745185852e-01" purity="9.5932126045227051e-02" nType="0">
              <Node pos="l" depth="4" NCoef="0" IVar="38" Cut="4.0845805406570435e-01" cType="1" res="-9.2728853225708008e-02" rms="9.8338171839714050e-02" purity="1.0057188570499420e-02" nType="0">
                <Node pos="l" depth="5" NCoef="0" IVar="-1" Cut="0.0000000000000000e+00" cType="1" res="-5.4332323372364044e-02" rms="2.3237632587552071e-02" purity="3.8306196802295744e-04" nType="-99"/>
                <Node pos="r" depth="5" NCoef="0" IVar="-1" Cut="0.0000000000000000e+00" cType="1" res="-4.9336772412061691e-02" rms="1.3817489147186279e-01" purity="2.0332833752036095e-02" nType="-99"/>
              </Node>
              <Node pos="r" depth="4" NCoef="0" IVar="-1" Cut="0.0000000000000000e+00" cType="1" res="-5.1278639584779739e-02" rms="3.2630115747451782e-01" purity="2.4648101627826691e-01" nType="-99"/>
            </Node>
          </Node>
        </Node>
      </Node>
    </BinaryTree>
    <BinaryTree type="DecisionTree" boostWeight="1.0000000000000000e+00" itree="20">
      <Node pos="s" depth="0" NCoef="0" IVar="25" Cut="2.3834915161132812e+00" cType="1" res="3.2637538970448077e-04" rms="2.6747670769691467e-01" purity="5.0028771162033081e-01" nType="0">
        <Node pos="l" depth="1" NCoef="0" IVar="-1" Cut="0.0000000000000000e+00" cType="1" res="3.4432552754878998e-02" rms="2.3525467514991760e-01" purity="8.8390630483627319e-01" nType="-99"/>
        <Node pos="r" depth="1" NCoef="0" IVar="38" Cut="8.7538176774978638e-01" cType="1" res="-3.2485082745552063e-02" rms="2.7070659399032593e-01" purity="3.6259537935256958e-01" nType="0">
          <Node pos="l" depth="2" NCoef="0" IVar="6" Cut="1.2448296546936035e+00" cType="1" res="-7.6322741806507111e-02" rms="2.1791853010654449e-01" purity="1.1293738335371017e-01" nType="0">
            <Node pos="l" depth="3" NCoef="0" IVar="39" Cut="8.4432184696197510e-01" cType="1" res="-4.5900095254182816e-02" rms="2.6058220863342285e-01" purity="2.0035140216350555e-01" nType="0">
              <Node pos="l" depth="4" NCoef="0" IVar="-1" Cut="0.0000000000000000e+00" cType="1" res="-4.5828327536582947e-02" rms="1.3296641409397125e-01" purity="2.3154970258474350e-02" nType="-99"/>
              <Node pos="r" depth="4" NCoef="0" IVar="-1" Cut="0.0000000000000000e+00" cType="1" res="7.2574621299281716e-04" rms="3.6684563755989075e-01" purity="4.4971331954002380e-01" nType="-99"/>
            </Node>
            <Node pos="r" depth="3" NCoef="0" IVar="39" Cut="6.2634772062301636e-01" cType="1" res="-9.2592373490333557e-02" rms="1.8923887610435486e-01" purity="6.6189490258693695e-02" nType="0">
              <Node pos="l" depth="4" NCoef="0" IVar="25" Cut="8.6092987060546875e+00" cType="1" res="-7.9436205327510834e-02" rms="7.8359976410865784e-02" purity="6.0709142126142979e-03" nType="0">
                <Node pos="l" depth="5" NCoef="0" IVar="-1" Cut="0.0000000000000000e+00" cType="1" res="-5.0043009221553802e-02" rms="1.1659484356641769e-01" purity="1.3577193021774292e-02" nType="-99"/>
                <Node pos="r" depth="5" NCoef="0" IVar="-1" Cut="0.0000000000000000e+00" cType="1" res="-5.3028691560029984e-02" rms="4.1927576065063477e-02" purity="1.7291915137320757e-03" nType="-99"/>
              </Node>
              <Node pos="r" depth="4" NCoef="0" IVar="-1" Cut="0.0000000000000000e+00" cType="1" res="-3.8534838706254959e-02" rms="2.8297144174575806e-01" purity="1.5720544755458832e-01" nType="-99"/>
            </Node>
          </Node>
          <Node pos="r" depth="2" NCoef="0" IVar="7" Cut="1.5940333604812622e+00" cType="1" res="1.2417511083185673e-02" rms="3.0938258767127991e-01" purity="6.1831825971603394e-01" nType="0">
            <Node pos="l" depth="3" NCoef="0" IVar="39" Cut="4.0751102566719055e-01" cType="1" res="4.8459082841873169e-02" rms="2.9448303580284119e-01" purity="7.2369980812072754e-01" nType="0">
              <Node pos="l" depth="4" NCoef="0" IVar="-1" Cut="0.0000000000000000e+00" cType="1" res="-1.9823880866169930e-02" rms="3.1673377752304077e-01" purity="1.3396565616130829e-01" nType="-99"/>
              <Node pos="r" depth="4" NCoef="0" IVar="-1" Cut="0.0000000000000000e+00" cType="1" res="2.7679393067955971e-02" rms="2.8222766518592834e-01" purity="8.7402218580245972e-01" nType="-99"/>
            </Node>
            <Node pos="r" depth="3" NCoef="0" IVar="-1" Cut="0.0000000000000000e+00" cType="1" res="-2.7839811518788338e-02" rms="3.2708397507667542e-01" purity="3.4058016538619995e-01" nType="-99"/>
          </Node>
        </Node>
      </Node>
    </BinaryTree>
    <BinaryTree type="DecisionTree" boostWeight="1.0000000000000000e+00" itree="21">
      <Node pos="s" depth="0" NCoef="0" IVar="39" Cut="5.6353312730789185e-01" cType="1" res="-5.3266930626705289e-04" rms="2.6482418179512024e-01" purity="4.9901208281517029e-01" nType="0">
        <Node pos="l" depth="1" NCoef="0" IVar="39" Cut="2.3869711160659790e-01" cType="1" res="-6.9752581417560577e-02" rms="2.1034686267375946e-01" purity="6.7939631640911102e-02" nType="0">
          <Node pos="l" depth="2" NCoef="0" IVar="25" Cut="5.3655691146850586e+00" cType="1" res="-8.4959283471107483e-02" rms="1.7451542615890503e-01" purity="3.8687705993652344e-02" nType="0">
            <Node pos="l" depth="3" NCoef="0" IVar="-1" Cut="0.0000000000000000e+00" cType="1" res="-3.8106411695480347e-02" rms="2.9680374264717102e-01" purity="1.2370096147060394e-01" nType="-99"/>
            <Node pos="r" depth="3" NCoef="0" IVar="38" Cut="8.4422719478607178e-01" cType="1" res="-7.3561705648899078e-02" rms="1.1482447385787964e-01" purity="1.4066543430089951e-02" nType="0">
              <Node pos="l" depth="4" NCoef="0" IVar="3" Cut="9.2387786865234375e+01" cType="1" res="-6.7657925188541412e-02" rms="2.9122784733772278e-02" purity="8.1937893992289901e-04" nType="0">
                <Node pos="l" depth="5" NCoef="0" IVar="-1" Cut="0.0000000000000000e+00" cType="1" res="-5.2954290062189102e-02" rms="3.6223419010639191e-02" purity="1.2987757800146937e-03" nType="-99"/>
                <Node pos="r" depth="5" NCoef="0" IVar="-1" Cut="0.0000000000000000e+00" cType="1" res="-5.3176261484622955e-02" rms="2.1087953820824623e-02" purity="4.1952889296226203e-04" nType="-99"/>
              </Node>
              <Node pos="r" depth="4" NCoef="0" IVar="-1" Cut="0.0000000000000000e+00" cType="1" res="-3.9748493582010269e-02" rms="1.8631361424922943e-01" purity="3.7365380674600601e-02" nType="-99"/>
            </Node>
          </Node>
          <Node pos="r" depth="2" NCoef="0" IVar="38" Cut="7.1960890293121338e-01" cType="1" res="-4.1752789169549942e-02" rms="2.6158669590950012e-01" purity="1.2180061638355255e-01" nType="0">
            <Node pos="l" depth="3" NCoef="0" IVar="-1" Cut="0.0000000000000000e+00" cType="1" res="-5.0499685108661652e-02" rms="1.0216135531663895e-01" purity="9.7971847280859947e-03" nType="-99"/>
            <Node pos="r" depth="3" NCoef="0" IVar="-1" Cut="0.0000000000000000e+00" cType="1" res="-1.3299056445248425e-04" rms="3.6227366328239441e-01" purity="2.4931722879409790e-01" nType="-99"/>
          </Node>
        </Node>
        <Node pos="r" depth="1" NCoef="0" IVar="25" Cut="7.7455644607543945e+00" cType="1" res="3.6333087831735611e-02" rms="2.8285604715347290e-01" purity="7.2859644889831543e-01" nType="0">
          <Node pos="l" depth="2" NCoef="0" IVar="38" Cut="4.0833657979965210e-01" cType="1" res="7.0808053016662598e-02" rms="2.5228831171989441e-01" purity="8.5728102922439575e-01" nType="0">
            <Node pos="l" depth="3" NCoef="0" IVar="-1" Cut="0.0000000000000000e+00" cType="1" res="-9.2591913416981697e-03" rms="3.9832311868667603e-01" purity="2.8919950127601624e-01" nType="-99"/>
            <Node pos="r" depth="3" NCoef="0" IVar="-1" Cut="0.0000000000000000e+00" cType="1" res="3.5539474338293076e-02" rms="2.2348178923130035e-01" purity="9.2936974763870239e-01" nType="-99"/>
          </Node>
          <Node pos="r" depth="2" NCoef="0" IVar="22" Cut="1.9261620044708252e+00" cType="1" res="-4.9782171845436096e-02" rms="3.3239138126373291e-01" purity="4.0715441107749939e-01" nType="0">
            <Node pos="l" depth="3" NCoef="0" IVar="-1" Cut="0.0000000000000000e+00" cType="1" res="7.6156887225806713e-03" rms="3.2694357633590698e-01" purity="5.5189442634582520e-01" nType="-99"/>
            <Node pos="r" depth="3" NCoef="0" IVar="6" Cut="1.4531605243682861e+00" cType="1" res="-9.8952695727348328e-02" rms="3.2697156071662903e-01" purity="3.0943220853805542e-01" nType="0">
              <Node pos="l" depth="4" NCoef="0" IVar="-1" Cut="0.0000000000000000e+00" cType="1" res="-1.6967466101050377e-02" rms="3.4850326180458069e-01" purity="4.4787696003913879e-01" nType="-99"/>
              <Node pos="r" depth="4" NCoef="0" IVar="-1" Cut="0.0000000000000000e+00" cType="1" res="-5.3899284452199936e-02" rms="2.9315471649169922e-01" purity="1.5749397873878479e-01" nType="-99"/>
            </Node>
          </Node>
        </Node>
      </Node>
    </BinaryTree>
    <BinaryTree type="DecisionTree" boostWeight="1.0000000000000000e+00" itree="22">
      <Node pos="s" depth="0" NCoef="0" IVar="39" Cut="8.7529516220092773e-01" cType="1" res="-6.3440250232815742e-04" rms="2.6243099570274353e-01" purity="4.9849188327789307e-01" nType="0">
        <Node pos="l" depth="1" NCoef="0" IVar="7" Cut="1.1257212162017822e+00" cType="1" res="-5.1571797579526901e-02" rms="2.4153019487857819e-01" purity="1.6588068008422852e-01" nType="0">
          <Node pos="l" depth="2" NCoef="0" IVar="38" Cut="8.4425354003906250e-01" cType="1" res="-8.1299208104610443e-03" rms="2.8804385662078857e-01" purity="2.9986563324928284e-01" nType="0">
            <Node pos="l" depth="3" NCoef="0" IVar="-1" Cut="0.0000000000000000e+00" cType="1" res="-4.2120695114135742e-02" rms="1.5640830993652344e-01" purity="4.0032919496297836e-02" nType="-99"/>
            <Node pos="r" depth="3" NCoef="0" IVar="-1" Cut="0.0000000000000000e+00" cType="1" res="1.4994363300502300e-02" rms="3.5634696483612061e-01" purity="5.2760082483291626e-01" nType="-99"/>
          </Node>
          <Node pos="r" depth="2" NCoef="0" IVar="3" Cut="9.2605102539062500e+01" cType="1" res="-7.4665546417236328e-02" rms="2.0905894041061401e-01" purity="9.4654120504856110e-02" nType="0">
            <Node pos="l" depth="3" NCoef="0" IVar="38" Cut="8.4429907798767090e-01" cType="1" res="-5.4897516965866089e-02" rms="2.6573652029037476e-01" purity="1.7636953294277191e-01" nType="0">
