<?xml version="1.0"?>
<MethodSetup Method="DNN::DNN_QCD_CWoLa_Diff">
  <GeneralInfo>
    <Info name="TMVA Release" value="4.2.1 [262657]"/>
    <Info name="ROOT Release" value="6.12/04 [396292]"/>
    <Info name="Creator" value="viniciusmikuni"/>
    <Info name="Date" value="Thu Feb 22 15:03:00 2018"/>
    <Info name="Host" value="Darwin Viniciuss-MacBook-Pro.local 17.2.0 Darwin Kernel Version 17.2.0: Fri Sep 29 18:27:05 PDT 2017; root:xnu-4570.20.62~3/RELEASE_X86_64 x86_64"/>
    <Info name="Dir" value="/Users/viniciusmikuni/cernbox/CMS/ttbbAnalysis/KinFitter/test/MVA/BDT"/>
    <Info name="Training events" value="327123"/>
    <Info name="TrainingTime" value="1.78081904e+02"/>
    <Info name="AnalysisType" value="Classification"/>
  </GeneralInfo>
  <Options>
    <Option name="V" modified="Yes">True</Option>
    <Option name="VerbosityLevel" modified="No">Verbose</Option>
    <Option name="VarTransform" modified="Yes">None</Option>
    <Option name="H" modified="Yes">False</Option>
    <Option name="CreateMVAPdfs" modified="No">False</Option>
    <Option name="IgnoreNegWeightsInTraining" modified="No">False</Option>
    <Option name="Layout" modified="Yes">RELU|64,RELU|64,RELU|64,SOFTSIGN</Option>
    <Option name="ValidationSize" modified="No">20%</Option>
    <Option name="ErrorStrategy" modified="Yes">CROSSENTROPY</Option>
    <Option name="WeightInitialization" modified="Yes">XAVIERUNIFORM</Option>
    <Option name="Architecture" modified="Yes">CPU</Option>
    <Option name="TrainingStrategy" modified="Yes">LearningRate=1e-3,Momentum=0.0,Repetitions=1,ConvergenceSteps=20,BatchSize=256,TestRepetitions=10,Regularization=L2,Multithreading=True,DropConfig=0.1,DropRepetitions=1</Option>
  </Options>
  <Variables NVar="22">
    <Variable VarIndex="0" Expression="top1_m" Label="top1_m" Title="top1_m" Unit="" Internal="top1_m" Type="F" Min="7.38372192e+01" Max="2.88592499e+02"/>
    <Variable VarIndex="1" Expression="top2_m" Label="top2_m" Title="top2_m" Unit="" Internal="top2_m" Type="F" Min="6.75231781e+01" Max="2.88756622e+02"/>
    <Variable VarIndex="2" Expression="w1_m" Label="w1_m" Title="w1_m" Unit="" Internal="w1_m" Type="F" Min="1.75459976e+01" Max="1.75533081e+02"/>
    <Variable VarIndex="3" Expression="w2_m" Label="w2_m" Title="w2_m" Unit="" Internal="w2_m" Type="F" Min="1.84275913e+01" Max="1.74982010e+02"/>
    <Variable VarIndex="4" Expression="deltaRb1b2" Label="deltaRb1b2" Title="deltaRb1b2" Unit="" Internal="deltaRb1b2" Type="F" Min="0.00000000e+00" Max="5.62600613e+00"/>
    <Variable VarIndex="5" Expression="deltaRb1w1" Label="deltaRb1w1" Title="deltaRb1w1" Unit="" Internal="deltaRb1w1" Type="F" Min="0.00000000e+00" Max="7.88607883e+00"/>
    <Variable VarIndex="6" Expression="deltaRb2w2" Label="deltaRb2w2" Title="deltaRb2w2" Unit="" Internal="deltaRb2w2" Type="F" Min="0.00000000e+00" Max="6.87519073e+00"/>
    <Variable VarIndex="7" Expression="jet_CSV[0]" Label="jet_CSV[0]" Title="jet_CSV[0]" Unit="" Internal="jet_CSV_0_" Type="F" Min="0.00000000e+00" Max="1.00000000e+00"/>
    <Variable VarIndex="8" Expression="jet_CSV[1]" Label="jet_CSV[1]" Title="jet_CSV[1]" Unit="" Internal="jet_CSV_1_" Type="F" Min="0.00000000e+00" Max="1.00000000e+00"/>
    <Variable VarIndex="9" Expression="BDT_Comb" Label="BDT_Comb" Title="BDT_Comb" Unit="" Internal="BDT_Comb" Type="F" Min="-9.98443842e-01" Max="9.88075018e-01"/>
    <Variable VarIndex="10" Expression="simple_chi2" Label="simple_chi2" Title="simple_chi2" Unit="" Internal="simple_chi2" Type="F" Min="2.43276427e-03" Max="3.33767548e+01"/>
    <Variable VarIndex="11" Expression="meanDeltaRbtag" Label="meanDeltaRbtag" Title="meanDeltaRbtag" Unit="" Internal="meanDeltaRbtag" Type="F" Min="3.90224814e-01" Max="5.60265398e+00"/>
    <Variable VarIndex="12" Expression="mindeltaRb1q" Label="mindeltaRb1q" Title="mindeltaRb1q" Unit="" Internal="mindeltaRb1q" Type="F" Min="0.00000000e+00" Max="3.82866263e+00"/>
    <Variable VarIndex="13" Expression="mindeltaRb2p" Label="mindeltaRb2p" Title="mindeltaRb2p" Unit="" Internal="mindeltaRb2p" Type="F" Min="0.00000000e+00" Max="4.11091805e+00"/>
    <Variable VarIndex="14" Expression="jet_CSV[2]" Label="jet_CSV[2]" Title="jet_CSV[2]" Unit="" Internal="jet_CSV_2_" Type="F" Min="0.00000000e+00" Max="9.99574363e-01"/>
    <Variable VarIndex="15" Expression="jet_CSV[3]" Label="jet_CSV[3]" Title="jet_CSV[3]" Unit="" Internal="jet_CSV_3_" Type="F" Min="0.00000000e+00" Max="9.99629915e-01"/>
    <Variable VarIndex="16" Expression="jet_CSV[4]" Label="jet_CSV[4]" Title="jet_CSV[4]" Unit="" Internal="jet_CSV_4_" Type="F" Min="0.00000000e+00" Max="9.99520063e-01"/>
    <Variable VarIndex="17" Expression="jet_CSV[5]" Label="jet_CSV[5]" Title="jet_CSV[5]" Unit="" Internal="jet_CSV_5_" Type="F" Min="0.00000000e+00" Max="9.99631464e-01"/>
    <Variable VarIndex="18" Expression="jets_dRmax" Label="jets_dRmax" Title="jets_dRmax" Unit="" Internal="jets_dRmax" Type="F" Min="1.93230546e+00" Max="5.65536118e+00"/>
    <Variable VarIndex="19" Expression="jets_dRavg" Label="jets_dRavg" Title="jets_dRavg" Unit="" Internal="jets_dRavg" Type="F" Min="9.63145196e-01" Max="3.28623796e+00"/>
    <Variable VarIndex="20" Expression="all_mass" Label="all_mass" Title="all_mass" Unit="" Internal="all_mass" Type="F" Min="4.45707733e+02" Max="6.61677002e+03"/>
    <Variable VarIndex="21" Expression="closest_mass" Label="closest_mass" Title="closest_mass" Unit="" Internal="closest_mass" Type="F" Min="1.48440561e+01" Max="1.17368042e+02"/>
  </Variables>
  <Spectators NSpec="0"/>
  <Classes NClass="2">
    <Class Name="Signal" Index="0"/>
    <Class Name="Background" Index="1"/>
  </Classes>
  <Transformations NTransformations="0"/>
  <MVAPdfs/>
  <Weights InputWidth="22" Depth="4" LossFunction="C" OutputFunction="S">
    <Layer ActivationFunction="1">
      <Weights rows="64" cols="22">
        1.9639360904693604e-01 -4.9593240022659302e-02 -2.5812432169914246e-01 1.5092602372169495e-01 2.1173308789730072e-01 1.8597295880317688e-01 -1.3494880497455597e-01 -2.2242812439799309e-02 -3.1428143382072449e-02 -7.5275398790836334e-02 -2.7292191982269287e-01 2.7075102552771568e-02 2.4731406569480896e-01 3.4964490681886673e-02 8.5036590695381165e-02 -1.6030879318714142e-01 2.4664929509162903e-01 -1.7580266296863556e-01 1.8148194253444672e-01 2.2404395043849945e-01 5.1332008093595505e-02 3.1332802027463913e-02 -1.8827522173523903e-02 1.3967500068247318e-02 -2.9680293798446655e-01 -1.1783336102962494e-01 -6.5000556409358978e-02 -2.7777573466300964e-01 1.3510060310363770e-01 1.3117937743663788e-01 -2.4255056679248810e-01 -2.6277253031730652e-01 -1.8917749822139740e-01 5.6195650249719620e-02 -6.9854192435741425e-02 2.3946219682693481e-01 -2.3001225292682648e-01 1.8614636361598969e-01 -7.7273130416870117e-02 -2.9542332887649536e-01 1.7158219218254089e-01 -2.6830425858497620e-01 1.2362319976091385e-01 -1.1200711131095886e-01 2.1853581070899963e-02 2.8863996267318726e-01 -2.9747584462165833e-01 2.1970776841044426e-02 9.8447367548942566e-02 -3.0084791779518127e-01 -2.2750771045684814e-01 2.7627709507942200e-01 -5.3907621651887894e-02 -8.3361528813838959e-02 -2.3487870395183563e-01 -1.1342755705118179e-01 2.0069614052772522e-02 3.0856024473905563e-02 7.7870689332485199e-02 -9.2367880046367645e-02 -2.6104277931153774e-03 -1.6262440383434296e-01 -1.4034421741962433e-01 1.2374480813741684e-01 2.4448068812489510e-02 -1.0405623167753220e-01 1.0848326981067657e-01 1.1843415349721909e-01 -2.7155011892318726e-01 -2.4915480613708496e-01 -2.6577332988381386e-02 -2.9724463820457458e-01 1.4114199578762054e-01 8.7591214105486870e-03 1.6361679136753082e-01 -3.9870556443929672e-02 -1.5724629163742065e-01 -5.3574454039335251e-02 -1.7805377021431923e-02 -1.4022327959537506e-01 1.3174681365489960e-01 2.4509939551353455e-01 -5.2009020000696182e-02 2.1178923547267914e-01 -2.1860833466053009e-01 2.9519447684288025e-01 -6.0168270021677017e-02 5.1290512084960938e-02 -2.4256207048892975e-01 -5.5050268769264221e-02 -9.4991065561771393e-02 2.6206498965620995e-02 -2.8507024049758911e-02 1.9695708155632019e-01 5.9322573244571686e-02 -6.2584705650806427e-02 -6.5224356949329376e-02 3.1990326941013336e-02 2.9958668351173401e-01 2.7477312833070755e-02 -1.6154447197914124e-01 1.2654113769531250e-01 -2.6249436661601067e-02 -1.4983798563480377e-01 7.6976001262664795e-02 -2.0171652734279633e-01 1.2567539513111115e-01 1.4026607573032379e-01 -4.9344573169946671e-02 -2.5006434321403503e-01 -2.7000173926353455e-01 2.3401097953319550e-01 2.5178045034408569e-01 -7.4759922921657562e-02 1.7068861424922943e-01 7.2475671768188477e-02 -1.2033355981111526e-01 -1.0896166414022446e-01 1.7314179241657257e-01 8.3767890930175781e-02 -3.4102570265531540e-02 -7.2609551250934601e-02 4.1978927329182625e-03 7.5753028504550457e-03 1.4410783350467682e-01 -9.4360604882240295e-02 3.8006965070962906e-02 8.5444329306483269e-03 -5.3200677037239075e-02 1.0580814629793167e-01 1.0095610469579697e-01 -2.5483611226081848e-01 -1.3567022979259491e-02 8.8792905211448669e-02 -1.4019019901752472e-01 -2.4445773661136627e-01 1.0015664622187614e-02 1.7974574863910675e-01 3.4431245177984238e-02 -2.2240369021892548e-01 -1.8547308444976807e-01 6.3998974859714508e-02 2.5597035884857178e-01 5.9061064384877682e-03 -8.1189543008804321e-02 8.3276174962520599e-02 -2.8323724865913391e-01 -1.1944709718227386e-01 -1.4448328316211700e-01 7.0579297840595245e-02 -1.1834853887557983e-01 -2.1284022927284241e-01 9.4218067824840546e-02 -1.0875970125198364e-02 4.1671920567750931e-02 -2.0437426865100861e-01 1.0230932384729385e-01 1.6134615987539291e-02 1.0515957325696945e-01 -2.8859922289848328e-01 1.6625757515430450e-01 -1.2964619696140289e-01 -1.0776995867490768e-01 1.4154036343097687e-01 2.9548189043998718e-01 8.6323015391826630e-02 1.5142342448234558e-01 8.8282331824302673e-02 -1.3822799921035767e-01 -2.9773399233818054e-02 -3.9404649287462234e-02 1.2183777987957001e-01 -2.5269910693168640e-01 1.8291389942169189e-01 5.4075520485639572e-02 -3.0785387754440308e-01 -1.2668278813362122e-01 1.6470067203044891e-01 -6.6030934453010559e-02 -2.7826252579689026e-01 1.2785601615905762e-01 -2.5876232981681824e-01 1.6977605223655701e-01 -8.1126123666763306e-02 1.8439644575119019e-01 2.5369429588317871e-01 3.6654260009527206e-02 1.1956464499235153e-01 2.7333125472068787e-01 1.7271883785724640e-01 -6.4724072813987732e-02 -3.3516149967908859e-02 -3.8238640874624252e-02 -5.3564380854368210e-02 1.2873344123363495e-01 -4.8528369516134262e-03 1.0182978212833405e-01 -4.3067708611488342e-02 8.8120169937610626e-02 -1.0583912581205368e-01 -1.2526385486125946e-01 9.8085202276706696e-02 -2.5702825188636780e-01 2.1463772282004356e-02 1.4734618365764618e-01 2.4802848696708679e-01 1.0568436980247498e-01 1.1320246011018753e-01 2.0084191858768463e-01 -2.6238393038511276e-02 -1.0605110228061676e-01 -1.4371936023235321e-01 2.0743073895573616e-02 1.4909845590591431e-01 -2.8813776373863220e-01 -2.0442633330821991e-01 2.3979540169239044e-01 -9.2923134565353394e-02 8.9647918939590454e-02 -2.1507361531257629e-01 -1.2342809140682220e-01 4.0290854871273041e-02 -2.5197172164916992e-01 2.5167879462242126e-01 -2.4899029731750488e-01 -8.5242010653018951e-02 2.5795245170593262e-01 2.8967097401618958e-01 -8.0945730209350586e-02 -1.4088600873947144e-01 -2.7916151285171509e-01 -6.8474546074867249e-02 2.4042671918869019e-01 -2.1810077130794525e-01 8.4230557084083557e-02 1.8210187554359436e-01 -2.7989727258682251e-01 -8.6749657988548279e-02 8.6420647799968719e-02 5.4463244974613190e-02 8.4332011640071869e-02 2.0162071287631989e-01 -2.0704726874828339e-01 -2.2141166031360626e-01 1.8031984567642212e-01 1.7199765890836716e-02 1.9899547100067139e-01 -3.0010274052619934e-01 1.6836506128311157e-01 1.5231068432331085e-01 -2.3629623651504517e-01 2.4836233258247375e-01 1.1939578503370285e-01 -1.6387343406677246e-01 -9.4368919730186462e-02 -1.2201859802007675e-01 -2.2524794936180115e-01 1.8403404951095581e-01 -8.8776171207427979e-02 -1.9415378570556641e-01 6.2936000525951385e-02 1.1087431758642197e-01 -9.3349002301692963e-02 6.5509706735610962e-02 2.1592208743095398e-01 -2.5617647171020508e-01 1.4432241022586823e-01 2.8499916195869446e-01 -2.1762193739414215e-01 -1.3970260322093964e-01 1.1446715332567692e-02 -2.5819468498229980e-01 -2.5992873311042786e-01 -2.2724880278110504e-01 9.0103829279541969e-03 -2.2145926952362061e-01 1.8565189838409424e-01 -2.0797704160213470e-01 2.7558502554893494e-01 2.7938923239707947e-01 1.6658955812454224e-01 -4.5192893594503403e-02 2.6968654990196228e-01 -1.6241814196109772e-01 6.5393010154366493e-03 1.3980272412300110e-01 -1.0610189288854599e-01 1.6921652853488922e-01 8.5736237466335297e-02 1.4297159016132355e-01 1.9588646292686462e-01 -2.6213216781616211e-01 -1.0855208337306976e-01 1.3944661617279053e-01 -4.3770605698227882e-03 -1.2014853209257126e-01 -1.8189106881618500e-01 2.6832190155982971e-01 -1.1478945612907410e-01 -2.2837610542774200e-01 -2.7270540595054626e-02 3.4356236457824707e-02 -2.6828351616859436e-01 -7.0922069251537323e-02 -7.3969371616840363e-02 -1.7272071540355682e-01 -1.5651135146617889e-01 2.9131814837455750e-01 -2.6522180438041687e-01 -2.1319855749607086e-01 -2.6803305745124817e-01 1.0185444355010986e-01 2.5881722569465637e-01 -3.1836223602294922e-01 -2.9809984564781189e-01 7.6300613582134247e-02 3.0028495192527771e-01 3.0805543065071106e-01 -6.3765205442905426e-02 -3.4493144601583481e-02 -3.3977877348661423e-02 6.1669889837503433e-02 8.2805976271629333e-02 1.5252250432968140e-01 1.0226541757583618e-01 -5.1518961787223816e-02 -2.2300346195697784e-01 -3.6761477589607239e-02 1.7901703715324402e-01 4.0805924683809280e-02 -2.6747491955757141e-01 -2.6868385076522827e-01 -1.8982619047164917e-02 -2.0298910140991211e-01 -1.9482617080211639e-01 -1.8104211986064911e-01 -4.2935408651828766e-02 2.5574314594268799e-01 -2.4972228705883026e-01 -1.9626560807228088e-01 -6.8907201290130615e-02 -2.7364596724510193e-01 2.9306283593177795e-01 -4.4996395707130432e-02 2.3396320641040802e-01 8.9250719174742699e-03 1.4497005939483643e-01 3.3336851745843887e-02 2.8644075989723206e-01 7.5962521135807037e-02 -2.4166031181812286e-01 4.0984742343425751e-02 -1.5091641247272491e-01 -2.3269271850585938e-01 4.3977331370115280e-02 -1.5185005962848663e-02 2.8941303491592407e-01 8.6954019963741302e-02 3.0933576822280884e-01 1.4997056685388088e-02 -9.3295797705650330e-02 -3.0711978673934937e-01 3.1817582249641418e-01 -1.8304887413978577e-01 3.0881494283676147e-01 1.5568201243877411e-01 8.8979855179786682e-02 2.1914371848106384e-01 7.6360918581485748e-02 1.2973621487617493e-01 2.9951795935630798e-01 -2.1014535799622536e-02 1.4039348065853119e-01 -3.1623882055282593e-01 -1.5426626801490784e-01 -2.8644955158233643e-01 -1.7279845476150513e-01 -1.3264586031436920e-01 1.4582815766334534e-01 1.3754720985889435e-01 -1.0151340067386627e-01 -1.5973344445228577e-02 -4.3060909956693649e-02 -9.7456173971295357e-03 2.6638770103454590e-01 -1.7936295270919800e-01 2.2522281110286713e-01 -7.6849959790706635e-02 2.2780977189540863e-01 2.8727555274963379e-01 7.6574005186557770e-02 1.8028828501701355e-01 -1.6645805537700653e-01 -2.5492447614669800e-01 -4.4667597860097885e-02 -6.3391596078872681e-02 -2.3030471801757812e-01 2.4243488907814026e-01 -1.5049973130226135e-01 -1.1773537844419479e-01 -2.4848392605781555e-01 -1.1879569292068481e-01 -4.4888004660606384e-02 1.2515372037887573e-01 -2.1212476491928101e-01 -1.8233825266361237e-01 3.7128832191228867e-02 2.4650655686855316e-01 -2.6750931143760681e-01 3.0126428604125977e-01 -1.3412040472030640e-01 2.1243353188037872e-01 -2.0480063557624817e-01 2.3341880738735199e-01 1.3896229863166809e-01 1.9934701919555664e-01 1.1240421235561371e-01 -1.2474911659955978e-01 -1.5509150922298431e-01 2.5610446929931641e-01 -2.4045571684837341e-01 -2.7628460526466370e-01 1.2903729081153870e-01 2.4568469822406769e-01 -2.5607267022132874e-01 -9.6491128206253052e-02 -9.2258499935269356e-03 -1.4166131615638733e-01 1.7889893054962158e-01 1.1388810724020004e-01 6.4639404416084290e-02 2.6845073699951172e-01 1.0494481027126312e-01 1.5152677893638611e-01 -1.1464474350214005e-01 1.9826026260852814e-01 -1.8296585977077484e-01 6.0200825333595276e-02 -7.4304200708866119e-02 -2.2216168045997620e-01 -1.5013988316059113e-01 7.0899128913879395e-02 -2.6784628629684448e-01 1.6584484279155731e-01 1.7931267619132996e-01 -2.1251022815704346e-01 -1.7589718103408813e-01 2.5702902674674988e-01 4.1195902973413467e-02 -1.2280078977346420e-01 2.0794446766376495e-01 1.0502794384956360e-01 1.0940957814455032e-01 -1.6307871043682098e-01 1.9039767980575562e-01 -1.7728762328624725e-01 -1.9097243249416351e-01 -2.4681384861469269e-01 1.8679680302739143e-02 1.3779547810554504e-01 8.9134737849235535e-02 7.5661465525627136e-02 4.4332116842269897e-02 2.7748793363571167e-01 2.6205563545227051e-01 -6.7739002406597137e-03 -2.4798886477947235e-01 1.9761203229427338e-01 -3.9889454841613770e-02 2.6866745948791504e-01 -5.2372597157955170e-02 -1.1225581914186478e-01 4.6077955514192581e-02 1.1405620723962784e-01 -2.1249945461750031e-01 -1.0409165918827057e-01 1.6428533196449280e-01 -5.7820945978164673e-02 -2.6377442479133606e-01 8.6474098265171051e-02 2.1086458582431078e-03 -2.5932109355926514e-01 -9.9071852862834930e-02 -2.6043939590454102e-01 1.9793146848678589e-01 1.1074113100767136e-01 -1.4728615991771221e-02 4.7079619020223618e-02 1.0984889231622219e-02 2.2735057771205902e-01 -2.9489155858755112e-02 1.4997702836990356e-01 7.6600010506808758e-03 1.5066769719123840e-01 8.8501729071140289e-02 -2.5446683168411255e-01 -2.0152062177658081e-01 -1.4375309646129608e-01 8.1759996712207794e-02 2.0301662385463715e-01 1.2930849194526672e-01 2.3737415671348572e-01 -2.1256212890148163e-01 8.6144313216209412e-02 -1.7808562517166138e-01 1.4777781069278717e-01 -1.6519884765148163e-01 1.0546494275331497e-01 2.5126329064369202e-01 7.0098072290420532e-02 -1.9573859870433807e-02 -3.7214037030935287e-02 1.5871648490428925e-01 -1.8118526041507721e-01 2.1607358753681183e-01 2.7115932106971741e-01 -3.7805750966072083e-01 8.8085152208805084e-02 -1.8790195882320404e-01 5.5871471762657166e-02 1.6310381889343262e-01 4.2831365019083023e-02 5.6727048009634018e-02 -7.4542030692100525e-02 -3.1178417801856995e-01 2.2184875607490540e-01 2.8490070253610611e-02 5.2825342863798141e-02 -8.0045714974403381e-02 -2.1489822864532471e-01 -1.4461392164230347e-01 -2.9035294055938721e-01 -2.3552291095256805e-01 2.4600569903850555e-01 -2.8087601065635681e-01 2.8724125027656555e-01 -1.3421958684921265e-01 3.4874513745307922e-01 -1.0835332423448563e-01 1.5895059704780579e-01 -2.5197097659111023e-01 5.7459037750959396e-02 -4.7815866768360138e-02 2.8806481510400772e-02 -7.7059015631675720e-02 -1.2075266242027283e-01 2.3883682489395142e-01 7.5699843466281891e-02 1.8153719604015350e-01 1.3131763041019440e-01 1.6866672784090042e-02 -6.0150213539600372e-02 -7.3256574571132660e-02 -3.8969557732343674e-02 1.8580751121044159e-01 1.7463561892509460e-01 -1.1353321373462677e-01 1.4610683917999268e-01 2.9597595334053040e-01 -1.9387339055538177e-01 -1.7089946568012238e-01 8.6306571960449219e-02 2.2990700602531433e-01 1.6006243228912354e-01 1.9389419257640839e-01 -5.3389545530080795e-02 1.1219813674688339e-01 8.9429363608360291e-02 -1.2592994607985020e-03 1.1336012929677963e-01 -1.0841639339923859e-01 1.7910481989383698e-01 8.1026799976825714e-02 -2.4994829297065735e-01 -2.1123242378234863e-01 1.3710819184780121e-03 1.3954710960388184e-01 7.7072121202945709e-02 8.1430599093437195e-02 -6.8367511034011841e-02 -1.4435525052249432e-02 2.2081097960472107e-01 2.1496018767356873e-01 5.5523395538330078e-02 -3.1137742102146149e-02 -2.9089239239692688e-01 -7.9110980033874512e-02 -1.7809444665908813e-01 1.4768172800540924e-01 2.8215569257736206e-01 -7.3844082653522491e-02 2.5801336392760277e-02 -1.8177878856658936e-01 -9.2811752110719681e-03 1.3344316184520721e-01 -7.5924076139926910e-02 -7.9403780400753021e-02 -5.3044289350509644e-02 -7.9662911593914032e-02 1.5895910561084747e-01 -1.6765588894486427e-02 8.8246956467628479e-02 1.9230565428733826e-01 -2.6653236150741577e-01 3.4275451302528381e-01 -4.0887080132961273e-02 1.0405103862285614e-01 9.1631866991519928e-02 -1.8210798501968384e-01 5.3420521318912506e-02 1.5841899439692497e-02 -2.7534022927284241e-01 1.1012251675128937e-01 8.8424175977706909e-02 3.3287167549133301e-02 -2.2523192688822746e-02 1.8439123034477234e-01 -2.2526924312114716e-01 -2.9319924116134644e-01 2.9769447445869446e-01 2.0679660141468048e-01 2.8748884797096252e-01 -1.1569796502590179e-01 1.0596425086259842e-01 -2.8511321172118187e-02 1.8605935573577881e-01 -1.6883878037333488e-02 -7.0478014647960663e-02 6.7713536322116852e-02 -2.0533667504787445e-01 8.4597252309322357e-02 1.6545103490352631e-01 -1.5811596810817719e-01 -2.8900611400604248e-01 2.6863040402531624e-02 -1.5286664664745331e-01 6.7922389134764671e-03 -1.5233634412288666e-01 2.6912742853164673e-01 1.3369224965572357e-01 1.0895146429538727e-01 2.1521210670471191e-01 3.6283008754253387e-02 6.5191999077796936e-02 2.3897911608219147e-01 7.8068632865324616e-04 -1.6091731190681458e-01 -2.7947294712066650e-01 -2.3206324875354767e-01 -7.8560240566730499e-02 -2.5661042332649231e-01 1.3881082646548748e-02 -8.8692799210548401e-02 -2.8073915839195251e-01 -1.2381301075220108e-01 -1.5396341681480408e-01 2.1150411665439606e-01 -2.3371602594852448e-01 -2.9407428577542305e-02 -8.0028280615806580e-02 -1.5850295126438141e-01 -1.3380868732929230e-01 1.8540163338184357e-01 3.1189179420471191e-01 2.3438456654548645e-01 -2.1414196491241455e-01 -8.1436268985271454e-02 -8.7136458605527878e-03 9.3448505504056811e-04 4.7988924197852612e-03 -3.1008994579315186e-01 -6.3811756670475006e-02 -1.8392968177795410e-01 2.5871953368186951e-01 -1.7314511537551880e-01 -1.7481233179569244e-01 1.0420574992895126e-01 1.2105312943458557e-01 -2.7418762445449829e-01 1.1819147318601608e-01 8.3030492067337036e-02 -2.7702504396438599e-01 -1.8721646070480347e-01 -6.1068892478942871e-02 -1.9979056715965271e-01 -1.8249827623367310e-01 1.9088074564933777e-01 -2.8820442967116833e-03 2.9419916868209839e-01 -1.8594801425933838e-01 -1.1011279374361038e-01 2.9674074053764343e-01 8.6313061416149139e-02 9.2510275542736053e-02 -2.1461771428585052e-01 -2.2272846102714539e-01 2.8952217102050781e-01 2.2043074667453766e-01 1.7687182128429413e-01 -4.4510927051305771e-02 1.3929858803749084e-01 -1.5293249487876892e-01 1.1930514127016068e-01 3.2391481101512909e-02 2.6548779010772705e-01 2.9338663816452026e-01 -6.9797374308109283e-02 -2.6846665143966675e-01 1.6836673021316528e-01 -8.2564547657966614e-02 -8.1562563776969910e-02 7.1948538534343243e-03 -1.5154823660850525e-01 -2.1068643033504486e-01 -4.6430367976427078e-02 -2.0538105070590973e-01 1.4046531915664673e-01 7.6671555638313293e-02 -1.1477389186620712e-01 -1.2305967509746552e-01 -1.8669877946376801e-01 -1.7620500922203064e-01 -1.6586048901081085e-01 2.9755786061286926e-01 -2.5370123982429504e-01 1.1509941518306732e-01 -2.5012585520744324e-01 9.0726800262928009e-02 2.9130911827087402e-01 -1.2472978234291077e-01 1.0970518738031387e-01 1.7330250144004822e-01 7.6798997819423676e-02 -2.5969006121158600e-02 -2.2506628185510635e-02 2.2891640663146973e-01 -1.8334165215492249e-01 2.5234127044677734e-01 1.7841842025518417e-02 2.7391087263822556e-02 -1.8649819493293762e-01 -1.3224503956735134e-02 1.9172795116901398e-02 -1.9636051356792450e-01 1.9531716406345367e-01 -2.9431304335594177e-01 1.3753406703472137e-02 8.0943271517753601e-02 -1.6628743708133698e-01 2.9137751460075378e-01 -1.7722745239734650e-01 -3.4349399805068970e-01 -2.1441571414470673e-02 1.0137439519166946e-01 2.0361487567424774e-01 -1.1968281120061874e-01 -2.3370920121669769e-01 2.4594001471996307e-01 1.8435621261596680e-01 -8.7461426854133606e-02 1.7497709393501282e-01 1.9711896777153015e-01 -4.3722994625568390e-02 -1.2419875711202621e-01 8.9110024273395538e-02 1.9822336733341217e-01 6.4058654010295868e-02 1.0716818273067474e-01 3.2891955226659775e-02 3.2008904218673706e-01 -6.6615588963031769e-02 2.4702730774879456e-01 -2.8451350331306458e-01 1.4829653501510620e-01 1.7439098656177521e-01 2.6407396793365479e-01 1.3566660881042480e-01 -1.3278543949127197e-01 1.2196424603462219e-01 -2.9572485946118832e-03 -1.4461876451969147e-01 2.0717625319957733e-01 2.2381597757339478e-01 2.2252501547336578e-01 4.8199404031038284e-02 -3.8551814854145050e-02 -1.6487416625022888e-01 1.9256438314914703e-01 3.7059620022773743e-02 -5.8187030255794525e-02 -7.3232538998126984e-03 2.7397465705871582e-01 -1.3720194995403290e-01 -1.2382326275110245e-01 2.2145715355873108e-01 2.3425580561161041e-01 5.1688153296709061e-02 2.5317654013633728e-01 -1.8241274356842041e-01 1.3532380759716034e-01 -1.0286557674407959e-01 6.0364264994859695e-02 -1.3427755795419216e-02 2.6644819974899292e-01 2.5810310244560242e-01 -2.4462856352329254e-01 -8.4396369755268097e-02 1.2027915567159653e-01 -1.8360839784145355e-01 2.4725297093391418e-01 -9.0758055448532104e-02 1.1688093841075897e-01 6.8320535123348236e-02 1.7950321733951569e-01 5.6303579360246658e-02 -1.1159008741378784e-01 2.8775894641876221e-01 1.2423220276832581e-01 2.9534369707107544e-01 5.2626136690378189e-02 -3.0680844560265541e-02 -6.8382978439331055e-02 2.3479342460632324e-01 8.2837641239166260e-02 -2.4621213972568512e-01 3.3714705705642700e-01 -1.2902197241783142e-01 -1.3893832266330719e-01 -1.0029310733079910e-01 -1.9836041331291199e-01 -2.3475456237792969e-01 -3.4309055656194687e-02 -1.9291429221630096e-01 8.5282161831855774e-02 -7.2610527276992798e-03 2.9063871502876282e-01 -1.1857289075851440e-01 1.9172275066375732e-01 -2.2473562508821487e-02 2.8988316655158997e-01 -2.9357925057411194e-01 -1.1338945478200912e-01 9.4287276268005371e-02 -1.7013637721538544e-01 2.4549247324466705e-01 -2.8590711951255798e-01 3.9535576105117798e-01 4.7031220048666000e-02 2.6022362709045410e-01 3.1107297539710999e-01 -2.3813451826572418e-01 2.1758541464805603e-01 -2.1710248291492462e-01 1.0548986494541168e-01 3.4645367413759232e-02 2.0845724642276764e-01 -4.0698924567550421e-04 -1.2289571017026901e-01 -1.4944817870855331e-02 1.2448553740978241e-01 -2.6958248019218445e-01 2.2337035834789276e-01 -2.2783659398555756e-01 2.4427688121795654e-01 -4.8793490976095200e-02 -7.3531098663806915e-02 1.1886519193649292e-01 1.4137040078639984e-01 -2.1820573508739471e-01 -1.6579848527908325e-01 -1.2080861628055573e-01 7.8588649630546570e-03 2.5594583153724670e-01 2.7991223335266113e-01 2.5304710865020752e-01 -1.4049634337425232e-01 2.1116714179515839e-01 -1.8439030647277832e-01 9.1127566993236542e-02 1.1784569919109344e-01 -1.7933690547943115e-01 -2.1856680512428284e-01 -2.3277886211872101e-01 1.4183805882930756e-01 2.6551046967506409e-01 -2.4679684638977051e-01 2.1358124911785126e-01 -1.3653883337974548e-01 -8.2562811672687531e-02 2.9325038194656372e-01 1.7265123128890991e-01 -4.2110759764909744e-02 -9.5638453960418701e-02 2.8939151763916016e-01 -2.9634901881217957e-01 1.0918860882520676e-01 1.5783177316188812e-01 -8.7463580071926117e-02 2.0912598073482513e-01 -2.4015244841575623e-01 -4.4680517166852951e-02 6.5119788050651550e-02 2.9914087057113647e-01 -1.5137848258018494e-01 -2.6314449310302734e-01 -2.9059356451034546e-01 -1.0157003998756409e-01 2.3227760195732117e-01 -2.5973173975944519e-01 1.8343368172645569e-01 2.8223237395286560e-01 2.1138089895248413e-01 3.7154547870159149e-02 -3.7991754710674286e-02 -3.0065202713012695e-01 6.6038936376571655e-02 6.1458554118871689e-02 -1.5288668870925903e-01 2.7831053733825684e-01 1.3270683586597443e-01 -1.3540028035640717e-01 -9.3326508998870850e-02 5.5090758949518204e-02 -5.8685768395662308e-02 4.2274836450815201e-02 7.4608385562896729e-02 1.7460895702242851e-02 -2.9705226421356201e-01 1.2504203617572784e-01 -3.4151215106248856e-02 -2.1137855947017670e-01 2.4362222850322723e-01 -1.4599960995838046e-03 2.8048262000083923e-01 6.1623081564903259e-02 -8.7859101593494415e-02 1.1034438759088516e-01 2.3298192024230957e-01 -1.3258478045463562e-01 -5.8221776038408279e-02 -9.4579860568046570e-02 2.4760137498378754e-01 -1.7118147015571594e-01 -2.3687696456909180e-01 -1.7701673507690430e-01 -3.2641768455505371e-02 -1.7704184353351593e-01 2.1275074779987335e-01 -2.8910246491432190e-01 3.8523718714714050e-02 2.7111670374870300e-01 1.3260465860366821e-01 1.4161589741706848e-01 2.3340854048728943e-01 1.3442139327526093e-01 -2.2895540297031403e-01 1.1074937134981155e-01 -4.2004998773336411e-02 -8.2883872091770172e-02 9.6978060901165009e-02 -2.6299644261598587e-02 2.3284974694252014e-01 -1.3006389141082764e-01 -2.3156982660293579e-01 2.1317969262599945e-01 -1.9931118190288544e-01 -1.3725581765174866e-01 6.5954230725765228e-02 -6.9978028535842896e-02 -1.8385426700115204e-01 9.9646061658859253e-02 -1.5192027390003204e-01 3.5142913460731506e-02 -1.4344923198223114e-01 2.7028247714042664e-01 -2.6842704415321350e-01 -1.2673072516918182e-01 -3.6340260505676270e-01 1.8228489160537720e-01 -2.8153619170188904e-01 -9.2823997139930725e-02 -3.1125530600547791e-02 2.3521280288696289e-01 -5.3146768361330032e-02 2.0772850513458252e-01 -1.8877197057008743e-02 -1.4861936867237091e-01 2.4189132452011108e-01 1.1082314699888229e-01 -2.2310216724872589e-01 -1.6784638166427612e-01 -2.5171419978141785e-01 2.8242817521095276e-01 -1.3645817339420319e-01 -5.9054471552371979e-02 1.8370707333087921e-01 -1.5572990477085114e-01 2.7460578083992004e-01 -2.7885648608207703e-01 -1.5728725120425224e-02 6.7365936934947968e-02 2.4774713814258575e-01 2.4871081113815308e-01 1.1017303168773651e-01 2.9823276400566101e-01 -1.3123549520969391e-01 -2.0010422170162201e-01 2.8589448332786560e-01 8.1234209239482880e-02 -1.0792858665809035e-03 1.7337730154395103e-02 2.5668472051620483e-01 1.9790793955326080e-01 2.1182954311370850e-01 1.6855390369892120e-01 -7.3717013001441956e-03 -4.2874179780483246e-02 -1.2000256776809692e-01 -9.8891258239746094e-03 -1.0923241823911667e-01 2.2597089409828186e-01 -1.7805083096027374e-01 1.8276517093181610e-01 -1.7807300388813019e-01 1.6943673789501190e-01 1.5368249267339706e-02 -2.3406921327114105e-01 -2.2133412957191467e-01 5.9507708996534348e-02 2.2135779261589050e-01 2.4754039943218231e-01 2.5046473741531372e-01 2.2797056008130312e-03 -3.2363412901759148e-03 2.1367380023002625e-01 -1.6704415902495384e-02 2.4191001057624817e-01 -3.6445584148168564e-02 -1.6906483471393585e-01 5.7046469300985336e-03 5.4732695221900940e-02 -2.9298288747668266e-02 -2.0734581351280212e-01 3.2502296566963196e-01 -3.2478702068328857e-01 2.9279491305351257e-01 9.1676607728004456e-02 -1.6819410026073456e-01 -2.7845072746276855e-01 2.6470211148262024e-01 -3.0346027016639709e-01 2.7171042561531067e-01 1.3161426782608032e-01 2.8282192349433899e-01 -1.3429705053567886e-02 4.5654620975255966e-02 -1.2285386025905609e-01 1.9872701168060303e-01 3.4888610243797302e-02 -1.1784599721431732e-01 -2.7074816823005676e-01 -8.3571657538414001e-02 2.5287106633186340e-01 2.6821952313184738e-02 3.8878871127963066e-03 7.7715352177619934e-02 2.6381722092628479e-01 -2.2374878823757172e-01 2.8818672895431519e-01 -2.0222291350364685e-01 -2.8782072663307190e-01 -1.5679776668548584e-01 6.5762177109718323e-02 1.4270053803920746e-01 -6.4915031194686890e-02 2.6886677742004395e-01 1.0113050788640976e-01 -8.1458099186420441e-02 -9.8889518994837999e-05 7.9774186015129089e-02 3.2485798001289368e-01 -1.1660340428352356e-01 2.2895413637161255e-01 2.5388786569237709e-02 3.1315785646438599e-01 1.9841009750962257e-02 -1.4868068695068359e-01 1.2316136620938778e-02 2.0911468565464020e-01 -3.0461025238037109e-01 -2.2608508169651031e-01 1.9516319036483765e-01 -2.3247854411602020e-01 4.2663130909204483e-02 2.2688296437263489e-01 9.1969050467014313e-02 1.1016634851694107e-01 8.5349805653095245e-02 -2.1539353765547276e-03 3.9729807525873184e-02 2.1875260770320892e-01 -2.3899348080158234e-01 1.2981837987899780e-01 3.3418783545494080e-01 -3.1472481787204742e-02 1.2443819642066956e-01 -2.1554479002952576e-01 2.8541591763496399e-01 -6.0127697885036469e-02 3.3477270603179932e-01 -2.0455791056156158e-01 -1.6192895174026489e-01 -1.7918366193771362e-01 7.6450876891613007e-02 1.0274537652730942e-01 1.6934482753276825e-01 1.1080103926360607e-02 2.8565934300422668e-01 -6.3910789787769318e-02 1.9491106271743774e-01 7.2871817974373698e-04 2.0296245813369751e-01 2.5361439585685730e-01 2.0106072723865509e-01 -2.0725655555725098e-01 1.0999735444784164e-01 2.0337738096714020e-01 2.7036291360855103e-01 7.5260098092257977e-03 7.2828762233257294e-02 -4.9036934971809387e-02 -1.6988769173622131e-02 2.2946853935718536e-01 1.3944748044013977e-01 -2.1043213084340096e-02 -1.0567990690469742e-01 1.4949829876422882e-01 -2.7054840326309204e-01 1.8140117824077606e-01 2.3686727881431580e-01 3.2932523638010025e-02 -1.8271310627460480e-01 -1.3208024203777313e-02 2.5632894039154053e-01 -2.7821136638522148e-02 4.2945135384798050e-02 -8.6208611726760864e-02 1.0662050545215607e-01 3.4318214748054743e-03 -2.4029433727264404e-01 -1.8744498491287231e-02 9.5811702311038971e-02 1.7472982406616211e-01 1.3864696025848389e-01 6.5348587930202484e-02 -1.5449520945549011e-01 -8.9607790112495422e-02 9.1958679258823395e-02 1.1857149749994278e-01 1.8854045867919922e-01 -2.5002571940422058e-01 -1.1756552383303642e-02 -2.4750633537769318e-01 2.2928519546985626e-01 -2.6621344685554504e-01 -1.1647683568298817e-02 -2.8636285662651062e-01 2.4538437719456851e-04 3.3278030157089233e-01 1.0708312690258026e-01 2.8408870100975037e-01 1.8486292660236359e-01 2.2526866197586060e-01 -4.6909667551517487e-02 2.8557413816452026e-01 5.2995555102825165e-02 -2.4651519954204559e-01 2.9322057962417603e-01 -8.8697232306003571e-02 -2.6285654306411743e-01 -1.2398409843444824e-01 7.2449058294296265e-02 -3.0220523476600647e-01 -2.4738445878028870e-01 -1.6928537189960480e-01 -1.6359627246856689e-01 1.2538142502307892e-01 -4.5921593904495239e-02 -3.0827319249510765e-02 -1.6872583329677582e-01 -1.4130586385726929e-01 -1.3453385233879089e-01 -1.6349154710769653e-01 -1.2590414285659790e-01 1.6484113037586212e-01 1.3781477510929108e-01 2.5950631499290466e-01 3.0033847689628601e-01 1.1467613279819489e-01 -2.1782404184341431e-01 -1.9361957907676697e-01 2.2019340097904205e-01 2.0806927978992462e-01 2.8096905350685120e-01 -2.3174570500850677e-01 1.7527174949645996e-01 1.0130213201045990e-01 -1.3131834566593170e-01 -3.4393880516290665e-02 -2.4205435812473297e-01 1.1036121100187302e-01 -1.9054719805717468e-01 -1.0109984315931797e-02 -2.5269153714179993e-01 -3.4306559711694717e-02 1.0763212293386459e-01 2.8543871641159058e-01 -7.5162686407566071e-02 -8.8463485240936279e-02 -2.2071242332458496e-01 1.8263898789882660e-01 -2.9159608483314514e-01 -6.7345090210437775e-02 2.4046860635280609e-01 -4.0868215262889862e-02 8.5414741188287735e-03 -2.1950155496597290e-01 -1.9843725860118866e-01 -1.8645152449607849e-01 1.7678569257259369e-01 -2.0653261244297028e-01 1.3238087296485901e-01 -1.8609999120235443e-01 -9.0877696871757507e-02 -1.9067791104316711e-01 6.8318277597427368e-02 -2.8448310494422913e-01 -3.4533649682998657e-02 1.4474840462207794e-01 -2.4809758365154266e-01 -1.9778847694396973e-01 4.5259803533554077e-02 1.5110661089420319e-01 -2.6857060194015503e-01 2.2440439462661743e-01 2.2405552864074707e-01 -1.6155427694320679e-01 3.5304088145494461e-02 1.1776657402515411e-01 1.2896332191303372e-03 1.9700139760971069e-01 -1.6725039482116699e-01 1.5404099225997925e-01 7.1180323138833046e-03 2.0080620050430298e-01 1.8743005394935608e-01 2.6575517654418945e-01 2.8357186913490295e-01 -1.0803405195474625e-01 -3.9950672537088394e-02 1.5814769268035889e-01 -2.0661516487598419e-01 -4.9840793013572693e-02 -2.2605943679809570e-01 2.0575171336531639e-02 -2.4785540997982025e-01 2.6262161135673523e-01 2.7562072873115540e-01 1.7483884096145630e-01 -1.9271552562713623e-01 2.2638492286205292e-01 -3.5954676568508148e-02 2.9363825917243958e-01 3.8010410964488983e-02 -1.7846368253231049e-01 -2.5072416663169861e-01 -3.2423410564661026e-02 -1.9739104807376862e-01 1.5435165166854858e-01 -2.0658913999795914e-02 1.6638351976871490e-01 -1.3699257373809814e-01 1.0499031096696854e-01 6.6216073930263519e-02 -4.5563079416751862e-02 -2.8487297892570496e-01 -2.4265421554446220e-02 2.3751084506511688e-01 8.5886120796203613e-02 1.3093169033527374e-01 2.6146838068962097e-01 1.7679627239704132e-01 1.4236707985401154e-01 -1.4435683190822601e-01 -7.8426316380500793e-02 2.6394340395927429e-01 -3.3075518906116486e-02 -2.4095475673675537e-02 1.8896114826202393e-01 6.9042824208736420e-02 3.5681590437889099e-02 1.3013267517089844e-01 2.3869183659553528e-01 -9.8049744963645935e-02 -2.4532853066921234e-01 -2.2416271269321442e-01 1.5171560645103455e-01 -2.7600752655416727e-03 4.9681677483022213e-03 -2.3790961503982544e-01 -6.1457846313714981e-02 1.4361064136028290e-01 -1.0215310752391815e-01 1.3126812875270844e-01 1.5131503343582153e-01 -1.3830666244029999e-01 -1.2890669703483582e-01 1.2110009044408798e-01 5.7952858507633209e-02 -5.3371220827102661e-02 -1.4582704007625580e-01 -1.1104822158813477e-01 -2.7034610509872437e-01 1.0949814319610596e-01 -1.8134806305170059e-03 -2.5627264380455017e-01 2.1280418336391449e-01 -1.5425461530685425e-01 2.4847830832004547e-01 -2.1676132082939148e-01 2.8633779287338257e-01 -2.3345904052257538e-01 -2.0983916521072388e-01 2.1737107634544373e-01 1.0321953333914280e-02 -1.2297808192670345e-02 6.6542752087116241e-02 -2.8915154933929443e-01 2.7251073718070984e-01 1.7576354742050171e-01 -4.6885561197996140e-02 4.4490564614534378e-02 1.1384597979485989e-02 -7.3770336806774139e-02 -1.4934779703617096e-01 -1.9626031816005707e-01 -8.4140732884407043e-02 -1.1621259152889252e-01 1.0535356402397156e-01 4.8084076493978500e-02 2.6140615344047546e-01 -1.0510229319334030e-01 -2.7075487375259399e-01 4.8382349312305450e-02 -1.7312932014465332e-01 4.6389542520046234e-02 5.8705005794763565e-02 -3.4525953233242035e-02 1.1588490009307861e-01 1.7082847654819489e-01 6.8849839270114899e-02 -1.9856081902980804e-01 1.0079753398895264e-01 -2.2693942487239838e-01 -2.7191850543022156e-01 2.1845172345638275e-01 -4.1572671383619308e-02 -2.3247706890106201e-01 -1.6350667178630829e-01 -1.6457375884056091e-01 -2.1222844719886780e-01 7.1005444042384624e-03 2.6924517750740051e-01 -9.9193386733531952e-02 -9.9495016038417816e-02 1.3262315094470978e-01 2.4232463538646698e-01 -4.0724743157625198e-02 -1.4721271395683289e-01 2.6014512777328491e-01 2.4399463832378387e-01 -3.3455245196819305e-02 -1.9898840785026550e-01 -2.2004698216915131e-01 -4.3259844183921814e-02 8.7892472743988037e-02 -3.0313832685351372e-02 -2.4899147450923920e-01 1.9665777683258057e-01 -2.7222427725791931e-01 1.0989096015691757e-01 2.2845526039600372e-01 2.7649331092834473e-01 2.5527334213256836e-01 -6.1010751873254776e-02 -1.6473937034606934e-01 -1.1966830492019653e-01 2.0816896855831146e-01 -1.5851065516471863e-01 -2.8725600242614746e-01 -4.6799425035715103e-02 -2.4339297413825989e-01 -2.4366490542888641e-01 -1.3137421011924744e-01 2.6563137769699097e-01 2.8706178069114685e-01 -1.6833129525184631e-01 -2.7037075161933899e-01 
      </Weights>
      <Biases rows="64" cols="1">
        -5.0755316624417901e-04 -6.7297986242920160e-04 2.4255176540464163e-03 5.6054825108731166e-05 -4.2099674857354330e-08 6.2084972159937024e-04 -2.0895078778266907e-03 -3.9315174217335880e-04 8.7125197751447558e-04 -2.1236944012343884e-03 -1.1804184177890420e-03 7.2479007940273732e-05 -2.0632864907383919e-03 -3.6708096740767360e-04 2.8319223783910275e-03 0.0000000000000000e+00 -2.3657267447561026e-03 0.0000000000000000e+00 -6.5723765874281526e-04 -2.4264604144264013e-04 8.2788878353312612e-04 -3.5707850474864244e-04 8.8771579612512141e-05 3.7760655395686626e-03 2.2235780488699675e-03 -9.5762277396715945e-07 5.0996914069401100e-06 -3.6236173473298550e-03 -5.2279723604442552e-05 -9.6860143821686506e-04 2.3187571205198765e-03 -1.4490442117676139e-04 -3.4257970401085913e-04 4.9953913548961282e-04 2.1792008192278445e-04 1.8215359887108207e-04 1.5773928025737405e-03 2.8587651904672384e-03 -3.5581395495682955e-03 -3.1748515903018415e-04 0.0000000000000000e+00 -1.0262517025694251e-03 1.0974227188853547e-04 -3.9667249075137079e-04 -3.6375171039253473e-03 6.5657217055559158e-04 -2.8761995054082945e-05 3.5054713953286409e-03 -2.7765843551605940e-03 -9.9703809246420860e-04 2.9595654923468828e-03 -1.1095651425421238e-03 -1.2742343824356794e-04 2.2244118154048920e-03 0.0000000000000000e+00 -2.2824583538749721e-06 -1.6086479881778359e-03 6.3344056252390146e-04 -4.0377744880970567e-06 -2.0705491770058870e-03 3.2602179089735728e-07 1.2420105049386621e-03 -5.7487668527755886e-06 3.9546492303088598e-08 
      </Biases>
    </Layer>
    <Layer ActivationFunction="1">
      <Weights rows="64" cols="64">
        9.4549268484115601e-02 4.2794001637957990e-04 -1.1924407631158829e-01 9.4121411442756653e-02 1.2410015612840652e-01 1.1887140572071075e-01 -7.6744474470615387e-02 -1.2183544225990772e-02 -1.4795267023146152e-02 -4.3899767100811005e-02 -1.5880878269672394e-01 1.5452926047146320e-02 1.3901783525943756e-01 2.7904810383915901e-02 5.0682999193668365e-02 -9.4018764793872833e-02 1.4446344971656799e-01 -1.0307779908180237e-01 1.0922269523143768e-01 1.3845224678516388e-01 1.1404933035373688e-01 5.8625873178243637e-02 -1.7573000863194466e-02 2.6718216016888618e-02 -1.5478633344173431e-01 -5.9755485504865646e-02 -3.8415439426898956e-02 -1.6725629568099976e-01 7.5460627675056458e-02 7.7040359377861023e-02 -1.4203990995883942e-01 -1.5461410582065582e-01 -8.9452162384986877e-02 3.5473030060529709e-02 -4.1324358433485031e-02 1.3814885914325714e-01 -1.3559088110923767e-01 1.0769653320312500e-01 -3.5809542983770370e-02 -1.7787522077560425e-01 1.0296764224767685e-01 -1.5798106789588928e-01 1.7268320918083191e-01 -6.4697094261646271e-02 -3.1149083748459816e-02 1.3387107849121094e-01 -1.6609828174114227e-01 2.4059360846877098e-02 5.4704148322343826e-02 -1.5439088642597198e-01 -1.1860572546720505e-01 1.5745992958545685e-01 -3.8115963339805603e-02 -8.3798274397850037e-02 -8.6811058223247528e-02 -8.7768994271755219e-02 1.7549000680446625e-02 3.6714524030685425e-02 4.8325106501579285e-02 -4.8953436315059662e-02 -3.9907218888401985e-04 -9.3065463006496429e-02 -7.2703301906585693e-02 7.1249246597290039e-02 6.4163343049585819e-03 -7.1370236575603485e-02 5.7982511818408966e-02 6.1355356127023697e-02 -1.6110652685165405e-01 -1.4667826890945435e-01 -1.4695852994918823e-02 -1.7449888586997986e-01 8.2071654498577118e-02 4.7712028026580811e-03 9.1641634702682495e-02 -2.3471686989068985e-02 -9.4194993376731873e-02 -2.7025623247027397e-02 -1.0485512204468250e-02 -8.2269795238971710e-02 7.7248588204383850e-02 1.4369945228099823e-01 -2.8554517775774002e-02 1.1987851560115814e-01 -1.3453890383243561e-01 1.7917151749134064e-01 -3.2323777675628662e-02 3.1449183821678162e-02 -1.4196926355361938e-01 -3.2294973731040955e-02 -5.5759340524673462e-02 1.4397612772881985e-02 -2.0572863519191742e-02 1.1756023019552231e-01 2.8303615748882294e-02 -3.6684699356555939e-02 -2.1696468815207481e-02 2.6375362649559975e-02 1.8228617310523987e-01 1.7772993072867393e-02 -1.0278928279876709e-01 7.6768986880779266e-02 -2.6614515110850334e-02 -8.5586585104465485e-02 4.5131195336580276e-02 -1.1876162886619568e-01 7.3426611721515656e-02 7.8941546380519867e-02 -2.8921399265527725e-02 -1.4716269075870514e-01 -1.4501154422760010e-01 1.3875254988670349e-01 1.2033218145370483e-01 -1.8696283921599388e-02 9.6103623509407043e-02 4.2891867458820343e-02 -7.9198881983757019e-02 -6.3329964876174927e-02 1.0307186096906662e-01 5.3316690027713776e-02 -2.8939506039023399e-02 -4.3854154646396637e-02 2.2663450799882412e-03 -8.8414025958627462e-04 8.3188459277153015e-02 -5.5832028388977051e-02 3.2036863267421722e-02 4.4992109760642052e-03 -4.1195880621671677e-02 5.1499530673027039e-02 1.4334152638912201e-01 -1.6241580247879028e-01 2.2506103850901127e-03 4.2766869068145752e-02 -8.9678950607776642e-02 -1.3279025256633759e-01 1.1996068991720676e-02 9.1117486357688904e-02 4.5431447215378284e-03 -1.2512838840484619e-01 -1.0440438240766525e-01 5.8124791830778122e-02 1.1316281557083130e-01 1.8652468919754028e-02 -5.2626803517341614e-02 4.0621437132358551e-02 -1.7166665196418762e-01 -6.9100402295589447e-02 -8.8087216019630432e-02 3.6007307469844818e-02 -7.2703704237937927e-02 -1.2778787314891815e-01 1.4705681800842285e-01 -1.1913837864995003e-02 3.3733930438756943e-02 -1.1237940192222595e-01 7.3230601847171783e-02 -9.8986430093646049e-03 6.4874939620494843e-02 -1.7749571800231934e-01 8.9335888624191284e-02 -7.7281132340431213e-02 -7.0789702236652374e-02 9.1444030404090881e-02 1.3892589509487152e-01 5.1037814468145370e-02 8.6744397878646851e-02 3.8695029914379120e-02 -8.2085028290748596e-02 -2.2907335311174393e-02 -2.3552324622869492e-02 7.0826642215251923e-02 -1.5170499682426453e-01 1.0670771449804306e-01 7.0324964821338654e-02 -1.5914669632911682e-01 -5.8491215109825134e-02 8.0818794667720795e-02 -6.8623006343841553e-02 -1.5614674985408783e-01 7.7167987823486328e-02 -1.5709617733955383e-01 9.5588847994804382e-02 -4.8507459461688995e-02 1.0334746539592743e-01 1.4713582396507263e-01 1.5724102035164833e-02 6.0096271336078644e-02 1.6174569725990295e-01 9.1805748641490936e-02 -4.3901946395635605e-02 -1.9861064851284027e-02 -4.5828837901353836e-02 -5.4796151816844940e-02 5.8578342199325562e-02 -4.9173254519701004e-03 7.2102427482604980e-02 -3.4691646695137024e-02 8.8447734713554382e-02 -5.7804144918918610e-02 -5.2679724991321564e-02 3.8775935769081116e-02 -1.7256693542003632e-01 4.7020236961543560e-03 5.8101788163185120e-02 1.5222766995429993e-01 3.5349413752555847e-02 9.4809919595718384e-02 4.5611608773469925e-02 -1.4441203093156219e-03 -7.4433140456676483e-02 -8.9355945587158203e-02 -4.2338659986853600e-03 7.8233800828456879e-02 -1.7216451466083527e-01 -1.2192985415458679e-01 1.2714718282222748e-01 -5.1817249506711960e-02 9.1134011745452881e-02 -1.1009083688259125e-01 -8.5869655013084412e-02 2.7813464403152466e-02 -1.3893543183803558e-01 1.5234225988388062e-01 -1.5570120513439178e-01 -4.9913130700588226e-02 1.5353775024414062e-01 1.5057973563671112e-01 -4.7278240323066711e-02 -6.3661940395832062e-02 -1.8087959289550781e-01 -6.2694564461708069e-02 1.4047308266162872e-01 -1.2057294696569443e-01 5.0822164863348007e-02 1.0538862645626068e-01 -1.6233488917350769e-01 -5.5689126253128052e-02 6.0125865042209625e-02 3.7610825151205063e-02 1.2609145045280457e-01 1.4697530865669250e-01 -1.2825584411621094e-01 -1.3106040656566620e-01 1.0272470116615295e-01 3.6113886162638664e-03 1.1654449999332428e-01 -1.7602783441543579e-01 6.9589883089065552e-02 8.3656467497348785e-02 -1.3856938481330872e-01 1.3851892948150635e-01 6.8854279816150665e-02 -1.0741414129734039e-01 -6.0149028897285461e-02 -7.1575805544853210e-02 -1.0779555886983871e-01 8.9004792273044586e-02 -3.6397997289896011e-02 -1.1380773037672043e-01 3.6709856241941452e-02 5.0755180418491364e-02 -5.9230025857686996e-02 -1.3016100972890854e-02 1.7956906557083130e-01 -1.6575138270854950e-01 1.1090231686830521e-01 1.3155844807624817e-01 -1.3410498201847076e-01 -9.3676112592220306e-02 -1.2363908812403679e-02 -1.4451225101947784e-01 -2.4504235386848450e-01 -1.0195960104465485e-01 -1.4142540283501148e-02 -1.0980386286973953e-01 8.8245958089828491e-02 -1.2761057913303375e-01 1.5991339087486267e-01 1.8483452498912811e-01 9.7594656050205231e-02 -2.8378175571560860e-02 1.5448720753192902e-01 -1.1643526703119278e-01 -2.3975972086191177e-02 6.3537202775478363e-02 -7.5089447200298309e-02 9.0769298374652863e-02 4.9188729375600815e-02 1.3743758201599121e-01 1.2526264786720276e-01 -1.1702311038970947e-01 -6.0013536363840103e-02 1.1907417327165604e-01 -3.2759711146354675e-02 -3.5022776573896408e-02 -1.0547722876071930e-01 1.7000223696231842e-01 -6.6239446401596069e-02 -1.3274581730365753e-01 -6.2091071158647537e-02 1.1973936110734940e-02 -1.6343633830547333e-01 -3.7149908021092415e-03 -3.4225568175315857e-02 -9.5758810639381409e-02 -5.6941229850053787e-02 1.9341602921485901e-01 -1.4977654814720154e-01 -1.0659218579530716e-01 -1.3858665525913239e-01 6.5207615494728088e-02 1.0878803580999374e-01 -1.7384269833564758e-01 -1.5743179619312286e-01 3.6216992884874344e-02 1.6842311620712280e-01 1.1536433547735214e-01 -9.7179482690989971e-04 -4.3612100183963776e-02 -3.5155240446329117e-02 2.9644852504134178e-02 4.3998006731271744e-02 8.9317977428436279e-02 6.1110511422157288e-02 -5.4016321897506714e-02 -1.4613071084022522e-01 -3.2988440245389938e-02 1.4949797093868256e-01 2.6260301820002496e-04 -1.7464239895343781e-01 -1.5754322707653046e-01 -1.8787743523716927e-02 -1.1412765830755234e-01 -1.1784366518259048e-01 -1.0614535212516785e-01 -2.5835689157247543e-02 1.4994269609451294e-01 -1.6194362938404083e-01 -1.1507131904363632e-01 -5.9874810278415680e-02 -1.5592794120311737e-01 1.7498543858528137e-01 -3.2886069267988205e-02 1.2265737354755402e-01 5.1984121091663837e-03 8.4931991994380951e-02 6.2243463471531868e-03 1.6683237254619598e-01 2.8404708951711655e-02 -1.4526481926441193e-01 2.3644132539629936e-02 -1.2277136743068695e-01 -1.4265064895153046e-01 2.1824110299348831e-02 -3.7807479500770569e-02 1.5587721765041351e-01 3.2963879406452179e-02 1.5876154601573944e-01 -1.2893993407487869e-02 -4.7228436917066574e-02 -1.5122799575328827e-01 1.5321899950504303e-01 -8.8205292820930481e-02 1.7253364622592926e-01 8.0677181482315063e-02 2.0900929346680641e-02 1.1149437725543976e-01 1.3054192066192627e-02 6.3425362110137939e-02 1.5521074831485748e-01 -3.8363207131624222e-02 6.5223962068557739e-02 -1.9102436304092407e-01 -9.0446613729000092e-02 -1.6807682812213898e-01 -1.1591022461652756e-01 -7.3539875447750092e-02 8.5471592843532562e-02 4.4315759092569351e-02 -5.9517543762922287e-02 -1.9942883402109146e-02 -2.5238683447241783e-02 -5.7139662094414234e-03 1.2558589875698090e-01 -1.3461655378341675e-01 1.1971699446439743e-01 -4.3424002826213837e-02 1.3356533646583557e-01 1.3080856204032898e-01 1.7369532957673073e-02 9.3011558055877686e-02 -1.1543229967355728e-01 -1.7341496050357819e-01 -5.0240039825439453e-02 -3.5765863955020905e-02 -1.7522192001342773e-01 9.2938043177127838e-02 -1.2049610167741776e-01 -8.0804191529750824e-02 -1.5060217678546906e-01 -7.2306364774703979e-02 -5.3174085915088654e-02 7.6131999492645264e-02 -1.4495681226253510e-01 -1.0718917846679688e-01 -7.6331770978868008e-03 1.3642865419387817e-01 -1.8410328030586243e-01 1.7261566221714020e-01 -7.9355515539646149e-02 1.1195847392082214e-01 -1.2145889550447464e-01 1.1052395403385162e-01 7.2979845106601715e-02 1.0590484738349915e-01 1.0689356178045273e-01 -5.4918631911277771e-02 -1.0731946676969528e-01 1.3899406790733337e-01 -1.6293561458587646e-01 -1.6772241890430450e-01 6.8705692887306213e-02 9.9294371902942657e-02 -1.4950992166996002e-01 -6.8458080291748047e-02 -7.0791710168123245e-03 -8.3294980227947235e-02 9.7100920975208282e-02 6.7276455461978912e-02 -2.6697660796344280e-03 1.3368485867977142e-01 2.1523175761103630e-02 7.7793903648853302e-02 -9.1651841998100281e-02 6.9794267416000366e-02 -1.0867346823215485e-01 1.3091795844957232e-03 -4.3560869991779327e-02 -1.2761689722537994e-01 -9.4049684703350067e-02 5.5585198104381561e-02 -1.6726782917976379e-01 3.3514838665723801e-02 1.0249725729227066e-01 -1.4098820090293884e-01 -1.0881931334733963e-01 1.4915163815021515e-01 7.1690981276333332e-03 -9.0989530086517334e-02 1.2986294925212860e-01 5.9591796249151230e-02 6.5558463335037231e-02 -9.4889752566814423e-02 1.0167251527309418e-01 -1.1444658786058426e-01 -1.2525120377540588e-01 -1.6062727570533752e-01 3.4209221485070884e-04 7.9511120915412903e-02 6.8028673529624939e-02 7.9975455999374390e-02 1.8752710893750191e-03 1.7112652957439423e-01 1.4701487123966217e-01 -4.2857029475271702e-03 -1.5659484267234802e-01 1.1343166232109070e-01 -2.2074207663536072e-02 1.6811783611774445e-01 -1.6852801665663719e-02 -6.4463928341865540e-02 7.3003186844289303e-03 6.7045673727989197e-02 -1.2386810034513474e-01 -6.6566273570060730e-02 9.1593869030475616e-02 -4.2815551161766052e-02 -1.6253815591335297e-01 4.6321306377649307e-02 1.2902545742690563e-02 -1.4489473402500153e-01 -6.0119226574897766e-02 -1.5503926575183868e-01 1.1470919102430344e-01 7.6096363365650177e-02 -8.5839470848441124e-03 2.9195887967944145e-02 6.8324608728289604e-03 1.2012519687414169e-01 -1.6222782433032990e-02 8.9899837970733643e-02 -3.1770132482051849e-03 8.6145520210266113e-02 4.5110180974006653e-02 -1.6357266902923584e-01 -1.2321805208921432e-01 -9.2390224337577820e-02 3.6869503557682037e-02 1.2242499738931656e-01 8.4714710712432861e-02 1.3108621537685394e-01 -1.2567819654941559e-01 5.0042901188135147e-02 -1.1595258116722107e-01 8.6828559637069702e-02 -8.2344308495521545e-02 2.7137966826558113e-02 1.3449043035507202e-01 3.2232057303190231e-02 -1.1145204305648804e-02 -2.3129095789045095e-03 1.4130976796150208e-01 -1.0972199589014053e-01 1.4162038266658783e-01 1.0086481273174286e-01 -1.5464903414249420e-01 4.2581960558891296e-02 -8.4589056670665741e-02 5.7300638407468796e-02 1.3594268262386322e-01 5.0027862191200256e-02 5.4028030484914780e-02 -4.1256323456764221e-02 -2.1340672671794891e-01 1.4868272840976715e-01 1.0407833755016327e-01 5.3785932250320911e-03 -9.4649590551853180e-02 -1.1901108175516129e-01 -4.7701794654130936e-02 -1.6191926598548889e-01 -1.2189500033855438e-01 1.5800344944000244e-01 -1.3025948405265808e-01 1.6882391273975372e-01 -3.6655493080615997e-02 1.6572150588035583e-01 -1.0422536171972752e-02 5.0852898508310318e-02 -1.4344377815723419e-01 1.5920653822831810e-04 -1.2249580584466457e-02 6.2358040362596512e-02 -2.2386856377124786e-02 -5.4168049246072769e-02 1.5534900128841400e-01 5.4928284138441086e-02 1.5975774824619293e-01 9.2060625553131104e-02 -3.4444369375705719e-02 -1.6028817743062973e-02 -4.2930670082569122e-02 1.4441920444369316e-02 1.0996238142251968e-01 1.0524096339941025e-01 -9.1490440070629120e-02 8.2890331745147705e-02 1.2182969599962234e-01 -1.0200676321983337e-01 -8.9034631848335266e-02 1.0715278796851635e-02 1.3998374342918396e-01 1.0045173019170761e-01 1.1972422152757645e-01 1.3213377678766847e-04 6.5782703459262848e-02 5.2414774894714355e-02 -1.6187768429517746e-02 6.0886830091476440e-02 -6.3589096069335938e-02 1.0808692872524261e-01 4.6829275786876678e-02 -1.2437523901462555e-01 -1.1123210936784744e-01 4.7849604743532836e-04 8.1738419830799103e-02 4.5213580131530762e-02 4.3596383184194565e-02 -4.0109507739543915e-02 -8.4662223234772682e-03 1.2745280563831329e-01 1.2599079310894012e-01 3.2578393816947937e-02 -1.5640975907444954e-02 -1.7051692306995392e-01 -5.5156677961349487e-02 -1.0412508994340897e-01 8.8109888136386871e-02 1.5053972601890564e-01 -4.3287847191095352e-02 1.5120700933039188e-02 -1.0653962194919586e-01 -5.6147826835513115e-03 6.9494798779487610e-02 -4.0373306721448898e-02 -3.0459420755505562e-02 -1.0894981212913990e-02 -4.0397915989160538e-02 7.2145536541938782e-02 -2.7769677340984344e-02 6.1856571584939957e-02 1.2206147611141205e-01 -1.1215183883905411e-01 1.4504325389862061e-01 -6.7724864929914474e-03 5.2247967571020126e-02 3.9325013756752014e-02 -1.1036336421966553e-01 2.6589283719658852e-02 8.1107309088110924e-03 -1.7487214505672455e-01 5.4272476583719254e-02 4.5919083058834076e-02 4.0756218135356903e-02 -3.9994111284613609e-03 1.2035480886697769e-01 -9.0265966951847076e-02 -1.6090738773345947e-01 1.6235545277595520e-01 1.2057355791330338e-01 1.6772024333477020e-01 -7.1456097066402435e-02 6.0102213174104691e-02 -1.6836736351251602e-02 1.1138002574443817e-01 -1.9005157053470612e-02 -4.9162186682224274e-02 3.7414770573377609e-02 -1.2562169134616852e-01 4.9519654363393784e-02 9.6906684339046478e-02 -9.2942290008068085e-02 -1.7463007569313049e-01 1.5354013070464134e-02 -9.3542352318763733e-02 2.6644095778465271e-02 -9.6130989491939545e-02 1.5771965682506561e-01 8.7782457470893860e-02 1.3344272971153259e-01 1.6344301402568817e-01 3.1515140086412430e-02 3.3623259514570236e-02 1.3881440460681915e-01 -4.5629846863448620e-03 -1.1542177945375443e-01 -1.7901286482810974e-01 -1.3973249495029449e-01 -3.8368456065654755e-02 -9.9423192441463470e-02 4.9480046145617962e-03 -3.5650160163640976e-02 -1.5756672620773315e-01 -7.2880558669567108e-02 -9.0361952781677246e-02 7.7784866094589233e-02 -1.3711258769035339e-01 -4.2769350111484528e-02 -5.0543691962957382e-02 -6.4087718725204468e-02 -6.3674926757812500e-02 9.8125934600830078e-02 1.8184855580329895e-01 1.3221301138401031e-01 -1.2092509120702744e-01 -4.1994046419858932e-02 -1.7186403274536133e-02 -7.0941895246505737e-03 1.1062940582633018e-02 -1.4153127372264862e-01 -6.6673621535301208e-02 -9.4466328620910645e-02 1.6233418881893158e-01 -1.5227840840816498e-01 -8.7540753185749054e-02 6.6607445478439331e-02 1.0249689221382141e-01 -1.9401946663856506e-01 1.0282375663518906e-01 3.1959537416696548e-02 -1.4257803559303284e-01 -1.2491162121295929e-01 -3.8517087697982788e-02 -9.9013388156890869e-02 -1.0531754791736603e-01 9.8521873354911804e-02 3.6348011344671249e-02 1.5198035538196564e-01 -1.2830860912799835e-01 -2.7898017317056656e-02 1.7511703073978424e-01 6.8540170788764954e-02 5.7047154754400253e-02 -1.2543942034244537e-01 -1.2940610945224762e-01 1.4767637848854065e-01 1.1038809269666672e-01 1.0399245470762253e-01 -1.1743061244487762e-02 8.4290519356727600e-02 -8.1821069121360779e-02 1.6036808490753174e-01 1.3077757321298122e-02 1.5534111857414246e-01 1.6699942946434021e-01 -4.1805755347013474e-02 -1.4619615674018860e-01 9.8677113652229309e-02 -4.8837654292583466e-02 -4.7435753047466278e-02 1.0119923390448093e-03 -9.5392882823944092e-02 -1.3024196028709412e-01 -2.3195451125502586e-02 -1.1977942287921906e-01 8.5322462022304535e-02 5.1797222346067429e-02 -6.9791771471500397e-02 -7.1454092860221863e-02 -1.1148673295974731e-01 -1.0263676196336746e-01 -9.8534904420375824e-02 1.6947305202484131e-01 -1.5268515050411224e-01 7.3962993919849396e-02 -1.4900279045104980e-01 3.8584738969802856e-02 1.4655821025371552e-01 -8.2197934389114380e-02 6.5839372575283051e-02 9.8530545830726624e-02 4.1770379990339279e-02 -8.2086157053709030e-03 -1.3227151706814766e-02 1.3586340844631195e-01 -1.2246373295783997e-01 1.5231451392173767e-01 6.9377161562442780e-03 1.5268999151885509e-02 -1.0179620236158371e-01 1.0481701465323567e-03 1.5313892625272274e-02 -1.1848968267440796e-01 1.1103763431310654e-01 -1.7587754130363464e-01 2.8022095561027527e-02 2.6812491938471794e-02 -1.0542722046375275e-01 1.5565869212150574e-01 -9.9363096058368683e-02 -1.4425587654113770e-01 -1.4799559488892555e-02 7.0859909057617188e-02 1.2273336201906204e-01 -7.1296639740467072e-02 -1.4036390185356140e-01 1.3572745025157928e-01 1.2026345729827881e-01 -5.5117215961217880e-02 1.0124087333679199e-01 1.2620697915554047e-01 -2.4725940078496933e-02 -7.3563471436500549e-02 5.3351700305938721e-02 1.1428339034318924e-01 3.2681081444025040e-02 6.0174308717250824e-02 4.7227934002876282e-02 8.7229572236537933e-02 -3.6409109830856323e-02 1.7054766416549683e-01 -1.4061717689037323e-01 7.7604241669178009e-02 6.0333065688610077e-02 1.5915758907794952e-01 5.9291969984769821e-02 -9.4916291534900665e-02 1.3638899661600590e-02 -1.3061015866696835e-02 -6.5480433404445648e-02 1.0505636781454086e-01 9.2280462384223938e-02 1.3468289375305176e-01 3.3412743359804153e-02 -2.1649708971381187e-02 -1.3458454608917236e-01 1.1450638622045517e-01 -1.2532516382634640e-02 -3.7461508065462112e-02 6.0761041939258575e-02 1.2671956419944763e-01 -9.5102906227111816e-02 -5.1981180906295776e-02 1.2980595231056213e-01 1.0896443575620651e-01 4.1322350502014160e-02 1.4754714071750641e-01 -9.9939920008182526e-02 4.2153358459472656e-02 -7.4181869626045227e-02 1.5983749181032181e-02 -3.1671784818172455e-02 9.3838736414909363e-02 1.2676548957824707e-01 -1.3716712594032288e-01 -4.8915561288595200e-02 4.3453805847093463e-04 -1.0714025795459747e-01 1.2372469902038574e-01 -5.4820321500301361e-02 6.0378625988960266e-02 1.2599110603332520e-01 1.2243882566690445e-01 4.1199851781129837e-02 -7.2899185121059418e-02 1.2779210507869720e-01 7.0970326662063599e-02 1.4731851220130920e-01 5.5110575631260872e-03 -6.1022909358143806e-03 -9.0960949659347534e-02 1.2854942679405212e-01 6.5551330335438251e-03 -1.3529032468795776e-01 1.8179275095462799e-01 -6.7803673446178436e-02 -1.0500531643629074e-01 -5.5814418941736221e-02 -1.5388783812522888e-01 -1.4909066259860992e-01 -1.7449263483285904e-02 -1.3245128095149994e-01 2.6807162910699844e-02 -1.6097329789772630e-03 1.5776127576828003e-01 -6.0477521270513535e-02 1.0225914418697357e-01 -2.2874705493450165e-02 1.1558184772729874e-01 -1.6530914604663849e-01 -1.1099035292863846e-01 2.4393710773438215e-03 -8.5090875625610352e-02 1.3695271313190460e-01 -1.0150790959596634e-01 1.4470125734806061e-01 6.0557488352060318e-02 1.3033154606819153e-01 1.6316290199756622e-01 -1.5309278666973114e-01 1.2380299717187881e-01 -1.3908155262470245e-01 6.6682562232017517e-02 1.5766663476824760e-02 1.2494089454412460e-01 4.4096289202570915e-03 -8.3361051976680756e-02 1.1341729201376438e-02 9.4697684049606323e-02 -1.3809922337532043e-01 9.1865606606006622e-02 -1.4333651959896088e-01 1.3653221726417542e-01 -2.6790227741003036e-02 -3.4082446247339249e-02 7.0277661085128784e-02 7.1127049624919891e-02 -1.4299227297306061e-01 -1.0260464251041412e-01 -6.9409757852554321e-02 -2.5751173496246338e-02 1.5013337135314941e-01 1.4461359381675720e-01 1.4864578843116760e-01 -8.6322411894798279e-02 1.1149629950523376e-01 -1.0882604122161865e-01 1.4493013918399811e-01 5.0996400415897369e-02 -1.1152151972055435e-01 -1.2486461549997330e-01 -1.6151428222656250e-01 6.7822188138961792e-02 1.5870511531829834e-01 -1.5547190606594086e-01 1.2522311508655548e-01 -7.9948246479034424e-02 -6.3734598457813263e-02 1.6807755827903748e-01 1.0123745352029800e-01 -5.5791418999433517e-02 -5.6075584143400192e-02 1.5175133943557739e-01 -1.6718512773513794e-01 6.4017623662948608e-02 8.1756591796875000e-02 -5.1280070096254349e-02 1.2020523846149445e-01 -1.4451356232166290e-01 -2.6196274906396866e-02 3.5754393786191940e-02 1.6564269363880157e-01 -8.3523042500019073e-02 -1.3172049820423126e-01 -1.5910737216472626e-01 -5.7118345052003860e-02 1.3746540248394012e-01 -1.5824359655380249e-01 9.9449448287487030e-02 1.6562859714031219e-01 1.2256168574094772e-01 8.0137252807617188e-03 -2.1214690059423447e-02 -1.7419454455375671e-01 4.1405469179153442e-02 3.5061985254287720e-02 -8.9408360421657562e-02 1.4934404194355011e-01 7.6377250254154205e-02 -7.5637742877006531e-02 -5.2825454622507095e-02 1.0172045230865479e-01 -2.9819360002875328e-02 2.0253779366612434e-02 2.0454602316021919e-02 8.6388336494565010e-03 -1.7641218006610870e-01 6.0984380543231964e-02 -2.4768626317381859e-02 -1.2859025597572327e-01 1.3206113874912262e-01 -5.2498499862849712e-03 1.5674090385437012e-01 3.3506903797388077e-02 -5.7869568467140198e-02 6.4575761556625366e-02 1.3363116979598999e-01 -7.6736524701118469e-02 -3.4471597522497177e-02 -5.5473696440458298e-02 1.4525291323661804e-01 -1.1080358922481537e-01 -1.4500737190246582e-01 -1.0613205283880234e-01 -2.6394048705697060e-02 -1.1549857258796692e-01 1.1931638419628143e-01 -1.6985452175140381e-01 2.6591047644615173e-02 1.5931239724159241e-01 7.8928790986537933e-02 8.4745429456233978e-02 1.2987074255943298e-01 7.8362911939620972e-02 -1.4344806969165802e-01 6.2933832406997681e-02 -2.4686984717845917e-02 -5.1450233906507492e-02 5.8053325861692429e-02 -3.3668756484985352e-02 1.1992056667804718e-01 -8.8041834533214569e-02 -1.3546124100685120e-01 1.2726409733295441e-01 -1.2682546675205231e-01 -9.3917511403560638e-02 4.4574275612831116e-02 -5.5449582636356354e-02 -1.2204612791538239e-01 4.7769848257303238e-02 -1.1281023174524307e-01 2.6005558669567108e-02 -1.0378805547952652e-01 1.4916485548019409e-01 -1.4679600298404694e-01 -5.8070238679647446e-02 -1.6391478478908539e-01 3.2767921686172485e-02 -1.3677905499935150e-01 -6.4058929681777954e-02 -3.8294486701488495e-02 1.2841990590095520e-01 -4.3267969042062759e-02 1.1109073460102081e-01 -1.3485197909176350e-02 -9.1238006949424744e-02 1.3544677197933197e-01 7.8167706727981567e-02 -1.5085954964160919e-01 -8.4568843245506287e-02 -1.5027329325675964e-01 1.4597736299037933e-01 -8.3161957561969757e-02 -5.4962646216154099e-02 8.9022837579250336e-02 -1.0382627695798874e-01 1.4627215266227722e-01 -1.7209212481975555e-01 -3.8956355303525925e-02 5.5341038852930069e-02 1.3451740145683289e-01 1.4643618464469910e-01 6.5207771956920624e-02 1.7161358892917633e-01 -8.3653278648853302e-02 -1.5472060441970825e-01 1.4341223239898682e-01 2.7510929852724075e-02 -2.1433662623167038e-02 3.4552961587905884e-02 9.7286857664585114e-02 1.2053865194320679e-01 1.1240856349468231e-01 1.0306850820779800e-01 -5.5658817291259766e-03 -3.2667856663465500e-02 -8.1019736826419830e-02 -1.0002155788242817e-02 -9.0824007987976074e-02 1.3478745520114899e-01 -1.0211392492055893e-01 9.1982632875442505e-02 -1.0508556663990021e-01 5.7427320629358292e-02 1.2587458826601505e-02 -1.6004478931427002e-01 -1.2930822372436523e-01 3.4611169248819351e-02 1.0349805653095245e-01 1.2905883789062500e-01 1.2940765917301178e-01 4.2882952839136124e-02 -2.3399081081151962e-02 1.0558082908391953e-01 -8.8273622095584869e-03 1.8803666532039642e-01 -1.6185041517019272e-02 -1.6047568619251251e-01 2.2429775446653366e-02 1.3763129711151123e-01 -3.0846362933516502e-02 -1.3987959921360016e-01 1.3923415541648865e-01 -1.3094779849052429e-01 1.3481771945953369e-01 5.0657913088798523e-02 -9.9962562322616577e-02 -2.1436353027820587e-01 1.5825353562831879e-01 -1.7602704465389252e-01 1.8275947868824005e-01 1.0234705358743668e-01 1.9855380058288574e-01 1.8983326852321625e-02 1.9100785255432129e-02 -7.1087397634983063e-02 9.9978074431419373e-02 8.9630056172609329e-03 -5.8101847767829895e-02 -1.4691382646560669e-01 -1.1281847953796387e-01 1.8422536551952362e-01 1.5146829537115991e-04 1.1253233067691326e-02 1.8398465588688850e-02 1.0637791454792023e-01 -1.1615103483200073e-01 1.9247274100780487e-01 -1.2745268642902374e-01 -1.2468597292900085e-01 -1.3994464278221130e-01 1.8901435658335686e-02 1.0778906941413879e-01 -7.8536488115787506e-02 1.4247691631317139e-01 1.6368427872657776e-01 -7.9306125640869141e-02 5.5193668231368065e-03 6.0407422482967377e-02 2.1747525036334991e-01 -5.1982190459966660e-02 1.3924956321716309e-01 -1.3805044814944267e-02 1.6984634101390839e-01 3.0527769122272730e-03 -9.8939999938011169e-02 3.5187114030122757e-02 6.0645759105682373e-02 -1.6143903136253357e-01 -1.4167279005050659e-01 1.0440506041049957e-01 -1.3911746442317963e-01 -2.9059674590826035e-02 1.3563907146453857e-01 1.6301577910780907e-02 6.4581491053104401e-02 2.5212451815605164e-02 5.0768412649631500e-02 3.4200239926576614e-02 1.4289321005344391e-01 -1.0740867257118225e-01 1.0634399950504303e-01 1.6274753212928772e-01 -3.9222057908773422e-02 8.1751503050327301e-02 -1.0146325826644897e-01 1.6169613599777222e-01 -2.1604150533676147e-02 1.5747648477554321e-01 -9.4710625708103180e-02 -1.3566274940967560e-01 -8.1663854420185089e-02 5.5688459426164627e-02 6.2120486050844193e-02 1.0341206938028336e-01 -7.6168435625731945e-03 1.2353451550006866e-01 -8.0794483423233032e-02 1.2260050326585770e-01 6.1904538422822952e-02 1.0429536551237106e-01 1.8576692044734955e-01 1.5752610564231873e-01 -1.0047998279333115e-01 4.4093988835811615e-02 1.3237169384956360e-01 1.4085368812084198e-01 -2.0869290456175804e-03 4.9057327210903168e-02 -2.5369662791490555e-02 1.7108090687543154e-03 1.2544462084770203e-01 9.0303331613540649e-02 -4.5276589691638947e-02 -9.5229379832744598e-02 6.6281385719776154e-02 -1.7251516878604889e-01 7.9914815723896027e-02 1.2556028366088867e-01 1.1588435620069504e-02 -1.5053327381610870e-01 9.2469573020935059e-02 1.4092513918876648e-01 1.6025185585021973e-02 3.3804398030042648e-02 -5.4608769714832306e-02 -5.8840715792030096e-04 1.6928190598264337e-03 -1.4845331013202667e-01 -2.5386685505509377e-02 5.5573832243680954e-02 9.0902820229530334e-02 6.7880704998970032e-02 3.6459833383560181e-02 -9.0815439820289612e-02 -5.2107524126768112e-02 4.3231412768363953e-02 5.6707751005887985e-02 1.0936202108860016e-01 -1.5325032174587250e-01 -1.6355365514755249e-02 -1.4082571864128113e-01 1.3532988727092743e-01 -1.5632776916027069e-01 -7.6541141606867313e-03 -1.4084069430828094e-01 -1.6557512804865837e-02 1.6583885252475739e-01 5.4416436702013016e-02 1.5666119754314423e-01 1.2512442469596863e-01 1.3662052154541016e-01 -4.1717719286680222e-02 1.5737718343734741e-01 4.0427249041385949e-04 -1.2716645002365112e-01 1.5593010187149048e-01 -4.6010725200176239e-02 -1.4995683729648590e-01 -7.1249589323997498e-02 3.6885488778352737e-02 -1.7464174330234528e-01 -1.4466182887554169e-01 -9.6920304000377655e-02 -9.7398005425930023e-02 1.4114385843276978e-01 -3.0822735279798508e-02 -2.7017621323466301e-02 -1.0621648281812668e-01 -8.5006244480609894e-02 -8.6686901748180389e-02 -9.5855414867401123e-02 -7.9834736883640289e-02 9.6300050616264343e-02 9.0849593281745911e-02 1.5177267789840698e-01 1.7632992565631866e-01 4.6884987503290176e-02 -1.3778993487358093e-01 -1.3152959942817688e-01 1.1767099052667618e-01 1.1650676280260086e-01 1.4487734436988831e-01 -1.3582500815391541e-01 9.1061420738697052e-02 5.9393640607595444e-02 -7.6992206275463104e-02 -2.6619641110301018e-02 -1.3976721465587616e-01 6.5091103315353394e-02 -1.3295410573482513e-01 -5.7627419009804726e-03 -1.5441048145294189e-01 -1.9601495936512947e-02 6.3107363879680634e-02 1.6190750896930695e-01 -4.4449113309383392e-02 -5.9933461248874664e-02 -1.2800183892250061e-01 1.0712528228759766e-01 -1.6475565731525421e-01 -4.0822781622409821e-02 1.4175033569335938e-01 -2.1085387095808983e-02 5.5970563553273678e-03 -1.2015606462955475e-01 -1.1607993394136429e-01 -1.0894785076379776e-01 1.0157724469900131e-01 -1.2066449224948883e-01 7.7683292329311371e-02 -1.0973231494426727e-01 -5.5537238717079163e-02 -1.2854044139385223e-01 1.8395373597741127e-02 -1.5956981480121613e-01 -2.6185726746916771e-02 6.6996805369853973e-02 -1.3411967456340790e-01 -1.1115431785583496e-01 5.2268862724304199e-02 6.7954331636428833e-02 -1.4397548139095306e-01 1.2960058450698853e-01 1.3096666336059570e-01 -8.8082194328308105e-02 1.9489722326397896e-02 5.0808228552341461e-02 2.7982390020042658e-04 1.1301244050264359e-01 -9.0547434985637665e-02 1.5232032537460327e-01 4.8887613229453564e-03 1.4620453119277954e-01 1.2385213375091553e-01 1.4910188317298889e-01 1.5694044530391693e-01 -6.4229942858219147e-02 -1.9973579794168472e-02 8.8767521083354950e-02 -1.1885847151279449e-01 -2.4032453075051308e-02 -1.2909477949142456e-01 1.0997488163411617e-02 -1.3429109752178192e-01 1.4971226453781128e-01 1.5038095414638519e-01 9.8863109946250916e-02 -1.0563486814498901e-01 1.3209618628025055e-01 -2.2066444158554077e-02 1.6639761626720428e-01 3.8701828569173813e-02 -8.2326866686344147e-02 -1.5117599070072174e-01 -1.8945349380373955e-02 -1.1543393880128860e-01 8.0632969737052917e-02 -1.1955954134464264e-02 5.5593840777873993e-02 -1.0928095877170563e-01 4.4752202928066254e-02 3.8930695503950119e-02 -2.6711516082286835e-02 -1.6700072586536407e-01 -2.9735481366515160e-02 1.5036004781723022e-01 1.9949574023485184e-02 6.7011617124080658e-02 1.3265480101108551e-01 1.0365484654903412e-01 1.0373802483081818e-01 -8.9423358440399170e-02 -7.3260948061943054e-02 1.5475516021251678e-01 2.4001322686672211e-02 -1.4018516987562180e-02 1.1429652571678162e-01 4.0572423487901688e-02 4.9385163933038712e-02 9.9915347993373871e-02 1.3875412940979004e-01 -6.3614711165428162e-02 -1.7507103085517883e-01 -1.3164417445659637e-01 8.8507503271102905e-02 1.0260624811053276e-02 -6.3221501186490059e-03 -1.2623332440853119e-01 -3.1983047723770142e-02 7.0515744388103485e-02 -6.2512628734111786e-02 6.6947244107723236e-02 7.3802322149276733e-02 -9.9373199045658112e-02 -5.9626944363117218e-02 6.0272868722677231e-02 1.9231709837913513e-01 -6.5228268504142761e-02 -8.5497766733169556e-02 -1.1514180898666382e-01 -1.5938448905944824e-01 6.3408553600311279e-02 1.9138950854539871e-02 -1.3339267671108246e-01 1.3251693546772003e-01 -1.1196006834506989e-01 1.3663467764854431e-01 -1.0566391795873642e-01 1.5186451375484467e-01 -1.4992275834083557e-01 -1.2361385673284531e-01 1.1146137118339539e-01 6.0517238453030586e-03 -7.1714059449732304e-03 4.5506417751312256e-02 -1.7158320546150208e-01 1.5977200865745544e-01 8.6093544960021973e-02 -2.7488322928547859e-02 -8.4182554855942726e-03 -6.5847570076584816e-03 -6.2583573162555695e-02 -1.1870867758989334e-01 -1.2026051431894302e-01 -5.2389804273843765e-02 -6.4702309668064117e-02 6.4973019063472748e-02 9.6236551180481911e-03 1.3197745382785797e-01 -7.9438053071498871e-02 -1.3661701977252960e-01 1.2744687497615814e-02 -1.0939063131809235e-01 3.0554926022887230e-02 3.9934646338224411e-02 -1.8119050189852715e-02 5.5967941880226135e-02 1.0071998089551926e-01 3.6917429417371750e-02 -1.1726646125316620e-01 1.0041283071041107e-01 -1.5261681377887726e-01 -1.7195937037467957e-01 1.0045978426933289e-01 -3.3547136932611465e-02 -1.4513391256332397e-01 -1.1395467817783356e-01 -9.5498345792293549e-02 -1.2331726402044296e-01 -3.2134465873241425e-03 1.5830299258232117e-01 -6.1730142682790756e-02 -5.6120809167623520e-02 6.4666531980037689e-02 1.4153148233890533e-01 -2.2379592061042786e-02 -9.1623842716217041e-02 1.4576165378093719e-01 1.3295187056064606e-01 -2.0078251138329506e-02 -1.1853207647800446e-01 -1.4449875056743622e-01 -2.6946868747472763e-02 3.6683365702629089e-02 -1.8646351993083954e-02 -1.4506942033767700e-01 1.1079800873994827e-01 -1.6133864223957062e-01 4.9677472561597824e-02 1.2907478213310242e-01 1.4072634279727936e-01 1.4356535673141479e-01 -3.9711900055408478e-02 -1.1454312503337860e-01 -7.0325620472431183e-02 1.0803506523370743e-01 -9.2935130000114441e-02 -1.6841559112071991e-01 -3.9754856377840042e-02 -1.4378425478935242e-01 -1.4284388720989227e-01 -9.6334218978881836e-02 1.5574009716510773e-01 1.5810984373092651e-01 -9.6715204417705536e-02 -1.5851964056491852e-01 7.9015828669071198e-02 -1.5621531754732132e-02 7.5678594410419464e-02 -3.3715285360813141e-02 1.6886504366993904e-02 -1.6254799067974091e-01 -7.2090439498424530e-02 -1.5069364011287689e-01 1.3688883185386658e-01 -1.6618755459785461e-01 -9.0801663696765900e-02 1.3339258730411530e-01 -1.1271473020315170e-01 -2.4493621662259102e-02 2.7838271111249924e-02 -2.1583652123808861e-02 -1.5245488286018372e-01 -1.3119006156921387e-01 -1.0906735062599182e-01 -3.2074388116598129e-02 -1.4281322062015533e-01 -1.2283647060394287e-01 4.5930478721857071e-02 8.0094076693058014e-02 -4.6843368560075760e-02 -6.9194935262203217e-02 -1.7584840953350067e-01 1.2148573249578476e-01 9.8055256530642509e-03 1.6372981667518616e-01 -4.5946761965751648e-02 -1.6671913862228394e-01 5.6120555847883224e-02 6.7589983344078064e-02 -3.8035109639167786e-02 -1.3319893181324005e-01 -3.4122828394174576e-02 1.2188360840082169e-01 1.4708405733108521e-01 1.2170270830392838e-01 -1.3997477293014526e-01 4.1483514010906219e-02 -1.1140725109726191e-03 8.4630079567432404e-02 1.3832105696201324e-01 1.4372123777866364e-01 -1.3749270141124725e-01 1.6711777448654175e-01 1.0326385498046875e-01 1.2431620061397552e-01 -1.3768348097801208e-01 2.2209249436855316e-02 1.1621626466512680e-01 5.2728641778230667e-02 -1.1583647876977921e-01 -1.1140114814043045e-01 1.6505002975463867e-01 1.3591416180133820e-01 2.0021433010697365e-02 -1.7573517560958862e-01 -1.6600652039051056e-01 2.5587942451238632e-02 -1.6236962378025055e-01 1.6082260012626648e-01 -5.3293546661734581e-03 1.4241307973861694e-01 2.8534296900033951e-02 4.1548633016645908e-03 -5.9334961697459221e-03 -1.2126593291759491e-01 4.3138694018125534e-02 9.0255640447139740e-02 -5.0928454846143723e-02 5.7555951178073883e-02 5.5917400866746902e-02 1.7747755628079176e-03 -5.4804190993309021e-02 9.8658822476863861e-02 1.7047572135925293e-01 2.7459548786282539e-02 3.3441893756389618e-02 1.5249988064169884e-03 2.8054645285010338e-02 6.4382188022136688e-02 -1.3041435182094574e-01 -1.4201654493808746e-01 -1.6914602369070053e-02 -1.8493634462356567e-01 1.2499213963747025e-01 -1.0588796436786652e-01 1.4566169679164886e-01 7.3582768440246582e-02 -1.8053406476974487e-01 1.5103468298912048e-01 -6.9006018340587616e-02 7.5478896498680115e-02 -6.4491316676139832e-02 1.2529504299163818e-01 1.9621081650257111e-02 -1.0494916141033173e-01 -2.2389438748359680e-01 -1.1078859679400921e-02 9.9877089262008667e-02 7.5665570795536041e-02 -5.4273828864097595e-03 8.4378734230995178e-02 6.1950527131557465e-02 -1.0981231927871704e-01 -6.1883080750703812e-02 1.1304883658885956e-01 8.3568803966045380e-02 1.5899281203746796e-01 -1.9901666045188904e-01 5.6768380105495453e-02 1.0199382901191711e-02 1.4789913594722748e-01 1.1554280668497086e-01 -1.4540940523147583e-01 1.6315230727195740e-01 2.7841143310070038e-02 -9.0709224343299866e-02 1.6474728286266327e-01 6.7649655044078827e-02 1.4514777064323425e-01 -9.8490707576274872e-02 -1.0168430209159851e-01 -5.1673906855285168e-03 1.1859175562858582e-01 3.0741328373551369e-02 -5.4319755872711539e-04 -2.0489542186260223e-01 1.0389817506074905e-01 -1.5226060524582863e-02 5.4289657622575760e-02 -8.7434850633144379e-02 -4.8018403351306915e-02 -8.5926674306392670e-02 -8.9955613017082214e-02 7.7256105840206146e-02 1.0632593184709549e-01 6.4838483929634094e-02 -8.6000338196754456e-03 -5.3000506013631821e-02 -4.2865216732025146e-02 1.3951504230499268e-01 1.6141635179519653e-01 -1.0782659053802490e-01 -3.7262424826622009e-02 1.4713318645954132e-01 -6.1405417509377003e-03 -9.1751515865325928e-02 6.5990746952593327e-03 -2.6873832568526268e-02 -8.2029379904270172e-02 1.7204618453979492e-01 1.0622031241655350e-01 8.2195907831192017e-02 8.0447137355804443e-02 4.3493565171957016e-02 -5.4619707167148590e-02 -1.2261450290679932e-01 -4.5514147728681564e-02 -1.5012161433696747e-01 -1.8989846110343933e-01 -3.1613411847501993e-03 7.5411520898342133e-02 -7.3166094720363617e-02 -3.1587868928909302e-02 -8.8034033775329590e-02 1.6772586107254028e-01 1.6565218567848206e-01 9.8160272464156151e-03 -4.5999668538570404e-02 -1.6077719628810883e-01 -1.6491369903087616e-01 9.1177724301815033e-02 6.9656156003475189e-02 -7.9505831003189087e-02 7.0269107818603516e-02 -3.2584697008132935e-02 1.3335536420345306e-01 -1.1027617752552032e-01 8.5952326655387878e-02 -6.3570134341716766e-02 1.5597334504127502e-01 -6.6022370010614395e-03 -5.0354607403278351e-02 -1.3175549684092402e-03 1.5093356370925903e-02 4.1366409510374069e-02 5.3036071360111237e-02 1.7537452280521393e-01 -2.0567122846841812e-02 -1.0161551646888256e-02 -1.3955634832382202e-01 1.4150524139404297e-01 1.5404646098613739e-01 -1.2124186754226685e-01 -1.3947727158665657e-02 -1.2634997069835663e-01 -4.9770701676607132e-02 -5.3906846791505814e-02 -4.8135101795196533e-02 3.6411292850971222e-02 1.0292805731296539e-01 -1.0220764577388763e-01 3.0020877718925476e-02 7.0573338307440281e-03 -4.7773074358701706e-02 5.2244916558265686e-02 1.3268531858921051e-01 2.3948084563016891e-02 -1.8366064131259918e-01 -1.1463603004813194e-02 1.4912196993827820e-01 1.6074569523334503e-01 -2.7655910700559616e-02 -5.0752751529216766e-02 1.1803809553384781e-01 -6.1420757323503494e-02 -7.9400338232517242e-02 -8.9673049747943878e-02 1.1754995584487915e-01 1.6695296764373779e-01 1.4699839055538177e-01 -2.1819135174155235e-02 -4.5351192355155945e-02 -1.1650460213422775e-01 1.5267503261566162e-01 1.1279958486557007e-01 -1.2889181077480316e-01 -1.1513786390423775e-02 3.1359378248453140e-02 -7.7726580202579498e-02 1.2587644159793854e-01 -4.7636821866035461e-02 1.2816675938665867e-02 -2.3890677839517593e-02 -9.8599251359701157e-03 8.4749557077884674e-02 6.1727888882160187e-02 -1.3251283764839172e-01 8.7187781929969788e-02 -1.4804017543792725e-01 -1.4687676727771759e-01 -3.9889629930257797e-02 -1.2163178622722626e-01 -1.6805142164230347e-01 -1.4910967648029327e-01 1.7510429024696350e-01 1.4591355621814728e-01 4.8051912337541580e-02 8.3286082372069359e-03 1.5203084051609039e-01 -1.3238488137722015e-01 -9.2126645147800446e-02 -2.3880312219262123e-02 1.5051811933517456e-01 -1.6662083566188812e-01 1.5731669962406158e-01 1.3659156858921051e-01 -1.4654371142387390e-01 5.2181720733642578e-02 -2.8232792392373085e-02 -3.0391147360205650e-02 -1.4997902512550354e-01 2.6816304773092270e-02 -9.2565238475799561e-02 -7.0290431380271912e-02 1.7130704224109650e-01 -8.2803055644035339e-02 -1.1348759382963181e-01 6.9537125527858734e-02 -9.1898284852504730e-02 2.0462095737457275e-02 7.7917918562889099e-02 -1.6787378489971161e-01 1.2114347517490387e-01 1.1718545854091644e-01 7.3299944400787354e-02 1.0197817534208298e-01 1.1150364577770233e-01 2.1579852327704430e-02 -1.6180707514286041e-01 -1.3233268260955811e-01 1.4055089652538300e-01 -1.4311579288914800e-03 -1.1378043144941330e-01 1.2533739209175110e-01 -1.2000774592161179e-01 -2.2602096199989319e-02 -6.0544028878211975e-02 -1.1254932731389999e-01 -1.0962345451116562e-01 -5.2778411656618118e-02 -4.4402260333299637e-02 -1.1197650432586670e-01 -9.3876823782920837e-02 -6.1810538172721863e-02 8.8817693293094635e-02 -1.4107246696949005e-01 -1.7794968187808990e-01 -7.1058928966522217e-02 1.6325585544109344e-01 1.4283144474029541e-01 8.1656895577907562e-02 1.2739266455173492e-01 -1.7146725952625275e-01 -1.6347442567348480e-01 -8.4860688075423241e-03 -5.7018738240003586e-02 1.0834180563688278e-01 -1.1085287481546402e-01 3.5061493981629610e-03 -1.0107666254043579e-01 1.5142334997653961e-01 -1.0842937231063843e-01 -7.7712312340736389e-02 1.8679970502853394e-01 1.3022765517234802e-01 6.2953178712632507e-05 3.0007587745785713e-02 1.5194128267467022e-02 4.1529174894094467e-02 9.7446933388710022e-02 -6.3331946730613708e-02 9.3802519142627716e-02 1.3515908503904939e-03 1.2953117489814758e-01 8.9546062052249908e-02 -1.0935018956661224e-01 1.8536247313022614e-02 -1.4705821871757507e-01 -2.7588881552219391e-02 -1.0368629544973373e-01 -1.6488471627235413e-01 5.5113893002271652e-02 1.3985446095466614e-01 1.6765834391117096e-01 1.3758350908756256e-01 -2.8275633230805397e-02 1.4835278689861298e-01 1.5719015896320343e-01 6.1828747391700745e-02 5.1367565989494324e-02 -1.9263854483142495e-03 9.7553990781307220e-02 -1.3625545799732208e-01 -1.7910990118980408e-01 1.1581686139106750e-01 -2.5984246283769608e-02 1.5667727589607239e-01 6.1571862548589706e-02 -1.4647471904754639e-01 1.0364555567502975e-01 -1.6155555844306946e-01 -4.4105988927185535e-03 -2.9206173494458199e-02 -1.7082598805427551e-01 -2.9000777751207352e-02 -9.8887555301189423e-02 1.5146048367023468e-01 1.2662686407566071e-01 -6.6553376615047455e-02 5.4031848907470703e-02 -1.6439735889434814e-01 -5.8410629630088806e-02 1.0517121106386185e-01 -1.7514881491661072e-01 -1.2837924063205719e-01 -2.4326801300048828e-02 -1.4353951811790466e-01 1.1331263929605484e-01 -3.2422225922346115e-02 1.5204268693923950e-01 -7.7035859227180481e-02 -7.3969364166259766e-02 1.6500689089298248e-01 4.2199719697237015e-02 -7.9353630542755127e-02 -1.4804163575172424e-01 -8.9818671345710754e-02 1.0009281337261200e-01 6.5586820244789124e-02 -1.0898602753877640e-01 1.0877926647663116e-01 -1.6915275156497955e-01 -1.5614067018032074e-01 2.4873420596122742e-02 -8.6787804961204529e-02 -4.2467910796403885e-02 -2.4145478382706642e-02 6.0013055801391602e-02 -3.1899973750114441e-02 -3.2917086035013199e-02 1.3053217530250549e-01 -6.1392649076879025e-03 8.3577856421470642e-03 1.6351790726184845e-01 -8.4295444190502167e-02 5.9982664883136749e-02 -7.9066023230552673e-02 -6.0436461120843887e-02 2.9976760968565941e-02 -1.7207080125808716e-01 -6.2055729329586029e-02 2.3608883842825890e-02 -1.0772694647312164e-01 1.4739008247852325e-01 8.6100168526172638e-02 3.0338523909449577e-02 -8.6176902055740356e-02 -1.1772911995649338e-01 -1.0215002298355103e-01 1.4283010363578796e-01 1.3724899291992188e-01 6.3175834715366364e-02 -8.0020219087600708e-02 2.0776992663741112e-02 -1.2790720164775848e-01 -2.0712278783321381e-02 1.4684040099382401e-02 -1.2646511197090149e-01 -4.9079496413469315e-02 -4.0549751371145248e-02 -1.2205915153026581e-01 -2.5366695597767830e-02 -1.3902662694454193e-01 -4.0362343192100525e-02 -4.7817964106798172e-02 2.0916866138577461e-02 -1.3921593129634857e-01 -1.3221767544746399e-01 2.6365008205175400e-02 -8.3741776645183563e-02 -1.6824981197714806e-02 -1.6446684300899506e-01 6.4397729933261871e-02 -1.5252637863159180e-01 2.3648882284760475e-02 -1.6959881782531738e-01 -1.5208312869071960e-01 1.7172269523143768e-01 -1.5979027748107910e-01 -1.0015439242124557e-01 -1.4694982767105103e-01 4.3683812022209167e-02 1.7453737556934357e-01 -1.2885531410574913e-02 -5.4789759218692780e-02 -1.0409145057201385e-01 1.3850341737270355e-01 8.3908632397651672e-02 8.3909854292869568e-02 -4.9501461908221245e-03 5.8288920670747757e-02 -9.0116783976554871e-02 -3.8661709986627102e-03 1.5776631236076355e-01 -1.6768415272235870e-01 -1.8869427964091301e-02 1.3051964342594147e-01 -3.2522991299629211e-02 1.4342121779918671e-02 1.9142094999551773e-02 1.5761382877826691e-02 -8.5387408733367920e-02 1.1700856685638428e-01 -1.3852494955062866e-01 -3.2389786094427109e-02 4.5517053455114365e-02 -1.3247485458850861e-01 1.2307342886924744e-01 -3.1143741682171822e-02 3.4670162945985794e-02 6.3872933387756348e-02 -3.3622883260250092e-02 -1.3065040111541748e-01 8.5967883467674255e-02 -1.7044383287429810e-01 4.1712731122970581e-02 -9.1402746737003326e-02 -8.8711783289909363e-02 -1.8274353444576263e-01 -7.5822532176971436e-02 -8.6830638349056244e-02 2.7809863910079002e-02 -3.6496080458164215e-02 1.2863762676715851e-01 -1.3921883702278137e-01 1.0951641015708447e-02 6.9790974259376526e-02 1.4801856875419617e-01 -7.0582166314125061e-02 1.1272198706865311e-01 -3.8024131208658218e-02 1.3226844370365143e-01 -1.5682743489742279e-01 1.1959821730852127e-01 1.5599448978900909e-01 9.2695243656635284e-02 -8.1730641424655914e-02 -3.7814557552337646e-02 -7.9469256103038788e-02 -4.0254950523376465e-02 3.4702830016613007e-02 6.0345906764268875e-02 -7.9041644930839539e-02 -1.3118848204612732e-01 -1.5466976910829544e-02 -1.5306663513183594e-01 3.3781513571739197e-02 1.0880122333765030e-01 -3.8558538071811199e-03 -2.9939988628029823e-02 -7.9264692962169647e-02 -9.0739749372005463e-02 -1.0281118005514145e-01 3.6675821989774704e-02 -9.7906284034252167e-02 2.0697370171546936e-02 -1.8095944821834564e-01 -1.4912436902523041e-01 -5.0752088427543640e-02 -5.2385710179805756e-02 2.2388579323887825e-02 -1.7144659161567688e-01 -1.5968681871891022e-01 8.0912314355373383e-02 -4.8679094761610031e-02 1.6942372918128967e-01 -1.2120250612497330e-01 3.5703469067811966e-02 1.4413808286190033e-01 -9.3000475317239761e-03 1.2969294190406799e-01 -7.9093940556049347e-02 1.2348616868257523e-01 1.4853462576866150e-01 -1.4636676013469696e-01 1.7505982518196106e-01 -1.7747732996940613e-01 -7.4184477329254150e-02 1.4237171411514282e-01 5.9107799082994461e-02 -1.6591164469718933e-01 1.5229652822017670e-01 1.9851567223668098e-02 9.4118148088455200e-02 5.1308535039424896e-02 5.6774593889713287e-02 -6.8018727004528046e-02 -5.6054756045341492e-02 6.1108148656785488e-03 -1.2955656647682190e-01 -8.9868567883968353e-02 -2.3553149774670601e-02 5.6594941765069962e-02 -8.1128112971782684e-02 8.0820759758353233e-03 -3.6595031619071960e-02 -1.7910002171993256e-01 -1.6938471794128418e-01 1.0011406987905502e-01 3.5853210836648941e-02 7.3109857738018036e-02 -1.6190071403980255e-01 7.9664401710033417e-03 1.6209127008914948e-01 5.9306483715772629e-02 1.1200328357517719e-02 -4.4331535696983337e-02 1.2278203666210175e-01 2.5116505101323128e-02 -1.1205000430345535e-01 1.0390555858612061e-01 -6.8961150944232941e-02 -1.4901065826416016e-01 -2.3657746613025665e-02 1.2574452161788940e-01 1.9519053399562836e-02 1.3963434845209122e-02 1.0112711787223816e-01 3.0645342543721199e-02 -1.7636199295520782e-01 -3.4811172634363174e-02 1.7662050202488899e-02 6.8561986088752747e-02 -1.3097161054611206e-01 -1.0298086702823639e-01 1.0178901255130768e-01 -1.3213593512773514e-02 -1.6479039192199707e-01 1.3848026096820831e-01 -1.4507891237735748e-01 1.6461620107293129e-02 1.2103991955518723e-01 -1.4198389649391174e-01 -1.4506375789642334e-01 -7.2642751038074493e-02 1.7739772796630859e-02 1.4328593015670776e-01 -1.2039826810359955e-01 7.4559099972248077e-02 8.0550618469715118e-02 1.0776823759078979e-01 -3.7575550377368927e-02 4.2954023927450180e-02 5.5407334119081497e-02 -1.0559517145156860e-01 -1.3919413089752197e-01 -1.0289861261844635e-01 -1.1357787996530533e-01 -7.2810901328921318e-03 -1.5579795837402344e-01 -4.1925322264432907e-02 -1.7547281086444855e-01 5.2991021424531937e-02 8.2274988293647766e-02 -9.7550593316555023e-02 2.4947371333837509e-02 9.8506040871143341e-02 6.6236332058906555e-02 -1.7263254523277283e-01 -5.5171336978673935e-02 -7.3755078017711639e-02 -3.6846138536930084e-02 1.4106799662113190e-01 5.6060183793306351e-02 -1.4744386076927185e-01 5.4573167115449905e-02 1.5004579722881317e-01 1.2235018610954285e-01 1.1200207471847534e-01 1.5065424144268036e-01 -1.8842127174139023e-02 1.4176274836063385e-01 -1.2852498888969421e-01 2.5010112673044205e-02 -3.8387820124626160e-02 -5.5319294333457947e-02 -5.8024980127811432e-02 1.3653540052473545e-02 9.9674306809902191e-02 4.9392729997634888e-02 -1.4886347949504852e-01 -6.2205977737903595e-03 8.3282254636287689e-02 1.3401517644524574e-02 5.6014310568571091e-02 6.4800158143043518e-03 -4.4675219804048538e-02 -1.2164106220006943e-01 9.2339515686035156e-02 -1.3164544105529785e-01 1.6304700076580048e-01 1.3072516024112701e-01 1.0422366857528687e-01 1.1372796446084976e-01 2.0959796383976936e-02 4.3324988335371017e-02 6.3052661716938019e-02 8.9069455862045288e-02 7.6833583414554596e-02 -2.7029767632484436e-02 1.5186515450477600e-01 -2.7054028585553169e-02 -9.5626063644886017e-02 1.3121044635772705e-01 1.2643504142761230e-01 -5.4280325770378113e-02 6.9607153534889221e-02 9.5559418201446533e-02 9.7373619675636292e-02 1.2871260941028595e-01 9.8316654562950134e-02 -1.3994021713733673e-01 7.5641646981239319e-02 -1.5446858108043671e-01 -9.8081365227699280e-02 1.2760910205543041e-02 -1.1860124021768570e-01 -6.9066576659679413e-02 1.0000192373991013e-01 -2.6526739820837975e-03 -1.6360951587557793e-02 -1.3096797466278076e-01 5.9587065130472183e-02 9.8869957029819489e-02 -5.8175459504127502e-02 6.0531750321388245e-02 -6.0572523623704910e-02 1.5668708365410566e-03 1.0055325180292130e-01 -4.6471804380416870e-02 3.3891402184963226e-02 2.1006893366575241e-02 -1.3284878432750702e-01 7.4769921600818634e-02 8.5237137973308563e-02 -6.3873164355754852e-02 -6.3444152474403381e-02 -7.0739276707172394e-02 6.7487642168998718e-02 -1.7410887777805328e-01 -1.5146590769290924e-01 2.8566185384988785e-02 6.7367739975452423e-02 1.6391883790493011e-01 6.9787889719009399e-02 8.9503444731235504e-02 -1.1747384071350098e-01 3.5970535129308701e-02 -8.5236117243766785e-02 1.1052585393190384e-01 -9.5841847360134125e-02 -4.8413712531328201e-02 1.4523671567440033e-01 1.5884320437908173e-01 -9.8396524786949158e-02 -1.5465858578681946e-01 -9.4134546816349030e-02 1.0864996165037155e-01 -1.0082685202360153e-01 -7.2683922946453094e-02 1.7294800281524658e-01 -2.4799622595310211e-02 -1.6076166927814484e-01 -9.9273018538951874e-02 9.5995731651782990e-02 -6.3868418335914612e-02 1.3257166743278503e-01 -1.0819891095161438e-01 -5.7534508407115936e-02 1.6210272908210754e-01 -1.1738573014736176e-01 1.2044797837734222e-01 -8.5642211139202118e-02 8.1702411174774170e-02 1.1461039632558823e-01 1.1166172474622726e-01 -1.4277333021163940e-01 -1.5488140285015106e-02 -9.1802261769771576e-02 -1.3285966217517853e-01 -5.5773936212062836e-02 -5.9034503996372223e-02 7.1885278448462486e-03 1.1690994352102280e-01 -1.7163926362991333e-01 -4.9503133632242680e-03 -1.4926889538764954e-01 -5.1487557590007782e-02 -1.4648988842964172e-01 -2.4130593985319138e-02 -1.4605456590652466e-01 -9.5764063298702240e-02 1.1780407279729843e-01 1.1432237178087234e-01 -1.2321983277797699e-01 -1.2421136349439621e-01 -6.2070313841104507e-02 -9.0161271393299103e-02 -3.5185914486646652e-02 4.6558473259210587e-02 1.1404025554656982e-01 1.5009371936321259e-01 -1.7656845739111304e-03 8.0160945653915405e-02 1.8730338662862778e-02 9.7599275410175323e-02 8.4415011107921600e-02 -2.1950351074337959e-03 1.0083421319723129e-01 -1.5231648087501526e-01 1.2575949728488922e-01 -1.3097040355205536e-01 -1.2243703007698059e-01 2.6334324851632118e-02 3.3700514584779739e-02 -1.2655757367610931e-01 3.5871647298336029e-02 8.9908480644226074e-02 -2.7598807588219643e-02 -1.6676050424575806e-01 1.3105003535747528e-01 -9.1502614319324493e-02 -1.6669602692127228e-01 7.1542091667652130e-02 7.0579104125499725e-02 -1.7004299908876419e-02 3.7500429898500443e-02 8.5040479898452759e-02 9.9349975585937500e-02 1.6081616282463074e-01 -5.9128772467374802e-02 1.7223246395587921e-01 -6.5060430206358433e-03 3.7385918200016022e-02 3.6971285939216614e-02 -1.7359206080436707e-01 7.5511053204536438e-02 7.8996248543262482e-02 -1.5368288755416870e-01 -1.6952386498451233e-01 6.4101092517375946e-02 2.5188329163938761e-04 -1.7361550033092499e-01 -1.6403717920184135e-02 1.2433913350105286e-01 1.0579888522624969e-01 -8.9157717302441597e-03 9.1383859515190125e-02 -8.0550990998744965e-02 1.0208462178707123e-01 -1.6961252689361572e-01 -1.2181384116411209e-01 1.4629490673542023e-01 -4.6329558826982975e-03 -9.5278866589069366e-02 -2.4992290884256363e-02 8.9920558035373688e-02 -1.2112316489219666e-01 7.3373414576053619e-02 -1.0746261477470398e-01 -3.0784551054239273e-02 -4.0912225842475891e-02 8.3347514271736145e-02 1.2986281514167786e-01 1.1537822335958481e-01 2.9855584725737572e-03 -1.3911473751068115e-01 -4.7385845333337784e-02 3.8574282079935074e-02 -1.9495035707950592e-01 2.7261245995759964e-02 6.9642081856727600e-02 -1.0357744991779327e-01 3.2868277281522751e-02 -5.1502555608749390e-02 9.5633780583739281e-03 1.1210187524557114e-01 -3.6914378404617310e-02 -6.8656601011753082e-02 -5.3384434431791306e-03 -2.0177835598587990e-02 -8.1379368901252747e-02 -9.2051342129707336e-02 1.0796855390071869e-01 1.2998493015766144e-01 9.7336195409297943e-02 -1.6381366550922394e-01 -9.0828068554401398e-02 -1.3807053864002228e-01 7.7348545193672180e-02 -1.0924918949604034e-01 -1.1710909754037857e-01 1.0874020308256149e-01 1.5462888777256012e-01 1.5426783263683319e-01 -1.6923911869525909e-01 -3.8857962936162949e-02 -1.9686862826347351e-01 -1.8546338379383087e-01 -1.4685967564582825e-01 1.9792037084698677e-02 3.4308377653360367e-02 -1.7847664654254913e-01 1.3201712071895599e-01 -1.9090066850185394e-01 2.2783608734607697e-01 9.6039846539497375e-02 7.4176087975502014e-02 1.1595809459686279e-01 -1.1182469129562378e-01 -8.2093030214309692e-02 1.7132052779197693e-01 6.1045987531542778e-03 2.0049993693828583e-01 -2.3176337778568268e-01 1.6264845430850983e-01 1.4391826093196869e-01 -1.2397395819425583e-01 1.0358887910842896e-01 -1.1068764328956604e-01 -3.8226019591093063e-02 -1.7345042526721954e-01 1.3400284945964813e-01 1.3138094544410706e-01 1.8255195021629333e-01 -4.6876324340701103e-03 1.1082220822572708e-01 1.9621159881353378e-02 -1.8457587063312531e-01 5.2201613783836365e-02 -6.0750115662813187e-02 -1.8577691912651062e-01 -3.0764278024435043e-02 -1.7808770760893822e-02 -6.0961194336414337e-02 1.4137686230242252e-02 3.1322665512561798e-02 -1.0685052722692490e-02 1.8586572259664536e-02 1.1835379898548126e-01 -6.9640696048736572e-02 -1.4508952200412750e-01 6.5808139741420746e-02 8.2880882546305656e-03 2.8605611994862556e-02 4.7222942113876343e-02 1.2463786453008652e-01 -1.1436302214860916e-01 1.3676115870475769e-01 5.0511632114648819e-02 7.6340600848197937e-02 3.0522657558321953e-02 1.6454987227916718e-01 6.8592235445976257e-02 2.8393350541591644e-02 1.1485587060451508e-01 -1.0581588745117188e-01 -4.4559419155120850e-02 -1.6311618685722351e-01 5.7680428028106689e-02 -9.2888534069061279e-02 9.5227181911468506e-02 -1.2201902270317078e-01 -4.7487460076808929e-02 -3.7618700414896011e-02 1.6493792831897736e-01 -7.8878346830606461e-03 -2.9327094554901123e-02 8.4110878407955170e-02 -1.6076950728893280e-01 2.4254137650132179e-02 2.7703780680894852e-02 -5.4572720080614090e-02 -8.1054726615548134e-03 1.5739051997661591e-01 -4.6727568842470646e-03 9.0862140059471130e-02 9.7860090434551239e-02 1.8113766610622406e-01 5.2341163158416748e-02 1.9765481352806091e-01 1.4182339608669281e-01 3.0823625624179840e-02 -1.2559227645397186e-01 1.5485788881778717e-01 6.3684997148811817e-03 9.9142275750637054e-02 -5.7142838835716248e-02 -1.3207657635211945e-01 -3.1969159841537476e-02 -1.4776769280433655e-01 7.9743601381778717e-02 3.0752638354897499e-02 -1.9851817341987044e-05 -1.3192733749747276e-02 -1.7585003376007080e-01 -1.5128369629383087e-01 -1.5496572852134705e-01 5.7784263044595718e-02 -3.6705434322357178e-03 -5.3227659314870834e-02 -1.1406345665454865e-01 -1.6600802540779114e-01 -5.2718579769134521e-02 -1.5690858662128448e-01 1.0935877263545990e-01 3.0659353360533714e-02 -1.4007953926920891e-02 9.5690963789820671e-03 -1.3641341030597687e-01 1.5497730672359467e-01 8.8877946138381958e-02 -1.4486034214496613e-01 -2.6702374219894409e-02 -1.3249585032463074e-01 -4.5031093060970306e-02 7.9335691407322884e-03 -1.2136195600032806e-01 -1.7729489505290985e-01 -1.4383269473910332e-02 1.0967706143856049e-01 1.3171753287315369e-01 -6.6671043634414673e-02 7.0568160153925419e-03 -9.9753282964229584e-02 -4.9932815134525299e-02 1.1120226979255676e-01 -7.0599364116787910e-03 1.1009738594293594e-01 5.9739530086517334e-02 1.5727679431438446e-01 -5.6654427200555801e-02 5.8226685971021652e-02 2.2440707311034203e-02 -5.5540241301059723e-02 -9.0219907462596893e-02 -3.5048212856054306e-02 -1.2321531027555466e-01 -1.2925979495048523e-01 -1.2544545531272888e-01 1.5940858423709869e-01 -5.3685463964939117e-02 -1.0177376866340637e-01 1.7030213773250580e-01 1.5352536924183369e-02 -2.4901857599616051e-02 1.2882024049758911e-01 -5.7927150279283524e-02 -2.8427237644791603e-02 -6.2968552112579346e-02 -1.6682010889053345e-01 -8.1313900649547577e-02 -2.5212941691279411e-03 3.7381714209914207e-03 -2.7546087279915810e-02 1.4381137490272522e-01 -2.2079728543758392e-02 1.3539509847760201e-02 -6.6185839474201202e-02 -1.6885218024253845e-01 -1.4082609675824642e-02 -1.7290414869785309e-01 7.5361922383308411e-02 4.4782725162804127e-03 -1.1418206989765167e-01 1.5141116082668304e-01 8.1457316875457764e-02 -1.5626282989978790e-01 1.5947696566581726e-01 1.3544179499149323e-01 -6.1675101518630981e-02 8.6621092632412910e-03 -4.4040698558092117e-02 -4.5209348201751709e-02 6.1805572360754013e-02 3.1584189273416996e-03 -1.2723517417907715e-01 -7.1466237306594849e-02 9.4072252511978149e-02 -1.0135604441165924e-01 3.3137053251266479e-02 3.5448729991912842e-02 -1.0173603147268295e-01 -1.5156766772270203e-01 1.7163519561290741e-01 1.4162419363856316e-02 -1.1726701259613037e-01 1.7293702065944672e-01 5.2043739706277847e-02 -8.1170514225959778e-02 6.6732287406921387e-02 1.0938903689384460e-01 1.0811405256390572e-02 9.1336756944656372e-02 -9.7517341375350952e-02 6.3516080379486084e-02 1.0378014994785190e-03 9.4742529094219208e-02 1.0872989147901535e-01 -3.7217561155557632e-02 3.7373561412096024e-02 -1.0660500079393387e-01 1.3773564994335175e-01 1.6669869422912598e-01 -1.0867467522621155e-01 6.6241763532161713e-02 8.8900439441204071e-02 -1.4827704429626465e-01 1.1908228695392609e-01 -1.7928013205528259e-01 6.2961183488368988e-02 -3.8592778146266937e-02 1.3610380887985229e-01 2.1119706332683563e-02 8.3478234708309174e-02 9.1248147189617157e-02 -1.2697795033454895e-01 5.1880713552236557e-02 -6.5546728670597076e-02 -1.3137058913707733e-01 -2.9863733798265457e-02 1.3824026286602020e-01 -1.1269748210906982e-01 -1.3506412506103516e-01 6.5559007227420807e-02 -1.4002236723899841e-01 -1.2534692883491516e-01 -1.4993157982826233e-01 1.2817046046257019e-01 1.5800614655017853e-01 -1.3981840014457703e-01 -9.0741068124771118e-03 4.6526306505256798e-06 -9.9159277975559235e-02 9.0295180678367615e-02 1.0547623038291931e-01 2.8903963044285774e-02 -1.0160550475120544e-01 8.4737956523895264e-02 -2.4485250469297171e-04 -1.0660240054130554e-01 -1.3491697609424591e-01 6.9257922470569611e-02 -7.8811952844262123e-03 -6.4123444259166718e-02 9.3818813562393188e-02 -1.6812746226787567e-01 1.8540537357330322e-01 2.7012983337044716e-02 1.7132975161075592e-01 1.7341126501560211e-01 1.1390525847673416e-01 3.0798895284533501e-02 